{
  "saved_at": "2026-04-27T13:21:32",
  "schema_version": 2,
  "mode": "heading_strafe",
  "mode_suffix": "heading_strafe",
  "model_mode": "heading_strafe",
  "input_dim": 257,
  "output_dim": 3,
  "memory_steps": 10,
  "whisker_dim": 11,
  "input_layout": [
    "t-9.whiskers",
    "t-9.target_bbox_lengths",
    "t-9.heading_to_target",
    "t-9.action.rotation_rate",
    "t-9.action.vx",
    "t-9.action.vy",
    "t-8.whiskers",
    "t-8.target_bbox_lengths",
    "t-8.heading_to_target",
    "t-8.action.rotation_rate",
    "t-8.action.vx",
    "t-8.action.vy",
    "t-7.whiskers",
    "t-7.target_bbox_lengths",
    "t-7.heading_to_target",
    "t-7.action.rotation_rate",
    "t-7.action.vx",
    "t-7.action.vy",
    "t-6.whiskers",
    "t-6.target_bbox_lengths",
    "t-6.heading_to_target",
    "t-6.action.rotation_rate",
    "t-6.action.vx",
    "t-6.action.vy",
    "t-5.whiskers",
    "t-5.target_bbox_lengths",
    "t-5.heading_to_target",
    "t-5.action.rotation_rate",
    "t-5.action.vx",
    "t-5.action.vy",
    "t-4.whiskers",
    "t-4.target_bbox_lengths",
    "t-4.heading_to_target",
    "t-4.action.rotation_rate",
    "t-4.action.vx",
    "t-4.action.vy",
    "t-3.whiskers",
    "t-3.target_bbox_lengths",
    "t-3.heading_to_target",
    "t-3.action.rotation_rate",
    "t-3.action.vx",
    "t-3.action.vy",
    "t-2.whiskers",
    "t-2.target_bbox_lengths",
    "t-2.heading_to_target",
    "t-2.action.rotation_rate",
    "t-2.action.vx",
    "t-2.action.vy",
    "t-1.whiskers",
    "t-1.target_bbox_lengths",
    "t-1.heading_to_target",
    "t-1.action.rotation_rate",
    "t-1.action.vx",
    "t-1.action.vy",
    "t+0.whiskers",
    "t+0.target_bbox_lengths",
    "t+0.heading_to_target"
  ],
  "output_layout": [
    "rotation_rate",
    "vx",
    "vy"
  ],
  "history_includes_drive": false,
  "hidden_layers": 3,
  "hidden_width": 100,
  "activation": "relu",
  "weights": [
    [
      [
        0.02240967707729156,
        -0.09887323083032186,
        0.05885317624439626,
        0.09280194598870431,
        -0.17211294607082603,
        -0.11943207286110355,
        0.017168031982800185,
        -0.028726207930342515,
        0.0020699745615201286,
        -0.0768472544231824,
        0.07573401365028007,
        0.05772884332901963,
        0.003611197328938279,
        0.09944095636612565,
        0.04752041241846314,
        -0.07580353147055949,
        0.032529799658896144,
        -0.0839068060942199,
        0.07284043148683392,
        -0.00960938359797909,
        -0.016220333776014638,
        -0.04852859587308035,
        0.11038565282174902,
        -0.007521625856260473,
        -0.03867919670002866,
        -0.03564986601303323,
        0.04354095145389356,
        0.03225823354274281,
        0.03616745603324374,
        0.03741405172536842,
        0.1880314414247183,
        -0.034810587492182396,
        -0.05115899053238823,
        -0.06000055516856992,
        0.057032451894996485,
        0.0994316822242501,
        -0.009263586176514734,
        -0.07569299556730456,
        -0.07676282508083265,
        0.058254846289052246,
        0.07043205333710145,
        0.045362104323912265,
        -0.05870874960447118,
        0.021396577916879208,
        0.011234829114472185,
        0.018655253853043115,
        0.06987713378741278,
        0.021499546976854744,
        0.05738091995729374,
        0.002150725748816283,
        0.02786037646280891,
        0.05725803940145682,
        -0.12901779722037746,
        -0.0321856696155191,
        -0.04144776564809345,
        -0.05615082633393788,
        -0.013432636524684505,
        0.13263201058544882,
        -0.073872935522653,
        0.09024513770870696,
        -0.1542825779983148,
        -0.03450797817198927,
        0.008739816855724548,
        0.06364769532673836,
        0.055425361553850826,
        0.06521777839052732,
        -0.031258235593186606,
        -0.041591347023377225,
        0.07732874059159127,
        -0.014477867984244166,
        -0.10764199342163538,
        -0.10294033813629368,
        -0.08111060355835058,
        0.04243608720351531,
        0.011172375098598907,
        0.06091200671237434,
        -0.038332738518103864,
        0.011152813709734595,
        0.0551872187469966,
        -0.02516007977516902,
        0.03842829357191417,
        -0.05933029582889947,
        -0.03509683064300811,
        -0.02740121047625581,
        -0.10537769855875585,
        0.034849711850556804,
        -0.04140637372014484,
        0.0007559429950089404,
        0.03445559987079204,
        0.04649656543674984,
        0.06074076105227536,
        -0.008584902016067597,
        -0.037341776292100226,
        -0.009357402492098488,
        -0.15356947542269506,
        -0.1282799534394871,
        -0.11668355772000756,
        -0.09030566316989727,
        0.03358148427455467,
        -0.07897779075674057
      ],
      [
        -0.04708531495954656,
        0.09973132027814614,
        -0.031181964128134947,
        0.05896060837630866,
        -0.0823602210481811,
        -0.03564641501661827,
        -0.08144500647930086,
        -0.03034311359478729,
        0.07410518726611343,
        -0.1533886322897904,
        0.04673599440977969,
        0.03375046170544358,
        -0.05438240429020488,
        -0.12756575532570424,
        0.004994874015139409,
        -0.04670984439951229,
        0.020525815449021906,
        0.002767379400998217,
        0.12936069064659372,
        -0.025981838271342865,
        -0.08424620397400408,
        0.037119531337673636,
        0.02370554652200059,
        0.11217696944752334,
        0.07249043941109427,
        0.038321218543948946,
        0.1270042741493799,
        -0.10393111962928925,
        -0.056080850612075676,
        -0.08240375425521507,
        -0.03476650211525122,
        -0.11334025833522687,
        0.06179962756114193,
        -0.002893871977291387,
        -0.11578696328648795,
        -0.08937532905001964,
        0.02837902364506632,
        0.0550178132265754,
        0.17234137461048718,
        0.2379720591963542,
        0.033406065288594425,
        -0.1025874417012422,
        -0.18808106008031608,
        0.024221197603109604,
        -0.08625679306610894,
        -0.05066548622748127,
        -0.05983954310050617,
        -0.01512615753586187,
        0.09115883676708322,
        0.01323390125942128,
        -0.014214535805244736,
        -0.09002529562242108,
        -0.1211529896447904,
        -0.04120348156426795,
        -0.0005663145414645627,
        0.15594272295288222,
        0.02159900364794096,
        0.08858381123424289,
        -0.041072016826252625,
        -0.08920628289764132,
        -0.09113701736535615,
        -0.07091714547597865,
        0.1823889170100025,
        -0.03569629357394188,
        0.04899042038895979,
        -0.09306483808692387,
        0.09346248937949345,
        0.033785503888507415,
        -0.01497827934805639,
        -0.02191591435207103,
        -0.03822679505173047,
        0.01917964172177193,
        -0.040136922014738376,
        -0.0981933171207909,
        -0.11465041393171373,
        0.015225053421962483,
        0.1387718368031188,
        0.012158910149388512,
        -0.010465824472275153,
        0.022069051748124974,
        0.13163129511947674,
        0.01820662045677359,
        -0.03871327005552964,
        0.0930610987312554,
        0.038179076849431184,
        0.1261584388083177,
        0.015930593466233104,
        -0.10819945707397728,
        -0.13452545439408625,
        0.1435418610983318,
        0.14771505853021255,
        -0.01572332725788155,
        -0.03380333636278871,
        0.12558023561057277,
        -0.09810837520904785,
        -0.07971559285934679,
        0.056751856944533205,
        -0.037035933025463076,
        -0.003208802849082051,
        -0.011337304059337043
      ],
      [
        0.02686455716562027,
        0.11897141803414145,
        0.00483071925183864,
        0.06446550135537002,
        -0.18085842957252327,
        -0.008836519650490501,
        -0.06901329674895115,
        -0.10743178961029932,
        -0.07710325155776535,
        -0.030838420815839453,
        0.08119231940649635,
        -0.1147831208076549,
        0.0008255906400080374,
        -0.04271159641460972,
        -0.021308231026077647,
        0.0884595031972904,
        0.04747050884963217,
        0.11804303666062507,
        -0.01248957509489438,
        -0.06573988932848543,
        -0.01624048471657513,
        0.031022605764901873,
        0.015227518893350157,
        -0.09302558027119669,
        0.006696502452916186,
        0.01893886473955684,
        0.21877926014426138,
        0.16647778274204075,
        -0.07484970780662965,
        -0.026001587214166684,
        -0.12970755186979732,
        -0.04937960662451958,
        0.02441139632806014,
        0.10872142697727545,
        -0.06082549489439888,
        -0.0575796545985267,
        -0.1887673727174561,
        -0.014798265318554582,
        -0.09739967548181601,
        -0.04718175672689366,
        -0.07618531372867834,
        -0.010971818384901359,
        -0.1550601514457871,
        -0.12954254407988142,
        0.18993002046195778,
        -0.11528824609020534,
        -0.0997076816504998,
        0.16234380725600506,
        0.25344795823697125,
        -0.10424046308096903,
        -0.029238771558147802,
        0.03345750419648209,
        0.15186564870504612,
        -0.08800369383890352,
        -0.019958699946822877,
        0.06885804215565416,
        0.049915918700555464,
        -0.03139692604143431,
        -0.01176554831923512,
        -0.11777737053750634,
        -0.026990593355168405,
        -0.02937577593516949,
        0.015220800275962907,
        -0.04528827707249096,
        0.03632101971042578,
        0.08795119359958324,
        0.014448505022375793,
        0.03084752634770933,
        0.004576811035740866,
        0.0011498615702865078,
        -0.057620172737130826,
        0.03435200714026922,
        -0.008582255801192465,
        0.1872016843151649,
        0.13747216960726266,
        0.03403792370223306,
        -0.06743288072307009,
        -0.0995676239091061,
        0.10507812675028207,
        0.020157265874781467,
        0.040382605628933185,
        -0.15475751297870322,
        0.07943004898468678,
        0.042263978332495525,
        -0.09757873406064897,
        -0.04751494544928981,
        0.023262206138982205,
        0.004960821402640633,
        -0.030013930815437136,
        -0.004335883726177063,
        -0.02024370205387207,
        0.013558099515787824,
        0.12980945708425146,
        -0.22947718653949029,
        -0.01860705298032701,
        0.01469968379351547,
        0.026111470403286118,
        -0.03501400463110285,
        -0.15898715254046206,
        0.030960511223223366
      ],
      [
        0.14741854612739289,
        -0.1406044284031115,
        0.06255613186531589,
        -0.02369207051225359,
        -0.005409801877408249,
        -0.09042767154170603,
        -0.023802624484263787,
        0.11412896136148921,
        0.06434629603742247,
        0.15112428235229605,
        0.09662947524934028,
        0.022420409522886365,
        0.15194363225143168,
        0.03872631631391454,
        0.07456405142889574,
        -0.026162367972005437,
        0.005870420217339589,
        -0.06127820041256673,
        0.073806655315349,
        -0.10808690374359214,
        0.0650959583698437,
        -0.013154380407764754,
        0.11221134843572884,
        0.0745504108986632,
        0.1601107447914444,
        0.05287482549227184,
        -0.14163896471812457,
        -0.005566139869147808,
        -0.1028907320456569,
        -0.04615206899765161,
        0.13228928523589473,
        0.05571506129005892,
        -0.07434807659047568,
        -0.07120950718715352,
        0.005713701381195694,
        -0.10721811140079188,
        -0.05837511750116465,
        0.027522359890238948,
        0.0982983244436656,
        0.05506758461196208,
        -0.19674251611505422,
        0.021923056176805546,
        0.006354529419647125,
        0.036031191284042446,
        0.1456788156486439,
        -0.17851208186605447,
        -0.06776567592512384,
        0.053869046633789615,
        -0.14303885665535787,
        0.12299498103987865,
        0.037323248998370084,
        0.07358688696433187,
        -0.0501560484859515,
        0.062084585772020695,
        0.09570775254352783,
        0.020873515148548773,
        0.025775015270625645,
        0.020548098524018652,
        -0.0718799855188719,
        -0.012276970598565858,
        -0.019475001514259273,
        0.02678798301616178,
        0.08263129237206807,
        -0.07478168788021666,
        -0.010115148083380099,
        0.12080888110964182,
        -0.06532121281681225,
        -0.07255697709459781,
        0.02005433813246219,
        0.07615114768342579,
        0.002696809836850576,
        0.10527620170594092,
        0.07558312498557658,
        0.07151736856834838,
        0.04727980980582068,
        0.20533675397616669,
        -0.018437345831349698,
        -0.17761631062632563,
        0.14152125292942455,
        -0.025899919933560785,
        0.0015919851700884778,
        0.11435536533426886,
        -0.14359910039450272,
        -0.10098317740886427,
        -0.14100917304240582,
        -0.07799839902353585,
        0.03942680338815361,
        0.04665307318114651,
        0.010442436056093601,
        -0.11210596915093997,
        -0.20224316148070104,
        0.004887995367037783,
        -0.041618297561884635,
        0.037085519427525145,
        0.058668684723156166,
        0.011786767164360373,
        0.06705606618003306,
        0.018096638554243923,
        0.04350166615925642,
        -0.058786879603756455
      ],
      [
        -0.019509201686521167,
        0.012582689864348398,
        0.0625910368289891,
        -0.021435271679368553,
        0.04597540439113859,
        -0.024483118246369673,
        -0.0014788211711173386,
        0.0726987018105064,
        -0.16951397291232842,
        -0.11581420236511478,
        -0.13275765886654747,
        -0.2158080512501706,
        -0.061352739156318635,
        0.06611222448349961,
        -0.017542587859451515,
        0.017448293041854624,
        0.09608664844232416,
        0.1176614061686395,
        -0.009977326867637009,
        0.11407827875336223,
        0.007227600398557406,
        -0.062085794768250185,
        -0.05019364995009804,
        -0.12394446310576031,
        -0.07708188776924577,
        -0.03574800099308243,
        0.06655334509816567,
        0.15310147053218742,
        -0.12118778304967541,
        0.03455702869418007,
        -0.09267032696190312,
        0.04280023101471823,
        -0.0170394462471091,
        -0.15182409433761967,
        0.08490785206083078,
        -0.05333118413058554,
        -0.04620192333444905,
        -0.09414044339929911,
        -0.06107806980535248,
        0.03983610017168715,
        -0.012938878197969067,
        0.02756281620614738,
        0.0319273772658544,
        0.11593144860077324,
        -0.024324234134131636,
        -0.1290207935292946,
        0.08762847202468241,
        -0.025442652817259645,
        0.09487795050741443,
        0.029369226312105274,
        -0.009001793979132913,
        0.03291078293813713,
        0.16839538519061928,
        0.17908508602061637,
        0.005409119324521926,
        0.014463582010836742,
        0.10896196447939989,
        -0.07302523795527971,
        0.030241667165810397,
        0.002717022629105747,
        0.0219824502828717,
        -0.07745128230706932,
        -0.14600996515852668,
        -0.1735996769035655,
        -0.10520454238074091,
        -0.04247195304950486,
        -0.028283247732268688,
        0.17071714285453266,
        0.09940339902942638,
        -0.08101161336293107,
        0.035083358718160214,
        -0.03611756540577325,
        -0.025085502406984875,
        0.013073213919059192,
        0.05342593147655583,
        -0.02992810046705916,
        0.09346197457364297,
        -0.10117946134506145,
        0.0005592081090292877,
        0.23027233140163914,
        0.014356360286272405,
        0.12590273207012975,
        0.005834199928763241,
        0.05863941082506503,
        -0.005127433991022772,
        -0.023979205078203922,
        -0.07000584471429172,
        0.03828407801355384,
        -0.08391509221614597,
        0.06629908649087198,
        0.09628763223560236,
        0.03242429927169835,
        -0.025251780761220442,
        0.03663349903217597,
        -0.026241507817161065,
        0.08174162703316988,
        -0.16155971888122944,
        -0.03200774501468693,
        -0.1788142521628453,
        -0.13093856646048865
      ],
      [
        0.11285064958390015,
        0.06924127258944102,
        -0.06998190670442707,
        -0.12805794233475812,
        -0.2615195230511946,
        -0.05484114744967194,
        0.21778400489639824,
        0.03781815888000515,
        -0.045459724416222654,
        0.03837756206339716,
        -0.1353005192768192,
        -0.029765182427499846,
        0.007219891526805356,
        -0.007595473894944889,
        0.07318012069048578,
        0.03040329850619513,
        0.05895719389444617,
        -0.06025779327487754,
        0.06953741728805199,
        0.1376824558591542,
        -0.08524856294275425,
        -0.064330484654027,
        0.1227404457832573,
        -0.016038286416261795,
        0.1239268266399826,
        -0.040213234777209984,
        0.12529557160720203,
        0.011146015634449755,
        0.02361131499251636,
        0.1380135948627712,
        -0.03294415281090403,
        -0.0798936638897756,
        -0.041451328362050406,
        0.05537262282745504,
        -0.13034370250345637,
        0.0561708773634173,
        -0.04708410356685243,
        0.09592770088814126,
        -0.21445276195007135,
        -0.0744219553671258,
        -0.1470840092361049,
        -0.08058153832149201,
        0.021848149192305058,
        -0.01655332682235809,
        -0.0237947217285093,
        -0.01775882947425775,
        0.009606318718654283,
        -0.08851968402216825,
        0.05916110830536645,
        0.05489111978624216,
        0.03669522988787614,
        0.05197558094592675,
        0.03545688425268965,
        0.17720755512237493,
        -0.006244607442934918,
        -0.026953526849423315,
        -0.052370904980888755,
        -0.09026248817052047,
        -0.1064682749816494,
        -0.06815348979696666,
        -0.011973537767465228,
        0.026313407068409025,
        -5.020876132652604e-05,
        -0.04454061322234403,
        0.06504755711459502,
        0.05971578383896858,
        -0.012424208090202919,
        -0.05731212554128117,
        0.04920506406916101,
        0.009558485214479245,
        -0.1192320910242333,
        -0.01747244269059979,
        0.023115808394671093,
        -0.07943009687943639,
        0.014557899408598224,
        -0.1283389379156017,
        0.11736395078767385,
        0.11001379082784331,
        -0.022276124281911197,
        0.032724797067001314,
        -0.20921866637143394,
        -0.10230609595251781,
        -0.027916911549962533,
        -0.09165215098769024,
        0.06293316517356325,
        0.16679394071599013,
        -0.105878015559371,
        -0.0737963930262301,
        0.010584016011625277,
        0.14772011699696774,
        -0.10891710480678742,
        0.022065380336932623,
        0.1606680969732481,
        -0.14841075174074905,
        -0.11303594925472216,
        -0.038037025175857775,
        -0.04592434106157867,
        0.06870598339480073,
        0.018557463193812455,
        -0.15477053146943345
      ],
      [
        0.04354395281404813,
        -0.05279308744989353,
        0.10466730678934204,
        -0.04152630813259739,
        -0.056159792773414305,
        0.0511664976742103,
        0.0773215546503528,
        0.038496558236251255,
        -0.141772337752832,
        0.04453468039436163,
        -0.09692698737952828,
        0.006214368342756454,
        -0.12707725239540626,
        0.039372851990074495,
        -0.06029625444865394,
        -0.11314917827862413,
        0.06297051297133884,
        0.021341038611509947,
        -0.05598845439834818,
        0.12209946694870515,
        -0.03900222393052436,
        0.009112262504329227,
        0.023380113908601338,
        -0.043241644977006055,
        0.041631513950130504,
        -0.05650219639944246,
        -0.03963910637031276,
        0.12278127963028249,
        -0.0910651105254751,
        -0.2127243569167801,
        0.14094766640541434,
        0.22134383619023795,
        -0.04436951001922856,
        -0.1625811541476459,
        -0.02977463343671106,
        -0.02550310799577693,
        -0.01640248560626015,
        -0.09286530740571232,
        0.047724020093849844,
        0.05540043658863467,
        -0.12641917575014397,
        0.06311482948715065,
        0.18108010642381653,
        0.014525788701740325,
        -0.023638545277897008,
        -0.007676689091476096,
        0.046392197814841434,
        -0.14650107467716617,
        0.011238196727119686,
        -0.039020025896039576,
        0.16602322878118356,
        -0.01544261228484386,
        0.13920363525595278,
        -0.1046664073219331,
        0.049876030923213216,
        0.02828570841837939,
        -0.06344965383550856,
        0.018532579906603123,
        0.1102088902455617,
        -0.02724633859900279,
        -0.15484845255909344,
        -0.0005248656801040087,
        -0.08332995706383405,
        -0.029147114786644456,
        -0.007591306597192055,
        -0.1510666967073415,
        -0.1453353116522317,
        0.04294030369628916,
        -0.04492530033097903,
        -0.21660087450163226,
        0.0674190734046988,
        0.026567028079787378,
        -0.06297533730054705,
        -0.12103997256602507,
        0.0739950713866758,
        0.03081839077543205,
        0.2098767499095491,
        0.0367876734784355,
        0.03420170493673161,
        -0.011522852878739566,
        0.060752887014972126,
        0.05483562325327822,
        0.1084461082136143,
        -0.037979859166984466,
        -0.038261066519345736,
        -0.049931296689962566,
        0.0670178886730208,
        0.1324246132941795,
        -0.044949472653367364,
        -0.02742737238020666,
        0.03103714775314521,
        -0.021597746689390365,
        0.0839865728779902,
        -0.20107988801783896,
        -0.07237214716432336,
        -0.07038186870037895,
        -0.20469303247189705,
        -0.08751916403043006,
        -0.08208773595123628,
        -0.01759021355184305
      ],
      [
        0.09585122101192349,
        -0.024645006810403866,
        -0.09849638657584094,
        0.0015235904785417,
        0.0925541292008481,
        -0.08423687045659473,
        -0.07414854100339435,
        0.04849623043574357,
        -0.010117102373091186,
        0.05435772340455957,
        -0.005019797878579717,
        0.04913456283228944,
        -0.0929758119438262,
        -0.0010660621917541802,
        -0.01137402151469856,
        -0.10726129916330844,
        -0.1379241119224086,
        0.060708096664387534,
        -0.03836153634977916,
        -0.09610783622547142,
        -0.009183532223033197,
        0.10293558197474752,
        -0.19735893043484617,
        -0.12236276111336307,
        -0.08185949383342608,
        0.11859123514555862,
        0.020264828568228,
        0.06947129821847287,
        -0.10021912812150324,
        -0.09882452134350243,
        0.03890949957520715,
        0.0019186763522790098,
        0.04063899378406628,
        -0.0034514084816827484,
        0.025261775414835024,
        0.01353485185862851,
        0.06923097362209334,
        0.07256004078430503,
        -0.1464408315397623,
        -0.19442613713580592,
        0.09230125416336732,
        0.103626342041212,
        -0.09003550306919128,
        -0.16414797366550518,
        0.01284967447619377,
        0.08642686582849869,
        0.14873365191333707,
        0.05263689401612845,
        -0.03595469810344101,
        -0.08354697200620936,
        0.0035659627777918108,
        -0.026196457217680588,
        -0.09003214157928588,
        0.17186588821113327,
        0.15516392939532284,
        0.10042021849328742,
        -0.07179630227185098,
        0.07642495744110767,
        0.060785250344141804,
        0.04049759428125921,
        0.10409236629844786,
        0.05578033861607629,
        0.062479371559219156,
        0.06455425431784786,
        0.028170932948535978,
        -0.16028259105607084,
        0.007245980506892628,
        -0.04876037999857514,
        -0.11178008910997761,
        0.15250572791675235,
        0.15462945226199865,
        0.11291739429287838,
        0.022513962488894868,
        0.11777943050215674,
        -0.0004044766860851733,
        0.017890008845048436,
        -0.0967478476653214,
        0.03472599640004575,
        0.005327018242822929,
        -0.10701435849323702,
        -0.011088313536767298,
        -0.00790548163063502,
        0.15632758307981698,
        0.08735208423462683,
        0.0011579513854484596,
        0.016631621242068056,
        0.0019224370496566997,
        -0.017939929520392695,
        -0.1033928870697885,
        -0.004113760455618613,
        -0.06446151603564891,
        -0.11022519522146933,
        0.045098055180726404,
        0.03286426685260399,
        -0.15880303852327185,
        -0.012078859849412356,
        0.08783701079849988,
        0.09095482348499989,
        0.08891400979747446,
        0.005701586547162217
      ],
      [
        -0.07669174100817495,
        -0.09788260821785684,
        0.028351830105773298,
        0.03556787927278544,
        0.11356348233772974,
        0.09828623922306595,
        -0.008362409411262482,
        -0.11049206788790752,
        -0.02154304776900864,
        0.01643195525541777,
        -0.019144599599452496,
        -0.05293679457616265,
        0.02040147333861655,
        -0.044457246119290354,
        -0.05115449819386111,
        0.02747519121429066,
        -0.035462265194913294,
        0.02023615088110273,
        0.02037462096772179,
        -0.10600960650283617,
        -0.04406277800054496,
        0.1275741359170561,
        -0.098429736965883,
        -0.1817781101540637,
        -0.1642217278329799,
        -0.003102568946237973,
        -0.0004400933459598516,
        -0.009321382025101813,
        0.10726896104568591,
        -0.23609791140600184,
        0.0344620855808663,
        0.13613421321331845,
        -0.10392675384675955,
        -0.02374645259457033,
        -0.06380371490496962,
        -0.07961354690687678,
        -0.028255709101831665,
        0.12477179840178584,
        0.1587234985664932,
        -0.028539577305459814,
        0.16802899212373557,
        -0.0015513439317063145,
        0.1547039904040642,
        -0.008469104794330662,
        0.012404984125138298,
        0.03410107891268299,
        0.27510165237110784,
        0.07880243605347881,
        -0.06544406722342937,
        0.08218584032031856,
        -0.02982449463092455,
        -0.04247894584385092,
        0.08059524551570446,
        -0.0053451902354108545,
        0.020487141880425885,
        0.0013700757756809154,
        0.034713061686459885,
        0.036122970628726304,
        -0.16731987668301104,
        0.058198037374413085,
        -0.09296645187133615,
        -0.1256101250562616,
        -0.003227375126965721,
        0.013673265181745739,
        -0.061782862552562975,
        0.07026950020503459,
        -0.11676172050367058,
        -0.03564409455615774,
        -0.05027680434710272,
        -0.002806774372504289,
        0.028200796175894268,
        -0.09236744341323003,
        0.0638934787696312,
        0.010558085679906019,
        -0.16751546118916344,
        -0.17277953002396906,
        -0.0017388114918261298,
        -0.020498097328758878,
        -0.009123331313460879,
        0.004699435302447618,
        0.021081603297464672,
        0.08228689993831122,
        -0.10062745661414027,
        -0.10025807647018734,
        -0.09616959074772685,
        0.02544470399218036,
        0.10746154244265041,
        -0.037823514759284395,
        -0.2297431710476704,
        -0.14233939122991074,
        -0.07387040217552975,
        -0.04909666325461642,
        -0.03602650028425626,
        0.0027663795291515874,
        -0.02711424670044889,
        0.09089157466494233,
        -0.05963569019785949,
        -0.07849388775803928,
        0.04075299319044008,
        -0.13425695394228754
      ],
      [
        0.029930503853070303,
        0.004959097518918387,
        -0.00860930237765198,
        0.14385449963814445,
        -0.05488878780846875,
        0.1768905485089674,
        -0.014398774727455788,
        -0.114210719860127,
        0.007033281510415732,
        -0.09690581495458005,
        -0.0629553923844686,
        0.03940131685396255,
        0.04668373287782757,
        -0.054885281651304074,
        0.09162383701333425,
        0.10211095704035571,
        0.12670510927041567,
        0.04593791248321061,
        0.11809214463186157,
        -0.17040006818343642,
        -0.026794814996899737,
        -0.0683198781808499,
        0.008492209943997565,
        -0.04998515333793585,
        -0.015035382551836441,
        0.16601858524156754,
        -0.01612178710097519,
        0.03545525316787478,
        -0.02066435534353544,
        0.00621243816457468,
        0.00019408561492666006,
        0.03997312074812256,
        0.10469803855352927,
        0.1512953761533312,
        0.03360214955509836,
        0.05135778709379046,
        -0.10112059195834719,
        -0.011085600527801429,
        0.07933734627725023,
        0.07488875896818742,
        0.017443087761165953,
        0.07394616700207816,
        0.043293583124295244,
        0.10568409871526346,
        0.022657004624363986,
        -0.03388435759391319,
        0.029900358015971667,
        -0.25630307378923717,
        0.030559350945213882,
        -0.3210002122145627,
        -0.15044333642404556,
        0.0413167125327488,
        0.045468991622350054,
        -0.10826048512764935,
        -0.0651968702512083,
        0.12101840201524099,
        -0.03208403875699408,
        0.19981565320255434,
        0.0008878147713614938,
        0.03956433923977801,
        0.1361922541530605,
        0.012010331561109448,
        -0.08680547791944897,
        -0.002281246521969141,
        -0.00850609381745537,
        -0.11924953134502891,
        -0.021342230874959477,
        -0.06519612178841239,
        0.07858336920220373,
        0.0010541310874979295,
        -0.016891797568689,
        -0.010379887325484144,
        0.019682980678401213,
        0.05770878725472939,
        -0.08994358528901157,
        -0.0918849219552398,
        0.09684164566969848,
        -0.03802176668997602,
        -0.12498845130633293,
        0.036411331548430834,
        0.04417339773980947,
        -0.1367002022431398,
        0.017727777809781166,
        0.06384857450604906,
        0.03318332090858836,
        0.05515835681897361,
        -0.12589503244037722,
        0.02921491058469153,
        -0.03353253421480952,
        -0.03955063786359942,
        0.07443320725765998,
        0.1306213021966925,
        0.15829254040857377,
        0.11521126684363442,
        -0.008853164646176597,
        0.029689564391568384,
        0.06764621383807042,
        0.008089658803556913,
        0.010350493531425045,
        0.07402857624271265
      ],
      [
        0.0015055675086390382,
        -0.05909989950776092,
        -0.030360925562805407,
        0.05077960300635164,
        0.0002640568298656483,
        0.035286231193498836,
        0.0546313365249924,
        -0.03434592181728703,
        0.06352643778513789,
        0.03082192276973399,
        -0.11024404209194798,
        0.13864381494720884,
        -0.046279846544781816,
        -0.14600625206573295,
        -0.08908332268056063,
        -0.09007274276634579,
        0.004602532866993466,
        -0.023602491869840325,
        -0.01919880412064883,
        0.050079324923679586,
        0.02990670456375331,
        0.016747342649193767,
        0.03135759665149327,
        0.05357081606468672,
        -0.18560971302218987,
        -0.031078854295696005,
        -0.19230457505799783,
        0.00537581066000559,
        -0.0004396640488615306,
        0.09165246089519137,
        0.10410079726480542,
        0.01347483706162099,
        -0.03627650266137094,
        0.032407892096022725,
        -0.04333390088815525,
        -0.0006756085355014581,
        0.08769935278544734,
        -0.04397324030615877,
        0.06733815127664587,
        0.06408043179137449,
        -0.08499143176476183,
        0.08807433410303712,
        0.0616248812051294,
        0.00886129276302803,
        -0.07355819559135583,
        -0.07212077538510475,
        -0.041052165248399226,
        0.049223922132254155,
        -0.08703040423561206,
        0.04592711970856648,
        -0.10612242669577343,
        -0.018996185813405238,
        0.007360544525979355,
        0.20755359787182748,
        -0.1225760082460309,
        0.1299541225946212,
        0.013865748979013978,
        0.03607615794544116,
        0.008494045329858327,
        0.028461810013473723,
        -0.019762546644189995,
        0.127986423490291,
        -0.028852664769056898,
        0.08112584871725838,
        -0.042414124344394115,
        0.006983228158454407,
        -0.09793720286033365,
        0.039934069206540024,
        0.12308096028283101,
        -0.005146856633327038,
        -0.02213919056026521,
        -0.08035723345315814,
        -0.02022733077536869,
        -0.1347106328979324,
        -0.08197638985538341,
        0.02000620734602389,
        0.11563907446732673,
        0.2457156627943701,
        -0.05174631790337818,
        0.12356347649772194,
        0.024989564798795626,
        -0.013936479678422235,
        0.03606504390741384,
        0.0010569349140361498,
        0.009892911619447145,
        -0.025583630149581295,
        -0.1249254224386227,
        -0.13637377585042446,
        0.06002319001118287,
        -0.023719932514075524,
        -0.0537151010111721,
        0.0008724137524170806,
        0.07012591713962299,
        0.01614007246050424,
        -0.055982724378888016,
        0.10617832084159899,
        0.13930977303286962,
        0.04133981205944888,
        0.08533179261651015,
        0.10777912981895324
      ],
      [
        0.10043765239801192,
        0.05355917709774288,
        0.05057663469590542,
        0.0443020182118723,
        -0.09680297982278506,
        0.0644544499054696,
        -0.12074963869339365,
        -0.07089588761539721,
        0.11993740432261189,
        0.07123461827459732,
        0.127744894930587,
        -0.02330013721701413,
        -0.10374368243199683,
        -0.021210460258967057,
        0.011161201158966318,
        0.006968085842168765,
        0.10000900457178782,
        -0.03146863143736935,
        0.030439264741397878,
        -0.09140105170790892,
        0.038179198897909356,
        -0.001323401739541555,
        -0.06431583100251195,
        -0.019034861195012562,
        -0.016995508284302702,
        -0.025175160284739588,
        0.15230803990037595,
        -0.007977442666564149,
        -0.021496544097211447,
        -0.18571960700593657,
        -0.07956784442386676,
        -0.026344343613856937,
        -0.059960271917653074,
        0.12625934117277854,
        -0.009611933846944502,
        0.11311822358652333,
        0.006297794872192088,
        0.003020758355139357,
        -0.011731449415620699,
        -0.000551111041808272,
        0.15230702028449783,
        -0.20692750844398758,
        -0.17656879628529723,
        -0.04822669519548955,
        -0.0010244508091596302,
        0.06337045762842135,
        0.03862915699942047,
        -0.032773210262620325,
        0.08699679102563723,
        0.09223006408522968,
        0.01872804846956298,
        0.08223071395178308,
        0.026085009770186286,
        -0.05804534763280414,
        0.06032979077447473,
        0.00985795215422254,
        0.002664199877565838,
        0.1284768994529207,
        -0.21645402417167997,
        -0.12999155072650267,
        -0.11129334345332421,
        -0.03362012535655416,
        -0.01840790180694861,
        -0.13193791091224075,
        -0.08154169448456099,
        -0.07579512459012515,
        0.21839618243537018,
        0.1587717659953544,
        -0.03858170286338975,
        -0.032188320498365355,
        -0.10146704696178765,
        -0.16503789673016303,
        -0.010310728036616458,
        -0.08443647521647718,
        -0.008491376275593413,
        -0.14116410846934566,
        -0.06782212795468562,
        0.010967215733269814,
        0.03230562581369656,
        0.04200507073313764,
        -0.1141092940086266,
        0.07458587376047071,
        -0.07333398835563137,
        0.05746519393648633,
        -0.0007226113876073902,
        -0.11815022888530953,
        -0.02959263283416422,
        0.03221059874516719,
        0.04800721356303592,
        -0.008270580188210733,
        0.13315323421307673,
        0.0890008696198485,
        -0.022641055554330998,
        0.06454312590831718,
        0.17012345421287928,
        0.17122875508279806,
        -0.10832950553229773,
        -0.08424357567616467,
        0.12957282977266565,
        -0.0934135493274654
      ],
      [
        -0.11684942287559945,
        -0.045516045831655076,
        0.033473307622661055,
        -0.00946541798565503,
        -0.057390262341585806,
        -0.05786097564200275,
        -0.0628536031491348,
        -0.07838634201790641,
        0.20645798446633765,
        0.02329446987697274,
        0.0762280129322484,
        -0.045057175627429905,
        -0.018182455565881776,
        -0.06294703377387884,
        -0.2316603182972276,
        -0.12156276715585954,
        -0.15972593269182045,
        -0.19783666032777697,
        -0.10871151048893195,
        0.11249952782906139,
        -0.005389198116604655,
        0.11448983998707887,
        0.03880417157693599,
        0.07144164289234867,
        -0.08033047157947709,
        0.043456310756757106,
        0.06063849945288945,
        -0.05096559238437614,
        0.049930891862192184,
        0.049295217038920584,
        -0.04959180444039624,
        -0.10098125869282394,
        -0.10568435059956684,
        0.014052520253030377,
        0.03410040169937379,
        -0.07003972849002349,
        0.003199703679450312,
        0.049107839026397176,
        0.05063981244830026,
        0.13564250690836702,
        0.1149027941250035,
        -0.09090103820068084,
        0.1485196085508513,
        -0.04716541778726982,
        0.09123585990072328,
        0.007423581713929013,
        -0.041243207554493594,
        -0.15697558706674036,
        -0.017905814213238856,
        -0.1369662919503977,
        0.08779191314791944,
        0.13221197594587153,
        -0.06716812536880976,
        0.018489537307634772,
        -0.06541513493719311,
        -0.05527573562121703,
        0.0726260297768171,
        -0.004719098290105471,
        0.15407321173823707,
        -0.04492942793380428,
        0.08154241055176169,
        0.0062558010591060005,
        0.07247968133976099,
        -0.03522443567601821,
        -0.0013725923333832157,
        -0.010626282911632104,
        -0.0724986165088715,
        0.05823523422447943,
        0.05627224428685465,
        0.05167280359711471,
        0.13623679501845246,
        0.1289576740369221,
        -0.033076202602000636,
        0.03541175973007052,
        -0.0564510153465225,
        0.0020603176643190645,
        -0.053463537250891015,
        0.1405378611740926,
        0.0320840754180492,
        -0.012980538700342246,
        0.1065281929094696,
        -0.19257581869749826,
        -0.18042919967628088,
        0.07313352201769532,
        0.00567552197226493,
        0.02330755738677127,
        -0.11824682554827295,
        -0.001923926284994665,
        0.1688857448686619,
        0.07770450047854859,
        0.013927944892997167,
        -0.038609596040920596,
        -0.034807724827180545,
        -0.19005339108424205,
        0.021506997184698992,
        0.07295814768718104,
        -0.13899517848910636,
        -0.060808180574584675,
        -0.10417303876303169,
        -0.08474182181344964
      ],
      [
        0.003038550566758716,
        -0.1886832838300325,
        0.048678472773493305,
        0.06901287769451357,
        -0.022151320716496798,
        -0.2179072768279914,
        -0.08579200861711063,
        0.10810942281629327,
        -0.2389248235590798,
        -0.03382879041443253,
        -0.10598482094247559,
        0.06615538364021961,
        -0.06193039962866344,
        0.03563529606758789,
        0.05339891228736861,
        0.16198489948577932,
        -0.017902770801078,
        0.03385846322291918,
        -0.1371455848874207,
        0.10032983008016311,
        -0.06823129404906944,
        -0.04541255937423105,
        0.0011250776301292612,
        -0.13413273178195345,
        0.019215317262705936,
        0.08061215100197733,
        0.02258854344551487,
        -0.13952253349799212,
        -0.010031613441021825,
        0.06481656774374137,
        -0.16671312966706484,
        -0.09558408745013416,
        0.07403510552075922,
        0.0348171904002547,
        0.0415240902401723,
        0.1640110242978048,
        0.04193007120101728,
        0.05566958427966551,
        0.23530801994619913,
        -0.019829320252341357,
        -0.06702228628489929,
        0.034001458486599447,
        0.03872612847076273,
        -0.04643306758295277,
        -0.09064612427159176,
        0.20485965354955468,
        0.02095279392034314,
        -0.06148688889236184,
        0.07806373030272548,
        -0.01097829965582634,
        -0.018997938114282235,
        0.04896022808405617,
        -0.11104347094660856,
        0.022478791264250664,
        0.16809741985132653,
        0.04141094804511768,
        -0.026213919446363386,
        -0.045219907815575604,
        -0.03487184934288952,
        -0.022110255821842166,
        -0.03996794212670313,
        0.07820539620704628,
        -0.15362269008235777,
        0.08555612302282475,
        -0.03397668832761127,
        0.030100168714950273,
        -0.0982033844432919,
        0.11703571325626887,
        0.10950220200369912,
        0.08350662714212076,
        -0.13143713162209364,
        0.07107137622090015,
        0.03571478478193018,
        -0.14100588885437032,
        -0.0034039887174805265,
        0.032157854054507225,
        0.04852172757805222,
        0.013634544794551666,
        0.02569133423809135,
        0.13671706727042718,
        0.10796762236705638,
        -0.2544222204440274,
        -0.030750231976620718,
        -0.008772408085047985,
        -0.15445398893612985,
        0.004488874714277431,
        0.10904656325126379,
        -0.09549277005808651,
        0.019974886946924043,
        -0.07427437973228294,
        -0.05946635721886075,
        0.13045215884364897,
        -0.04786239908755417,
        0.03797812311869749,
        -0.16704095710521352,
        0.1628470663733372,
        0.05316371974929315,
        -0.018378579929394716,
        0.048259758017912276,
        -0.12359583014231287
      ],
      [
        0.09972241756737887,
        -0.03425868101746259,
        -0.024585016751777326,
        -0.040186985461872826,
        -0.05122287088817433,
        0.06097274351947099,
        0.027106755006452873,
        0.0568456550393271,
        0.005292673887194056,
        0.04253740907250018,
        -0.037559294043464635,
        0.19075758757853273,
        -0.14039806457786977,
        0.11123512217061976,
        0.12309436920670255,
        -0.07517422723479045,
        0.1966580874307397,
        0.08830998606456147,
        0.07712161946338399,
        -0.00239245768212253,
        -0.02020336862238929,
        -0.010965402509732724,
        0.037996627259077626,
        0.1266924585166313,
        0.01523766852000567,
        -0.08506363741204508,
        0.06900807058806033,
        0.0817674211305253,
        0.058098519118761155,
        0.06512904497488115,
        -0.025158108199024087,
        -0.08187059438968608,
        -0.08068143711058907,
        -0.13115626827461424,
        0.026478101422129308,
        -0.007096156095937395,
        -0.03797842836857133,
        -0.26396270592358845,
        -0.1139498600340409,
        0.0966497057858625,
        -0.056550395879287556,
        0.027327401307799606,
        -0.12268100944707384,
        0.12649559981939043,
        -0.01219536571753546,
        0.026408403310219423,
        0.1961470805392373,
        0.13675692897756744,
        -0.029747194449591563,
        -0.05433821340833382,
        -0.025647803067094795,
        0.04529779034263914,
        -0.004847976503647413,
        -0.041707993047119585,
        0.12908640423596118,
        -0.00976663196897596,
        0.21132077082418838,
        0.006787781301528627,
        0.1598980563457209,
        0.03484415792944273,
        0.0783230713483464,
        -0.06680121237935135,
        -0.0768075079856584,
        0.054967570053689706,
        0.08332733245730944,
        -0.0017453254235113027,
        -0.11209363903449211,
        -0.12067905884904366,
        -0.12589262353950695,
        -0.1569474261821507,
        0.01421241699721701,
        0.09396140296572114,
        -0.0011834899877333712,
        -0.19924576449760012,
        -0.018494110292112245,
        -0.014361511822421532,
        0.18446611545554845,
        -0.12953566693051138,
        -0.034464100667312564,
        0.15770813261959557,
        0.04027014533232878,
        0.04845635135910943,
        0.007384228163825788,
        0.03479743415862966,
        0.06893001060720778,
        -0.07675749030856893,
        0.0761382435186468,
        -0.12050846391973467,
        0.017573599399910527,
        0.022860874797742,
        -0.055074572543312994,
        -0.0018811799941390215,
        -0.05491813799451713,
        -0.09812158350571011,
        -0.03296153330617271,
        -0.09771270660599266,
        0.02847597155211431,
        -0.1042683194374955,
        0.05989094557032926,
        -0.10134058573730871
      ],
      [
        -0.05503921829178939,
        -0.06027450943721798,
        0.11205580018408169,
        0.0410422202183749,
        -0.01867835534213936,
        0.04155475155684392,
        -0.17639227169613203,
        -0.004435469052408593,
        0.1793097238209504,
        0.009223669052722507,
        0.007075732363888477,
        0.04293151713233984,
        0.07713883501320284,
        -0.17620895778349838,
        -0.1423141080348015,
        0.018551102436469707,
        -0.06306370682635287,
        0.11581487791103776,
        -0.03155603548332057,
        -0.1773680293276217,
        -0.11136365017802641,
        -0.22911133606049,
        -0.021519448171311475,
        -0.012878336209924807,
        -0.038061815073628644,
        0.09163251966080248,
        0.10207887538315552,
        -0.014699989132828543,
        -0.1877560767574822,
        0.05432930386701726,
        0.047719659023740583,
        0.026654312072738426,
        0.08121081528904821,
        -0.0937656912326339,
        0.180262493247524,
        -0.08478127575052859,
        0.06690345956792848,
        -0.14859719496738583,
        -0.08573191235551932,
        0.1348947524892163,
        -0.020540998574406968,
        0.07196289196093585,
        0.020903308293463686,
        -0.010453970681789045,
        0.12261044476138189,
        -0.020424851981359075,
        -0.1624526540928149,
        -0.06558322464188938,
        0.04560810480039773,
        0.03305710047583764,
        -0.13534824405467874,
        -0.06223052096803574,
        -0.051309591160589474,
        -0.03524187834333144,
        -0.1225434835389635,
        -0.055132088612270216,
        -0.050749406311082663,
        0.06837881890837871,
        0.07293608959339473,
        -0.006722773664583328,
        -0.041025135042351016,
        0.01039895108793963,
        -0.07679275641343433,
        -0.09108547337647475,
        -0.08996830630676181,
        -0.057181089862053516,
        -0.10516439346355738,
        0.013403111470222221,
        0.0643699711185245,
        -0.13689459633175052,
        0.007957953010365849,
        -0.018423413108210128,
        0.03012660474723154,
        -0.0024536347027314257,
        -0.12973774397361487,
        -0.11136320994010585,
        0.0019420294450181704,
        0.08981372261392156,
        -0.1953272364328656,
        0.0324279975087549,
        0.10207404239996405,
        -0.013518012662846125,
        0.04610834651765759,
        -0.05809600537664203,
        -0.010214367426794841,
        -0.15009166354286116,
        -0.20886530598937736,
        0.08411432994294038,
        -0.09577842587868421,
        -0.03319497058560488,
        -0.1219980544137783,
        -0.12426216362226115,
        -0.015335304496534972,
        -0.06788477692970483,
        0.035989316326688,
        0.039608301144113324,
        0.02830414243466963,
        0.01828781382778089,
        0.13697706964844583,
        -0.09248721197680776
      ],
      [
        -0.007671623850136047,
        0.09637170059342673,
        0.10880364028841664,
        -0.10914087700642469,
        -0.02755481582151221,
        0.1191188187537265,
        0.05538017011700067,
        0.016427955238019355,
        -0.017033835648331715,
        -0.0366275230865348,
        0.025669923090161886,
        -0.02891354216745594,
        -0.005266700736571695,
        0.006933680615031859,
        -0.04899822507573514,
        0.046942440998591434,
        0.25708364202082545,
        -0.15710758227427774,
        0.029861333046634055,
        -0.07268055557563664,
        0.051884036518904934,
        0.017593459227386216,
        0.06250311408562657,
        0.11003556982193838,
        0.01709287808091717,
        0.09643388801276224,
        -0.2101080975444041,
        0.1409347827755938,
        0.033622761014349016,
        0.0949789912524111,
        -0.10884273357630873,
        -0.0749843897281036,
        0.008360517462177565,
        0.0026053312593694697,
        0.02543160776167933,
        0.09535162032499274,
        -0.15507611648598776,
        0.090178814726638,
        -0.002895499178745481,
        -0.011788855549224597,
        -0.12632065551478422,
        0.04493533841688156,
        -0.21296346513378178,
        0.056490725330259485,
        -0.12498496509297043,
        0.006370800712089575,
        -0.013406900937455949,
        0.11030603802516853,
        -0.0194508147455959,
        -0.06294162085876047,
        -0.04176584711069719,
        0.11418165322527615,
        0.041209443024192,
        -0.03585670893320488,
        -0.022547229665564387,
        -0.13809254484599925,
        0.05154269073313004,
        -0.1533288031861558,
        0.0673389995394589,
        0.015963086680336393,
        0.20426647611823556,
        -0.09729429126323565,
        -0.013869181769844982,
        0.1600744258848221,
        0.10023072010694205,
        -0.05933674248079894,
        0.014207018094883105,
        -0.0002571680047986559,
        0.025459950864768474,
        -0.05528236857725195,
        -0.00442742606878499,
        -0.13255272287756764,
        0.011920079924504818,
        0.03647163531077117,
        -0.020836426783773,
        -0.1424736818943035,
        0.08669803188629477,
        0.03155682684763451,
        -0.0640463063320916,
        -0.02695127752459352,
        -0.13965372813522162,
        -0.08990624130881629,
        -0.04978673076365293,
        0.111903695761395,
        -0.05625997107234722,
        0.04970389584195908,
        -0.05032732475013651,
        0.022322475127889648,
        -0.016691888671448763,
        0.08403434951313257,
        -0.04583932118190812,
        -0.13864119232618666,
        -0.12191031740018508,
        -0.050296055808874834,
        -0.10503288532272786,
        0.03542103025896775,
        -0.041088306098178345,
        0.20653488374520357,
        -0.1546881992383873,
        0.017555368776169984
      ],
      [
        -0.09894111806260796,
        -0.043485956475965745,
        0.010673606182591333,
        -0.1973374622939626,
        0.020891904412562053,
        0.1686720991154388,
        -0.03424569586916861,
        0.022229616443873394,
        0.09197416483297789,
        -0.016971848934548176,
        -0.05177590101147017,
        -0.2030193517413428,
        0.05474751786030048,
        -0.009983289134846396,
        -0.08233993753702222,
        0.011167883027164906,
        -0.051490073760738705,
        -0.0471981750131187,
        0.055901395593912835,
        -0.12224460646831617,
        0.09239097830891332,
        -0.12028675395969084,
        -0.06021892092514317,
        0.17476193938298368,
        0.09992740793804755,
        0.005802930097455812,
        -0.08570553603491231,
        -0.0460011226496974,
        0.006722539694342326,
        0.0030426123496025154,
        -0.009218612342534132,
        -0.005602403799906276,
        -0.020043030317565592,
        -0.1262376623682338,
        -0.045293478236279,
        0.08012865156239025,
        -0.12006595726212475,
        -0.01308941117448273,
        -0.07607992710106572,
        0.015196734310330555,
        -0.03202014322463589,
        0.13259500997369328,
        0.044688850106129864,
        -0.11664572276024429,
        0.063131024995481,
        -0.06712293736856909,
        -0.05266753350828138,
        0.03292059252185701,
        -0.047339483312758654,
        0.08009198962987696,
        -0.06617110603144646,
        -0.052886817940267006,
        -0.06158957813928431,
        -0.05503344095946338,
        0.09419707602708713,
        0.05565000709637369,
        0.1605895332264913,
        0.200352293027546,
        -0.09036388356092401,
        0.005274110935033506,
        -0.10994149609416137,
        -0.06774813343933946,
        -0.05385730446726886,
        -0.09708585398189028,
        -0.09012433884079014,
        -0.009703973748877394,
        -0.11139492307293906,
        0.07473794329921703,
        -0.08234111938882731,
        0.2522254706278954,
        -0.04088541906100415,
        0.014527620394912798,
        -0.1142701006736577,
        0.1506616538557806,
        0.09721397625312618,
        0.02619279526313243,
        -0.11938790095047401,
        0.017860386995493294,
        -0.09892840593946009,
        0.12774829544655397,
        0.06798973396601889,
        0.00801181951066717,
        -0.21713384366583266,
        -0.08436607622034137,
        0.06077153107258445,
        0.10603041088688993,
        0.09573268303625383,
        -0.1406294639266754,
        0.022643978853878446,
        0.09516512866866975,
        -0.145883673873088,
        -0.0006156568304817111,
        0.024157340783017206,
        -0.02889853748306214,
        -0.15889423440952527,
        -0.029547594858255987,
        -0.028873647279032476,
        -0.01615280742798031,
        -0.051078508508814506,
        -0.03980212205506567
      ],
      [
        -0.0024142919790203867,
        0.03961615403323656,
        -0.028622334997286347,
        -0.03761863422270996,
        0.00814712399753277,
        -0.16770243013453462,
        0.04224204486052067,
        -0.0008345766411029541,
        0.007660616643727937,
        0.08206235267509084,
        -0.17423130077832785,
        -0.17292438373442265,
        0.021962952575313232,
        -0.0006278220454718032,
        0.016048248099001135,
        -0.040767102935699934,
        0.058606768740704626,
        0.08227820706026397,
        0.042761022159282215,
        -0.027054133053548188,
        -0.18703375033453673,
        0.06443686637973621,
        0.10890310484198855,
        0.06053622409456568,
        -0.07718590814244794,
        0.056941350445307334,
        0.07346258531439843,
        0.1382315999532055,
        -0.07732842346370813,
        -0.020642669117298448,
        0.06516727246688948,
        0.0011129931542969832,
        -0.09795051352103606,
        0.04030852060914852,
        0.054992130721505474,
        0.007239789255980418,
        0.020318598426839793,
        -0.021836836760170283,
        0.1265470889873097,
        -0.07821729849437924,
        -0.0519540991508683,
        0.0016931731644894872,
        0.07753800036420558,
        -0.1322655787503248,
        -0.11707736049914755,
        -0.17800818259079929,
        0.0006376418727717916,
        -0.09628560175837256,
        -0.03702764674070454,
        0.06027176915750212,
        -0.05470152686399521,
        0.020732667419577404,
        -0.02541270243717934,
        0.05051529339508195,
        0.03884917523563817,
        -0.060926861455036736,
        -0.012800233126416441,
        0.0911605927366315,
        0.03523795445652172,
        -0.12806849769038944,
        0.051343988029200316,
        -0.09596781121351619,
        0.1301262314212874,
        0.0884937514357983,
        0.03186994190794547,
        0.016437026761887304,
        -0.017458507287567294,
        0.06073943403525769,
        -0.03547384722955251,
        0.02225992416086464,
        0.0761980800069993,
        -0.04691033650101279,
        -0.0543581932524897,
        -0.10325718510034596,
        -0.09601655930761006,
        -0.16129411989304546,
        0.06383634385877995,
        0.158400403125403,
        0.12573712919547847,
        -0.14060570640551653,
        0.0654400971111765,
        0.12454523393217358,
        -0.04263439846351235,
        0.010331794886687213,
        -0.17694178786631898,
        0.027477068497414322,
        -0.09584536518170177,
        0.01732146300860328,
        -0.1426442061350251,
        0.05239617420396381,
        0.08975877086864796,
        -0.0690056378428343,
        -0.10029501060717,
        -0.19174775250934112,
        -0.02145376183834737,
        -0.05292287630018031,
        -0.13682506703349312,
        0.037382000411508874,
        -0.04082079922748574,
        -0.09403602098074879
      ],
      [
        -0.04839552362445648,
        0.09362511426987406,
        0.052711320442723114,
        -0.012378069927379654,
        0.05461510344605306,
        -0.10190963723826517,
        0.0035133216117805267,
        0.012097604764951326,
        -0.038333304990132565,
        0.035633563987628826,
        -0.07039223906560492,
        0.0477906227898873,
        0.04647711481273197,
        -0.257340812788115,
        0.10759761298328285,
        -0.2688506196170499,
        -0.05434551530856,
        0.09030839363760895,
        -0.027072949010387853,
        -0.13392395231556795,
        -0.0967924271782183,
        0.0895582930326665,
        -0.16904389037828685,
        0.10219092371855028,
        -0.004939342370988436,
        -0.1061051157366727,
        -0.054121564975900704,
        -0.08906874933407109,
        0.07636147321897298,
        0.06392357959227245,
        -0.15232987744377088,
        -0.03869396700188244,
        -0.07561187684242227,
        0.11833682524626618,
        -0.11417548637316037,
        0.1411032291830872,
        -0.0019724405376531796,
        -0.10281050829723716,
        -0.06337709896489963,
        -0.07095302264487738,
        -0.1131623940742609,
        0.006953622198680757,
        -0.1083220662470845,
        -0.1929664108846084,
        -0.036307209041779975,
        -0.15767044146776604,
        -0.06818959371556414,
        -0.07813691577860606,
        -0.07967236035096119,
        0.17826362519785566,
        0.00648067926522606,
        0.021597476711665266,
        -0.15432594469335745,
        -0.0660651008196618,
        0.016860667721483643,
        -0.09027998542552472,
        0.08287416080734947,
        -0.10608588160565963,
        -0.025498912647724244,
        -0.055868081470340364,
        0.007918779206205944,
        -0.058366712919883025,
        -0.0198310703089882,
        -0.020465654466157716,
        -0.06215326304090963,
        0.04442990235424304,
        0.02317592554978825,
        -0.007001058625228048,
        -0.040127443896934165,
        0.07050405829063437,
        -0.019809537046237093,
        -0.0241392683794561,
        0.00923535852816704,
        0.1532151135836149,
        -0.1201326130261942,
        0.06791386372078359,
        -0.16769246590159737,
        0.01705291303010378,
        0.13894785052664899,
        0.0458293206254185,
        0.018001552825488824,
        -0.050047514546763476,
        0.00029198920456503146,
        -0.02131003186763443,
        -0.06920669173980079,
        -0.022685184628985305,
        0.01497193173038752,
        -0.06766133852236418,
        -0.07550962648019048,
        -0.11679733284552214,
        0.033229008192576556,
        0.04822843543870548,
        0.0204362083152041,
        0.08437737419093866,
        0.00888413544835282,
        0.033089005829726875,
        0.026803388661143634,
        -0.01062831646005373,
        -0.048596990114443794,
        0.19523598194439978
      ],
      [
        -0.04000208692510678,
        -0.05965619298168172,
        0.03563154037948871,
        0.023273975383492414,
        -0.12392539779942789,
        0.10118702744705313,
        -0.007247033377274233,
        -0.09880146862595098,
        0.11004379614960114,
        0.05240058145739183,
        -0.11518784950864627,
        0.15563806062130808,
        0.05601996530985634,
        -0.000899462761569306,
        0.14432388758558076,
        0.014052648069556447,
        -0.002477382683301666,
        -0.05803522620994411,
        0.05105567053629013,
        0.03745562036500396,
        6.953317163770761e-05,
        -0.06975985436727805,
        0.013511483550683604,
        -0.0026265836147875785,
        -0.11789481207188685,
        -0.13224584734165587,
        0.04597036808547997,
        -0.22895476269485873,
        0.018067114424430562,
        -0.042865094879426274,
        0.11475645836993917,
        -0.0464313373905195,
        0.05677158893159953,
        -0.029096271345393308,
        0.01425119554519891,
        0.06440763421507736,
        -0.039844979376744,
        0.08812653113622294,
        -0.0913793932328353,
        0.026746999716587273,
        0.08264332665352808,
        0.05621562398908846,
        0.16906151956431753,
        -0.06682821000953236,
        -0.1224138153094644,
        -0.08496966034420869,
        0.05522531626649106,
        0.04643829500215113,
        0.006194331395419137,
        -0.09912412582082337,
        0.07015797241047632,
        -0.10975822998861344,
        0.1022828389822611,
        0.24316430170429582,
        0.031058394543771087,
        0.051539675363388174,
        -0.0405213836000296,
        -0.1601837042179838,
        -0.05246953941399235,
        -0.1012540697814919,
        -0.1342212493592179,
        0.1486856532916493,
        0.02640609105770632,
        0.03485482464710739,
        -0.02430097583569799,
        -0.01603427753728953,
        0.08652211485693448,
        -0.0027729488887217177,
        0.045155811405876135,
        -0.015497154974257556,
        -0.029882827873719132,
        -0.12165704282629361,
        -0.1744695429853753,
        -0.019727283079619688,
        0.003925995325729157,
        -0.11345752805251147,
        -0.0036921497486522028,
        0.0026255896197971444,
        -0.19019487287218048,
        -0.07571821412505605,
        0.03671612337111212,
        0.03358753641772202,
        -0.10424746168218522,
        0.01697191918001749,
        0.09035157284593445,
        0.06997942041054334,
        -0.010615086922076957,
        -0.04122779953438304,
        -0.060851829188434584,
        0.04600934323364006,
        0.016485344648300086,
        0.055645720716328353,
        0.011633409083480187,
        0.0704224072006088,
        0.007328180464517029,
        0.06750482481194583,
        0.07682069159233046,
        -0.0734758371752145,
        -0.16078454448301904,
        0.13564749931824285
      ],
      [
        0.024239413924124032,
        -0.15103812463820074,
        -0.06554792362656349,
        0.06691641779007233,
        -0.024672032382587483,
        -0.04174339989636818,
        0.12230009610601701,
        -0.09318704014370567,
        -0.06505268412462349,
        0.01576040580492854,
        0.030714452720233754,
        0.04354951740957983,
        0.07828932710406715,
        0.017517854947433742,
        0.045249492494980004,
        -0.022866460599481896,
        0.005531007204005652,
        0.009892085662217711,
        0.018838514069755397,
        0.06402163260994356,
        0.04711343288872609,
        0.0013030815626616213,
        -0.06972043035041418,
        0.008424940870827295,
        -0.003120838898334311,
        0.014577941832056143,
        0.19073145940008093,
        -0.04545295917914342,
        0.037271788683077026,
        0.09356526744456588,
        0.007961104770244731,
        0.20278830633621553,
        -0.03360712827796257,
        0.03273413867403242,
        -0.06637704242500483,
        -0.03155363831629037,
        0.02281445358243446,
        0.0754205989627213,
        0.024291062477013382,
        0.11186044964302924,
        -0.007004822461616715,
        -0.03096215735397648,
        0.23853534044488528,
        0.034467974877382714,
        -0.06575866562236714,
        -0.05854341716604171,
        -0.08584139380607866,
        0.08428043304281026,
        -0.03502979354791733,
        0.01256993963245282,
        -0.002982954802741799,
        0.06182939229946555,
        -0.07439763407227713,
        -0.10410540655569996,
        0.018267528590642648,
        0.05311443622380833,
        0.031147515042012006,
        -0.07314956202143749,
        0.05930055301551073,
        -0.07147464084302475,
        -0.052589388939940036,
        -0.08447210798547784,
        0.11913727497247507,
        0.05551544958711819,
        0.06037427888185835,
        0.11034002941744833,
        0.24920827172872823,
        -0.15092769091343164,
        -0.06736239069054836,
        -0.05361769684178671,
        -0.07638849214784775,
        -0.09137474052671242,
        -0.026434260106453417,
        -0.1044837789375748,
        0.028668064447422002,
        0.0045606304077656,
        0.04183090687094493,
        0.042645779367769455,
        0.05319498420516609,
        -0.027019214882226982,
        0.18838329751908459,
        0.020157995034222796,
        -0.16705149010338366,
        -0.08672571207162946,
        -0.1533246991628819,
        0.004752856630533507,
        -0.012231744883547188,
        -0.04139062412824308,
        0.17157242079926446,
        0.05341763324616272,
        0.06267965304577565,
        -0.08201370251657446,
        -0.08814078382525113,
        0.0017181832326023324,
        0.014493922386302111,
        -0.16547454019628358,
        -0.01590600368479522,
        -0.0012669425659043386,
        -0.02037346782403697,
        -0.07242875258452028
      ],
      [
        -0.044870219650971814,
        -0.014155247570138245,
        0.007807488674631922,
        0.060682916943496264,
        0.09534904690334284,
        -0.024927778914139002,
        -0.03611417819421138,
        0.03889603172502425,
        0.054014466169982706,
        -0.03682769820586002,
        0.060744331706516747,
        0.08054668846592164,
        0.11431910523140933,
        0.1568767452759645,
        -0.07008109118185202,
        0.0012260474681535653,
        0.0009948757465875616,
        -0.008821654611767364,
        -0.049772899074894086,
        -0.12879354523472109,
        0.009236212618915345,
        -0.07511184970883543,
        0.0066810804942357485,
        -0.06423067934420672,
        -0.09807535141590194,
        0.017587476501696307,
        0.011765761503373844,
        0.052410056759009956,
        0.19310503219174022,
        0.024371452984309747,
        0.04345997435885437,
        -0.09816530532868958,
        -0.11636145916192088,
        0.13721847463483555,
        -0.08699080277463424,
        -0.09215824515441301,
        -0.0038270665587193733,
        -0.003336056724451917,
        -0.07810296647554463,
        -0.019131437279267787,
        0.11415702271265928,
        -0.06457991254116258,
        -0.12294451608923183,
        0.08339893265307606,
        0.058389919606695886,
        -0.05379723452641003,
        -0.13500429995822508,
        -0.06960469321895567,
        -0.004433655352093769,
        0.10119927995165692,
        -0.09146912104247218,
        -0.0052532193817334035,
        0.04829178749371458,
        -0.21264288585096955,
        0.09191334130377553,
        -0.10431890295555221,
        0.03204345996693712,
        0.022411123913888567,
        0.08899746596555255,
        0.04419470401597171,
        -0.20702495150848216,
        -0.07372284798339791,
        0.008467910341617875,
        -0.026390165304725287,
        0.05113807446687982,
        0.07196597399090016,
        0.04518968674351831,
        -0.018476115334678172,
        -0.16586659144970872,
        -0.034085763944295085,
        0.035067383258769125,
        -0.09248279708961554,
        0.055688669385945924,
        0.07690506840060889,
        0.011411362835417332,
        -0.2702750734431102,
        -0.11263296609172584,
        0.16632511952051204,
        -0.048213497247102326,
        -0.1776698119087044,
        0.1025773087450485,
        0.002771367814143183,
        0.09710337888848514,
        0.029418829560684014,
        0.04038037170599512,
        0.03360305813882126,
        0.06001961117321829,
        0.20134236134658043,
        0.08810403822460684,
        -0.13540396286139145,
        0.04319594178700903,
        0.10067785004943831,
        0.10609771687281538,
        -0.03379038378589543,
        0.10588286034457996,
        0.08180983261328137,
        0.2269377597443161,
        -0.06626461800729641,
        -0.04189258455699777,
        -0.02683607560753085
      ],
      [
        -0.038727290396009494,
        -0.0796184499240248,
        -0.23211059318235877,
        -0.05144320723137722,
        0.03258337121731625,
        -0.04466767617170536,
        0.1588543078229678,
        0.0023976388219191865,
        0.11588220653964801,
        0.023798144432829363,
        0.07363637385078024,
        0.03557215797461691,
        0.1204104767661365,
        0.004934757921623101,
        0.028839964431912824,
        0.03231650603738253,
        -0.025431452900603755,
        0.03463747000853794,
        0.1980528903311218,
        -0.01931671817675362,
        0.03668027957073478,
        0.09828402374158217,
        0.09763264654195801,
        -0.0070212931594447366,
        -0.2139237231120714,
        0.048165565224094896,
        -0.19309194950846356,
        0.13696982762504734,
        0.014877078131352464,
        0.08828106266773884,
        -0.07933195906325685,
        -0.1354064996081652,
        0.027868257516748998,
        0.0009099661718660348,
        -0.036732708732172034,
        0.007351365445020168,
        0.24484052761379665,
        0.07462929451002746,
        0.09262460520937613,
        0.06948329605786718,
        0.1266734820724503,
        -0.021718477191315803,
        -0.18126327202757825,
        -0.016296046827861923,
        0.05450617137569795,
        -0.08644814437177231,
        -0.0106274758235012,
        -0.05741840097435569,
        0.13092146195668444,
        0.06588053431480927,
        0.056484451904494394,
        0.05573236827798544,
        0.0125381141767688,
        0.020876820182579223,
        -0.10540695165070903,
        -0.192922509880529,
        0.0027608420651831344,
        0.02668554984901093,
        0.10206505865091844,
        0.1290427656696151,
        0.14037265661378273,
        -0.10425408513049332,
        -0.026179913071952915,
        0.04785705690821278,
        0.22917036750045292,
        0.13379679017098034,
        0.09536719368691522,
        -0.03345326364768536,
        -0.07775342864445892,
        0.06445592421273773,
        -0.089345960747558,
        -0.031906724898424645,
        -0.010125276602683015,
        0.13747857921278905,
        -0.02797685460830759,
        -0.21518137855145494,
        0.04413840978039644,
        -0.061699749596942986,
        0.0037607477572255197,
        -0.002206188874620187,
        -0.021725362290882733,
        0.07444727362344243,
        -0.13537556689558428,
        -0.05855892008023779,
        0.0600886519394381,
        -0.041990509365493776,
        -0.14340121999353983,
        0.05975657930231829,
        0.10048922039883483,
        -0.007695638752878977,
        -0.17447067410928618,
        0.06224420769704702,
        -0.1464290316647348,
        0.02689784263960658,
        -0.07092237540611429,
        -0.10149076326012867,
        -0.03898363052604544,
        -0.015432930485437927,
        -0.056485079178124925,
        0.04767981333235901
      ],
      [
        -0.0419129286173118,
        0.08535138973067899,
        0.004196077276500736,
        -0.05342159260238052,
        -0.07638994180798807,
        -0.13934754844875727,
        0.03337376499462332,
        -0.03094222669732114,
        -0.19078880753707825,
        -0.04962708656631654,
        -0.09014816500260767,
        0.12074438226256881,
        -0.14977872440966464,
        -0.12715051676486397,
        0.10224681642450732,
        0.11968851485072346,
        -0.06571957753619048,
        -0.05497130972223677,
        0.043951822519611446,
        -0.2110221326696899,
        -0.16385411103914857,
        -0.018431689428225168,
        0.144159535590372,
        -0.03008748734662964,
        0.009458854210985322,
        0.08945512945285702,
        0.18143119238873728,
        -0.04604265533247858,
        -0.0015877905755476034,
        0.16082281285303485,
        -0.1343586636669972,
        0.0867842166514297,
        -0.1006894462750319,
        0.024428778733549854,
        -0.019248790984268994,
        -0.08419873759410887,
        -0.08658129647963585,
        0.02690547312658746,
        0.0868307556309673,
        -0.004322052948904104,
        0.015170908098527624,
        0.042808958235715046,
        -0.08571253376335299,
        0.06685735972111245,
        0.0866117330389618,
        0.23023693778150733,
        -0.04626510371831332,
        -0.038136861915699885,
        0.06618925473706494,
        0.05870359877989911,
        -0.04656898294821999,
        -0.04095847286380451,
        0.04275083463086533,
        -0.07753390208202053,
        -0.03964070609701886,
        0.007925305958390094,
        0.0948669400475063,
        -0.058278563917109845,
        -0.16127548469403694,
        -0.16061158968142816,
        -0.10990126412129035,
        -0.12466760327506198,
        -0.019779300580217634,
        -0.08714725948372487,
        -0.06326154952249873,
        -0.077014982460436,
        -0.033537596898532224,
        0.11607579411455059,
        0.06072819460589012,
        0.004931433822183305,
        -0.041230817253359704,
        -0.04994359266352833,
        0.02891255413320583,
        0.04501454231320091,
        -0.07820106362461017,
        0.003218194300220399,
        -0.17958566625905992,
        0.01827951675736609,
        0.0672339238892273,
        -0.011917614140319404,
        0.14798900508675308,
        -0.08234418579298303,
        0.017474576719575047,
        0.00863470225840903,
        -0.008269405219780687,
        -0.01700527396112258,
        0.012678252809456468,
        0.07393485261354382,
        0.09995447253464666,
        0.01662536752641047,
        0.080527187062799,
        -0.061751373007940764,
        0.06756969340911025,
        -0.06945785758967865,
        0.09261924048169516,
        0.19424515121375993,
        -0.01076977890954125,
        -0.19368978688555585,
        -0.04450920459874963,
        0.11058276795554202
      ],
      [
        0.057439764003255074,
        0.026468591563726464,
        0.08315153572222558,
        0.03806356392664587,
        0.10742311093910768,
        0.08843065281427866,
        0.12671008340497808,
        0.03322238508457728,
        0.07806959824239816,
        -0.026098414312681204,
        -0.05540607494890791,
        0.14113631707543767,
        0.018591826869561786,
        0.07100351968603393,
        0.010942169522932354,
        -0.05174019268516321,
        0.0009688692493756459,
        0.12970904675202238,
        0.05334315375730951,
        -0.15171371487003976,
        -0.021982977086995776,
        0.1468551021154981,
        -0.01401669818061084,
        -0.15380437887518456,
        0.16704832415775944,
        0.05446447521827942,
        -0.007075360096060623,
        -0.032139864785817776,
        0.09522119859773835,
        -0.04839789189629863,
        0.10030124556647765,
        0.045389721683985744,
        0.024436446440921914,
        0.005992422897367972,
        -0.015945718723981515,
        0.09220849111976186,
        -0.07613684997874885,
        -0.13774505121916722,
        0.05472581588197528,
        0.05863209765798566,
        0.04788309111737025,
        0.04634144158916694,
        -0.028276859982416733,
        0.06981046510169192,
        0.005708984798469389,
        -0.04423277583418427,
        -0.03323974471215929,
        0.17946053280172414,
        -0.15059625982604322,
        0.04566858113458445,
        -0.14692218986988637,
        -0.007472942596816115,
        -0.04373746046775995,
        -0.18149948169512134,
        0.03615969226610099,
        -0.03388060827691951,
        -0.17560930033633443,
        0.07142365965760412,
        0.12294665562163043,
        0.12542743806676104,
        0.03386250441120216,
        -0.0006115833503292109,
        0.11410820051438146,
        0.13642866808492587,
        0.11059462640222989,
        -0.07489886335514932,
        0.012197713251456877,
        0.03918332863654427,
        -0.1539686938020329,
        0.03935557015460687,
        0.1924021373657715,
        0.06642137109105184,
        0.12997893000648927,
        0.01210032329117479,
        -0.0058855656395991746,
        0.033634320170633676,
        -0.0719666564636748,
        -0.08419636658168639,
        0.11170859922199063,
        0.11754445082777132,
        -0.09240021902510452,
        0.0843008166727645,
        -0.008069763439983474,
        0.025713852654568384,
        0.03976076987464343,
        0.08360664551545358,
        0.0063788660547498995,
        0.12376807263466773,
        0.02587312197330781,
        0.061314023599759446,
        -0.06515824389873878,
        0.19051406345486976,
        0.04144617797800956,
        0.06102685593053682,
        -0.1461549538996106,
        -0.07378674987360442,
        0.1092014176165191,
        0.025481842187947107,
        -0.1694184893481552,
        0.09181213221094536
      ],
      [
        -0.05499033148212531,
        0.11542905741298774,
        -0.016353668353650097,
        0.036034660380041356,
        0.10400291444517859,
        -0.08379370055856415,
        -0.07281600728870143,
        -0.017901803439481886,
        0.07754690415305833,
        -0.11917462165724253,
        -0.15151885861418424,
        0.05637376090489836,
        -0.05536395746178097,
        -0.034600695570181896,
        -0.1533603529022034,
        -0.05989698740128838,
        -0.0006675582913898215,
        0.08264686344329551,
        -0.0731981747054593,
        0.14110830499981372,
        -0.0593853797724796,
        -0.042731913236565285,
        0.13643464053364485,
        0.0269762185071781,
        -0.05032540046698437,
        -0.018048365188009473,
        0.11483567170634389,
        0.12995503138225595,
        -0.07238279242864447,
        -0.0043598074347531894,
        0.007035310758528442,
        -0.08539508509497125,
        -0.014705395897724564,
        0.013992142232948878,
        0.1025987251905524,
        0.10622019509998099,
        -0.028264441439833997,
        -0.018910134288710172,
        0.05462450946857406,
        -0.04873006628571038,
        0.05754298019406792,
        -0.010524659120927165,
        -0.08551667653241156,
        -0.08392313925059705,
        0.13280515189273046,
        -0.01249964326662134,
        0.1354145569417626,
        -0.041530182076660156,
        0.022927555619544664,
        0.2046681650780046,
        -0.0908282918792205,
        -0.16563495922447358,
        0.10957106294689235,
        -0.07609402122384776,
        -0.002661140823438913,
        -0.05168672326615942,
        0.03941737836481088,
        -0.08223234123137034,
        -0.012314177317282092,
        0.04670247040115038,
        -0.09482953636324816,
        -0.06631001258914995,
        -0.04158542680981989,
        -0.11331516285273707,
        -0.048384412443496824,
        0.003104758337486266,
        -0.03615118970581534,
        -0.024759464485083416,
        -0.00036078730623479956,
        -0.05084007577319704,
        0.06770362417375812,
        0.12524272644331663,
        -0.040965882042051247,
        0.039096102368338964,
        -0.021924025558726704,
        0.03224191140785341,
        0.13749565530340038,
        0.042094908816411515,
        -0.15644392405345006,
        0.04157379948515563,
        0.10184984623091671,
        -0.020272695122172574,
        0.08483070845773064,
        -0.050244039693699775,
        -0.1309257877976477,
        -0.00041316955722601675,
        -0.1544511520460249,
        -0.021478619994163832,
        0.10497464823013979,
        -0.16055220382132235,
        -0.11002417563439919,
        -0.0909388803635668,
        -0.0055858385656099695,
        -0.03463640118714674,
        0.11899645621463381,
        0.08346160606261753,
        0.04369110631769748,
        0.010586771498114479,
        0.03265193445974663,
        -0.07632850636044317
      ],
      [
        0.06923143985565591,
        -0.1063014267095185,
        0.07224892501211425,
        0.08810536995170416,
        0.018601677764958222,
        -0.02488754321746294,
        0.028198841385011768,
        -0.25250995226283546,
        0.02951179973857207,
        -0.011250490567106532,
        0.0009496108109061606,
        0.07648046788355346,
        -0.00876063160558014,
        -0.10058473694869151,
        -0.01933156926335111,
        0.005959489329566596,
        0.010139035031603266,
        0.014756761450497449,
        0.07968887475978195,
        -0.10004623220864842,
        0.017907150147051697,
        0.11935388393426727,
        -0.14507149170959754,
        0.007846038177579414,
        -0.05316339934860284,
        -0.0302163622446371,
        -0.08197509415015092,
        -0.01609747266907637,
        0.1622909848235615,
        -0.11223753453093492,
        -0.10338296426234186,
        -0.11064363476314683,
        0.15742171849199943,
        -0.02780919973677846,
        0.010797079221327643,
        -0.03535629909204068,
        -0.08262941720478874,
        -0.03573282331298242,
        0.2129434415892846,
        0.10620642564041934,
        -0.07763139459373168,
        0.0444241898572076,
        -0.07335379441686954,
        -0.15633186880146366,
        0.07222905960732069,
        0.0934518161065578,
        0.08657457494690778,
        -0.04531403622363854,
        -0.01761810864179941,
        0.06957072136386516,
        0.03537019609968739,
        -0.035710734812552145,
        -0.1182265652112989,
        0.006423262042361782,
        0.0981955716668525,
        -0.10538085672049183,
        0.05444625069030459,
        0.027680448698542113,
        0.06896332717479614,
        0.08195636143307092,
        -0.06751804755862315,
        -0.15021159387693797,
        -0.044532436612767984,
        0.10573313148448053,
        -0.05682792366356388,
        -0.07145269190737538,
        -0.1492197582553421,
        0.1545810298156141,
        0.07138149575971646,
        0.051652637000929494,
        0.0965425092500012,
        0.03268560075391752,
        -0.021553767620191334,
        -0.002917859363028001,
        -0.04017401670946262,
        0.23242686549806466,
        0.048724566647054185,
        -0.042512684480314956,
        0.041064365037672,
        -0.08405787951668396,
        0.14875712400036215,
        -0.059153890192186406,
        0.04182515657930916,
        0.0882888865810021,
        0.03434632941383916,
        0.007843665107105055,
        0.0018207470988936324,
        -0.00552996301535725,
        -0.06395920583198547,
        -0.04058782240714687,
        0.12778909994714166,
        -0.009470393146375825,
        -0.06931997522210225,
        -0.04742069605229948,
        0.09371507450865063,
        0.058885888368588504,
        0.04943012109460708,
        -0.02488525826078248,
        0.04669563504685819,
        -0.05403587212649552
      ],
      [
        -0.018685077859993297,
        0.08767541386428489,
        0.07547206716014836,
        -0.08565555353679699,
        -0.07547130831259662,
        0.013043075364206779,
        0.15234326572950205,
        -0.169685211404767,
        0.024508444713486992,
        -0.12319900258428083,
        -0.05944880710511153,
        -0.027152744967780237,
        -0.0390147879613654,
        -0.047089459129018255,
        0.0051107962937647095,
        -0.04721822190052944,
        -0.12901245988492702,
        0.06915977435272663,
        0.07259373413607174,
        0.0708380660566702,
        -0.13471132534082464,
        0.022397145386055986,
        0.05720081234935894,
        -0.08770214734099942,
        -2.971215559331988e-05,
        -0.012545160281116465,
        0.15954398069471626,
        0.17064573727306,
        -0.14673327041454795,
        0.21939399068450285,
        -0.08134594034049952,
        0.08438420431787648,
        0.08437234871269775,
        -0.09396321615443978,
        0.04404754510364834,
        -0.00942560333930435,
        0.049639859635657174,
        0.02600104906968405,
        0.10185474413221396,
        0.011535032235429616,
        -0.01427076323289098,
        0.09843922321561836,
        0.051200337123779846,
        0.06462951431334132,
        -0.05847767350991102,
        -0.08857345438791372,
        -0.05005379826770688,
        -0.05564920438081907,
        0.06650196556257433,
        0.08874463393746071,
        -0.009045885643899746,
        0.1271339102366949,
        0.11552946740936276,
        0.016661917260150223,
        -0.07116909184506187,
        0.1392968071929315,
        -0.0018914803665274057,
        0.010756516932140362,
        -0.0307710314339569,
        -0.0851312361544541,
        -0.13531492233316542,
        0.05363240470268762,
        -0.06637416501273721,
        0.25931166234693476,
        -0.08537899631146227,
        -0.10644307163275528,
        0.04367794979841226,
        0.13494722994970576,
        0.004664583065113487,
        0.05492652760603956,
        -0.16696033253528347,
        -0.04376217018218762,
        -0.09471031950855803,
        -0.16509413935000192,
        0.008718575793730674,
        -0.1978537710284657,
        -0.11676980719394954,
        -0.048630338495197066,
        -0.07333289275587448,
        0.03496130118695492,
        0.022703543947971472,
        0.078969328612848,
        0.06407983725769612,
        0.10008767630315232,
        -1.3400868995127254e-05,
        0.028130778713082765,
        0.04630283419456798,
        0.012536641362599367,
        -0.03564133531843832,
        -0.023552449855890837,
        -0.07078159710739976,
        0.03728653719513004,
        -0.008293663118563395,
        -0.060201238161589864,
        -0.056555724834643606,
        -0.10753294544242431,
        0.08634968141835206,
        0.004860955615765664,
        -0.07995277744984391,
        0.07165408217138718
      ],
      [
        -0.0498817833952695,
        -0.12568423441283533,
        0.07924035365133292,
        -0.051398878735476376,
        -0.03607153139563485,
        0.009098174981908215,
        0.09938933634577436,
        0.001318412919317193,
        -0.09459869040519248,
        0.04600656306909698,
        -0.04933224122719422,
        0.15827406835109112,
        -0.0020279685779784414,
        -0.19716637934225736,
        0.02895712591421057,
        0.17154506330542393,
        0.13902172816343678,
        0.1620106564669278,
        -0.10003503752670707,
        0.07670839991225983,
        -0.06670825617857908,
        0.016261355438494128,
        -0.10409665013777822,
        -0.052565343186391264,
        -0.06074893787105258,
        0.06960363661627123,
        0.0665063518361475,
        0.024745783307549524,
        -0.11877522327785503,
        -0.027830588391615018,
        -0.06744581504969926,
        0.07438678453441656,
        0.09820280006802858,
        0.10595299926223056,
        -0.06140060504460498,
        -0.24171897915140717,
        -0.15500705221557715,
        0.12488110866935224,
        -0.039026551251655266,
        -0.0666425590110863,
        0.14796149018343738,
        0.10730528294996006,
        0.0021567737895000407,
        -0.02638295974844823,
        -0.015858666647814698,
        0.02477672489316636,
        0.13071787184527525,
        0.03810098970363132,
        0.06070040033295979,
        0.10047300366858548,
        -0.09845854662085472,
        0.06417016737018036,
        -0.021920691437364002,
        -0.23229030368013176,
        -0.1860308758015507,
        -0.08946833153705337,
        0.04567773598955259,
        0.006972302152021463,
        0.01835297263835706,
        0.16860710911731963,
        -0.117757165916735,
        -0.0076917154688231565,
        0.029844868141761904,
        -0.05339753078159601,
        0.009638424117737856,
        -0.1457936486311637,
        0.12583023753116873,
        -0.06010263869176405,
        0.18064453968975205,
        -0.0027579266684166653,
        0.08844767811992606,
        -0.013537581181360088,
        -0.002712104617404685,
        -0.052145738011568264,
        0.008784954391655695,
        0.028052642238626913,
        -0.06936847740949059,
        -0.011746529753640484,
        -0.05382061473940482,
        0.21737282172913278,
        -0.011378837173353794,
        0.13611237929986256,
        -0.019435649455668055,
        0.02639209636166945,
        -0.11641789861624133,
        -0.04048394502870147,
        0.019393972448878055,
        0.13994809249928342,
        0.008909076729587106,
        0.13145273923889125,
        0.05520273560363835,
        0.14365084618854967,
        -0.005208481129414413,
        0.20888038172587697,
        -0.04611632642822376,
        -0.06802076020587826,
        -0.10674628631638164,
        0.20353775204461233,
        0.06828676304511008,
        -0.027243671075162377
      ],
      [
        0.10671736580378592,
        0.057271553584517444,
        0.16487541482520954,
        -0.12733971345604217,
        -0.023409065237389327,
        -0.04019268872230202,
        -0.1674706307297564,
        0.09308973704445833,
        -0.017325230788717227,
        0.06316209546893203,
        0.20416785278088034,
        -0.03822287128454133,
        -0.038882381281977595,
        0.010468104298178883,
        0.09244083931376856,
        -0.04999327994188543,
        -0.05566104597779886,
        0.09326678504650117,
        0.03064767870486331,
        -0.18485645395810815,
        -0.10918858599122401,
        0.14003844384512065,
        0.03758138682755075,
        -0.06202100605885499,
        -0.014383717997927516,
        -0.002364345725640652,
        0.06123640682763543,
        -0.11763484723791583,
        -0.07346546307375987,
        0.024077875386101982,
        -0.009916116646733534,
        0.049991746161054715,
        -0.11279334868787953,
        0.041394089679477795,
        0.10029983046220114,
        0.0428659557051719,
        0.013157379178967593,
        -0.007651753011421015,
        -0.07698999511513524,
        -0.0038766067925974025,
        0.11204041277379516,
        -0.013127736831316175,
        -0.07849514294921357,
        -0.04387603501151703,
        0.018074589916480633,
        -0.029238258384350763,
        0.03751481972954439,
        0.05008459400515521,
        0.0746581086782767,
        0.12124324483673704,
        0.09128689830333218,
        -0.08182400159045511,
        -0.08243092537614531,
        -0.011645575963307434,
        -0.039788050315487,
        -0.10022809317098691,
        -0.027259337047962608,
        -0.04089931430616765,
        -0.058328711051598536,
        -0.025033337736056364,
        0.09799379745554826,
        0.014661887656868247,
        0.2156394623853411,
        0.023071423820224774,
        -0.02952679623683391,
        -0.0015959846359599851,
        0.022401035148372814,
        0.038197788279803774,
        0.18345125331903597,
        -0.07081408593980384,
        0.07829484821291853,
        0.01582759561088603,
        -0.13859630139506943,
        0.06477368748179077,
        0.11062746426544885,
        -0.07561686073859182,
        -0.0012179751519569091,
        -0.15264695562864952,
        -0.11104714541757972,
        0.09568546653930646,
        -0.04412177145008909,
        -0.09816526945175957,
        0.018082696130951592,
        -0.040546507711706564,
        -0.04175157783292882,
        0.05834158861334291,
        -0.10347328462055888,
        -0.07967741770656714,
        0.004625964441928103,
        0.0926116821249407,
        0.10860634620655701,
        -0.05858389185968306,
        0.082691851122784,
        -0.07091372510467325,
        0.16041209812743815,
        -0.10051103543369604,
        0.11719337675082823,
        -0.06022996657139964,
        0.17383406507135543,
        0.05220286135698648
      ],
      [
        -0.09159597112221157,
        -0.04863766386001016,
        0.06426953976625857,
        0.08512842934391796,
        -0.006238262075240532,
        0.002360903522272983,
        0.06032784654012936,
        0.010946351002759357,
        -0.11122511806102293,
        -0.07452333810783986,
        0.02246375224555969,
        0.1109437547599475,
        0.1412245375055378,
        0.06876713753708906,
        0.023296039899622006,
        0.06605752921561193,
        -0.0588182385390542,
        -0.01369810107345419,
        -0.07916733051154472,
        -0.11471308303802115,
        0.026890016592331513,
        0.01752590621137705,
        0.06742195431676443,
        0.045666816515345675,
        0.020653589797980845,
        0.04924387973926594,
        -0.005400089844327687,
        0.03487565484091418,
        -0.0634982661032115,
        0.0325769486166421,
        0.057940726508723873,
        -0.058573950831973795,
        0.00865220561670603,
        -0.047627465147131724,
        -0.038279440512163115,
        -0.09937089096412903,
        0.11244151145096772,
        0.09066820832205395,
        0.043682044811389986,
        0.16875857444969944,
        -0.018447328715142482,
        0.2607565774959189,
        -0.020071784570403588,
        0.02172505590051009,
        -0.041973210452955295,
        0.03258372321558739,
        0.06919998951167414,
        -0.012586287461457674,
        0.1532094204305147,
        0.023305023256817874,
        0.026833169204087792,
        -0.08002870790797982,
        0.04586256279066317,
        -0.01740982572062128,
        -0.05211526489693001,
        -0.06836542920429481,
        0.23818368543145224,
        -0.025213426367571835,
        -0.12685580100119076,
        -0.05912632848164092,
        -0.010643862811650516,
        0.04787232403252404,
        0.05483715851866098,
        0.07208084945953688,
        -0.05788728020285671,
        0.029094137374489758,
        -0.07509663859700388,
        -0.05428931063420207,
        -0.08208111514542024,
        -0.11370757191154408,
        0.09493989616089968,
        0.05502282886746506,
        0.08615772546279477,
        0.005593475111641863,
        0.06546915723267811,
        -0.155374290571109,
        0.07578534759463872,
        0.015186669824922509,
        0.05532123737114247,
        0.03769732801756662,
        -0.07888393379544488,
        -0.13202454149752108,
        -0.06462963169297702,
        0.04754445053754204,
        0.060816944031416104,
        -0.12057729071842488,
        -0.08960935569805584,
        -0.06393097913417749,
        -0.03914176519400398,
        -0.1164648378232134,
        -0.12893612911224947,
        -0.0724199909225915,
        0.007608987243761197,
        -0.10516499365738442,
        -0.01295061172137703,
        0.09266951186175688,
        -0.1148380854658682,
        -0.021371170279012294,
        0.08704050813865019,
        -0.0357731878108982
      ],
      [
        -0.047763151822012205,
        0.1051876818426455,
        -0.03406194266089908,
        0.09415015667329162,
        0.03784170457749021,
        -0.023250767787223937,
        0.03780509752262321,
        0.02717713784091888,
        0.09728134525946655,
        -0.051782772400542056,
        -0.0019729209388799837,
        -0.011000662845653719,
        0.06056915026132898,
        -0.09043743159140398,
        0.09063029737866833,
        0.041137760755212,
        -0.1161741497516994,
        0.10638973287424495,
        0.19326143889681713,
        0.0840140552825375,
        0.12259033345935484,
        -0.0003514877398854495,
        -0.14213017260969588,
        -0.15779240665924615,
        0.021249591167506177,
        -0.05952560619979145,
        -0.08406395046746679,
        -0.00483066062356098,
        0.05504076355975495,
        -0.12820618149216065,
        -0.04071700558874164,
        0.12814559314473828,
        -0.09562515109481606,
        0.08262926821409775,
        -0.04094296761053566,
        0.04778963517222693,
        0.09711956057345297,
        0.06840374162318644,
        0.07672678429656332,
        -0.09720747451697612,
        0.09981303805133966,
        -0.0757303587096881,
        0.02289579304398023,
        0.022176023901233004,
        0.041655126015548584,
        0.0370805768461702,
        -0.08137713779751338,
        -0.11798883950062314,
        0.07396314326445282,
        0.016384892962421876,
        0.10503071077035508,
        -0.006596790277839734,
        -0.12420869737414483,
        0.07495649187184655,
        -0.03282345494471118,
        0.03042579301841565,
        -0.05705609775931191,
        0.1436369162610741,
        -0.07430456789065987,
        -0.03510293219706816,
        0.0036903869352870526,
        -0.09676154062352589,
        0.036706832138294725,
        0.1426451063372357,
        -0.03301719154375326,
        0.037332425294806425,
        -0.2423259009981314,
        -0.0029225139599288,
        -0.027074330022916496,
        -0.07026039253605637,
        0.08838708568681335,
        -0.028306173021304927,
        -0.01565639274092253,
        -0.0346960145716645,
        -0.17116154941867723,
        -0.09985956288584402,
        0.08439587789190409,
        -0.18605924867101506,
        -0.06760144215166962,
        -0.02685643641903822,
        0.15148450541450317,
        0.0677012095045869,
        -0.05117069622766912,
        0.11719153237681122,
        -0.06533845369915424,
