{
  "saved_at": "2026-05-01T16:28:41",
  "schema_version": 2,
  "mode": "heading_strafe",
  "mode_suffix": "heading_strafe",
  "model_mode": "heading_strafe",
  "input_dim": 257,
  "output_dim": 3,
  "memory_steps": 10,
  "whisker_dim": 11,
  "input_layout": [
    "t-9.whiskers",
    "t-9.target_bbox_lengths",
    "t-9.heading_to_target",
    "t-9.action.rotation_rate",
    "t-9.action.vx",
    "t-9.action.vy",
    "t-8.whiskers",
    "t-8.target_bbox_lengths",
    "t-8.heading_to_target",
    "t-8.action.rotation_rate",
    "t-8.action.vx",
    "t-8.action.vy",
    "t-7.whiskers",
    "t-7.target_bbox_lengths",
    "t-7.heading_to_target",
    "t-7.action.rotation_rate",
    "t-7.action.vx",
    "t-7.action.vy",
    "t-6.whiskers",
    "t-6.target_bbox_lengths",
    "t-6.heading_to_target",
    "t-6.action.rotation_rate",
    "t-6.action.vx",
    "t-6.action.vy",
    "t-5.whiskers",
    "t-5.target_bbox_lengths",
    "t-5.heading_to_target",
    "t-5.action.rotation_rate",
    "t-5.action.vx",
    "t-5.action.vy",
    "t-4.whiskers",
    "t-4.target_bbox_lengths",
    "t-4.heading_to_target",
    "t-4.action.rotation_rate",
    "t-4.action.vx",
    "t-4.action.vy",
    "t-3.whiskers",
    "t-3.target_bbox_lengths",
    "t-3.heading_to_target",
    "t-3.action.rotation_rate",
    "t-3.action.vx",
    "t-3.action.vy",
    "t-2.whiskers",
    "t-2.target_bbox_lengths",
    "t-2.heading_to_target",
    "t-2.action.rotation_rate",
    "t-2.action.vx",
    "t-2.action.vy",
    "t-1.whiskers",
    "t-1.target_bbox_lengths",
    "t-1.heading_to_target",
    "t-1.action.rotation_rate",
    "t-1.action.vx",
    "t-1.action.vy",
    "t+0.whiskers",
    "t+0.target_bbox_lengths",
    "t+0.heading_to_target"
  ],
  "output_layout": [
    "rotation_rate",
    "vx",
    "vy"
  ],
  "history_includes_drive": false,
  "hidden_layers": 3,
  "hidden_width": 100,
  "activation": "relu",
  "weights": [
    [
      [
        0.02248992957174778,
        -0.09821614623069763,
        0.059872664511203766,
        0.09218506515026093,
        -0.17211294174194336,
        -0.11889061331748962,
        0.016684776172041893,
        -0.02927926555275917,
        0.0016839023446664214,
        -0.07925818860530853,
        0.07506763935089111,
        0.05835757032036781,
        0.0026675660628825426,
        0.09944095462560654,
        0.04716562479734421,
        -0.07580353319644928,
        0.03365983068943024,
        -0.08616016805171967,
        0.07341513782739639,
        -0.00735189113765955,
        -0.017673002555966377,
        -0.04940361529588699,
        0.10988535732030869,
        -0.009910010732710361,
        -0.04169926419854164,
        -0.03510866314172745,
        0.04280085116624832,
        0.035176120698451996,
        0.0334337055683136,
        0.042064931243658066,
        0.190426304936409,
        -0.03653942048549652,
        -0.04919840022921562,
        -0.06152758747339249,
        0.05435313656926155,
        0.10085154324769974,
        -0.008315973915159702,
        -0.07656925916671753,
        -0.07415405660867691,
        0.05729002505540848,
        0.06894170492887497,
        0.043626658618450165,
        -0.05870874971151352,
        0.02252885326743126,
        0.009576433338224888,
        0.020173467695713043,
        0.0696769654750824,
        0.020490257069468498,
        0.05743895843625069,
        0.0025856432039290667,
        0.028187450021505356,
        0.05600722134113312,
        -0.12898863852024078,
        -0.034958213567733765,
        -0.04127875342965126,
        -0.056105293333530426,
        -0.013722864910960197,
        0.13248182833194733,
        -0.07528015971183777,
        0.08888529241085052,
        -0.15367446839809418,
        -0.03575107827782631,
        0.009773117490112782,
        0.06268757581710815,
        0.05690065398812294,
        0.066407710313797,
        -0.032295484095811844,
        -0.041219718754291534,
        0.07623270153999329,
        -0.015302516520023346,
        -0.1073894277215004,
        -0.10240651667118073,
        -0.08111060410737991,
        0.04459879919886589,
        0.006363812368363142,
        0.060912005603313446,
        -0.037036702036857605,
        0.009077706374228,
        0.05423515662550926,
        -0.0256204791367054,
        0.03942479193210602,
        -0.056209538131952286,
        -0.03266679123044014,
        -0.029690004885196686,
        -0.10701590031385422,
        0.03577723354101181,
        -0.03953903540968895,
        0.002452201209962368,
        0.03523971512913704,
        0.04684941843152046,
        0.060131415724754333,
        -0.00827702134847641,
        -0.037341777235269547,
        -0.010232070460915565,
        -0.15322326123714447,
        -0.1308145970106125,
        -0.11668355762958527,
        -0.09090082347393036,
        0.03257785364985466,
        -0.07884074002504349
      ],
      [
        -0.04779932275414467,
        0.09965165704488754,
        -0.029620837420225143,
        0.05948414281010628,
        -0.08236022293567657,
        -0.03589895740151405,
        -0.08087532967329025,
        -0.03193296864628792,
        0.07331705838441849,
        -0.1538785696029663,
        0.047410257160663605,
        0.03462465852499008,
        -0.05548104643821716,
        -0.12756575644016266,
        0.005411221645772457,
        -0.04670984297990799,
        0.02149955742061138,
        0.001607353682629764,
        0.1301729828119278,
        -0.024268830195069313,
        -0.08456072211265564,
        0.03742501139640808,
        0.02221178635954857,
        0.11002858728170395,
        0.07075456529855728,
        0.03951960802078247,
        0.12710651755332947,
        -0.10114993900060654,
        -0.05905120074748993,
        -0.07800674438476562,
        -0.03192368149757385,
        -0.11433076858520508,
        0.06327328830957413,
        -0.0035391247365623713,
        -0.11694485694169998,
        -0.08800932765007019,
        0.02977582812309265,
        0.054029278457164764,
        0.17570891976356506,
        0.2375781536102295,
        0.03221562132239342,
        -0.10327877104282379,
        -0.1880810558795929,
        0.026284439489245415,
        -0.0863129198551178,
        -0.04934707656502724,
        -0.0599421001970768,
        -0.015513748861849308,
        0.09077956527471542,
        0.01280664186924696,
        -0.013691169209778309,
        -0.08942539989948273,
        -0.12151272594928741,
        -0.04254261404275894,
        -0.001455050427466631,
        0.1569993644952774,
        0.022532779723405838,
        0.0893339142203331,
        -0.042336855083703995,
        -0.08983505517244339,
        -0.0940549299120903,
        -0.07193559408187866,
        0.18212002515792847,
        -0.036581192165613174,
        0.04933808371424675,
        -0.09220043569803238,
        0.0931055024266243,
        0.03408248722553253,
        -0.01634521223604679,
        -0.021886711940169334,
        -0.037294983863830566,
        0.019919628277420998,
        -0.040136922150850296,
        -0.09821286052465439,
        -0.11884725838899612,
        0.015225053764879704,
        0.1381923258304596,
        0.014252838678658009,
        -0.01141790859401226,
        0.020443091168999672,
        0.13222582638263702,
        0.018554620444774628,
        -0.037484630942344666,
        0.0908634215593338,
        0.03956032544374466,
        0.12586843967437744,
        0.0178327988833189,
        -0.10439453274011612,
        -0.13468605279922485,
        0.1425018161535263,
        0.14849114418029785,
        -0.012263355776667595,
        -0.03380333632230759,
        0.12440123409032822,
        -0.09702733159065247,
        -0.0813635066151619,
        0.056751858443021774,
        -0.0377977192401886,
        -0.0037905515637248755,
        -0.011702373623847961
      ],
      [
        0.026780661195516586,
        0.11965329200029373,
        0.005676147062331438,
        0.06565558165311813,
        -0.18085843324661255,
        -0.008276465348899364,
        -0.06824596226215363,
        -0.10874568670988083,
        -0.07767769694328308,
        -0.03153268247842789,
        0.07992992550134659,
        -0.11490794271230698,
        -7.016795279923826e-05,
        -0.04271159693598747,
        -0.019281607121229172,
        0.08845950663089752,
        0.04858768731355667,
        0.11627785861492157,
        -0.01156934816390276,
        -0.06319677829742432,
        -0.017781255766749382,
        0.031132349744439125,
        0.01356652844697237,
        -0.09389572590589523,
        0.0038809909019619226,
        0.019159523770213127,
        0.21980874240398407,
        0.1682310402393341,
        -0.07999119162559509,
        -0.02231324277818203,
        -0.12792837619781494,
        -0.05058687925338745,
        0.024945249781012535,
        0.10768166184425354,
        -0.0642600730061531,
        -0.05544935166835785,
        -0.18662145733833313,
        -0.014080197550356388,
        -0.09394584596157074,
        -0.046317897737026215,
        -0.0770820826292038,
        -0.011621725745499134,
        -0.15506015717983246,
        -0.12733522057533264,
        0.19126155972480774,
        -0.11273570358753204,
        -0.10032404959201813,
        0.16221138834953308,
        0.2531818449497223,
        -0.10497067868709564,
        -0.027471773326396942,
        0.03456094488501549,
        0.1498394012451172,
        -0.08961578458547592,
        -0.021053994074463844,
        0.07093819230794907,
        0.05118695646524429,
        -0.0301973894238472,
        -0.010902039706707,
        -0.11913713812828064,
        -0.02713027596473694,
        -0.02934332750737667,
        0.014265857636928558,
        -0.0472661554813385,
        0.037057843059301376,
        0.08940805494785309,
        0.013596747070550919,
        0.030885688960552216,
        0.0037863622419536114,
        0.002331634284928441,
        -0.056515637785196304,
        0.03557884320616722,
        -0.00858225580304861,
        0.18767336010932922,
        0.1342422068119049,
        0.03403792530298233,
        -0.0687732994556427,
        -0.09891082346439362,
        0.10412601381540298,
        0.01868925616145134,
        0.03911776468157768,
        -0.15474781394004822,
        0.08191625773906708,
        0.04151420295238495,
        -0.09699903428554535,
        -0.047945525497198105,
        0.023288622498512268,
        0.009283807128667831,
        -0.029123064130544662,
        -0.004888385999947786,
        -0.019246630370616913,
        0.018211906775832176,
        0.1298094540834427,
        -0.23085662722587585,
        -0.017964225262403488,
        0.016650686040520668,
        0.02611147053539753,
        -0.03766532242298126,
        -0.1600932627916336,
        0.03115665540099144
      ],
      [
        0.1474960744380951,
        -0.14037130773067474,
        0.06236645206809044,
        -0.02349710650742054,
        -0.005409801844507456,
        -0.0894446149468422,
        -0.02374974451959133,
        0.11279842257499695,
        0.06414983421564102,
        0.1485610008239746,
        0.09607113897800446,
        0.0216884333640337,
        0.1536952406167984,
        0.0387263149023056,
        0.07600070536136627,
        -0.026162367314100266,
        0.007000448182225227,
        -0.06308317184448242,
        0.07414418458938599,
        -0.1074410006403923,
        0.0626727044582367,
        -0.013592851348221302,
        0.11100868135690689,
        0.07438122481107712,
        0.15767160058021545,
        0.052233319729566574,
        -0.14073078334331512,
        -0.007548210676759481,
        -0.10749979317188263,
        -0.04331526532769203,
        0.1347046196460724,
        0.05444541573524475,
        -0.07383701205253601,
        -0.07191947102546692,
        0.0020521795377135277,
        -0.1068958267569542,
        -0.056025583297014236,
        0.027446111664175987,
        0.1018853634595871,
        0.05593530461192131,
        -0.1968661993741989,
        0.02107813023030758,
        0.006354529410600662,
        0.0386824831366539,
        0.14694291353225708,
        -0.17664527893066406,
        -0.06814459711313248,
        0.05334887281060219,
        -0.14282628893852234,
        0.12281433492898941,
        0.03935018554329872,
        0.07480945438146591,
        -0.05163917317986488,
        0.05940314009785652,
        0.09496954083442688,
        0.024235596880316734,
        0.026497334241867065,
        0.020278368145227432,
        -0.0713474452495575,
        -0.014357129111886024,
        -0.020903483033180237,
        0.024959946051239967,
        0.08234947919845581,
        -0.07642121613025665,
        -0.008884677663445473,
        0.12210188060998917,
        -0.06598024815320969,
        -0.07356312870979309,
        0.020902207121253014,
        0.07671164721250534,
        0.00258868420496583,
        0.10582708567380905,
        0.07558312267065048,
        0.07142340391874313,
        0.044441141188144684,
        0.20533674955368042,
        -0.017530903220176697,
        -0.1833251267671585,
        0.14057065546512604,
        -0.026394488289952278,
        3.570512853912078e-05,
        0.11602556705474854,
        -0.14090003073215485,
        -0.10265721380710602,
        -0.14023368060588837,
        -0.07883819192647934,
        0.0405464731156826,
        0.04917656257748604,
        0.010076027363538742,
        -0.11101873964071274,
        -0.20204783976078033,
        0.008060386404395103,
        -0.04161829873919487,
        0.03605202957987785,
        0.05826379731297493,
        0.00814859289675951,
        0.0670560672879219,
        0.016090162098407745,
        0.0415225476026535,
        -0.05878943204879761
      ],
      [
        -0.021205514669418335,
        0.011742443777620792,
        0.06331922858953476,
        -0.02164578065276146,
        0.04597540572285652,
        -0.02535441517829895,
        -0.0014261367032304406,
        0.07154889404773712,
        -0.17144137620925903,
        -0.11916587501764297,
        -0.1322445422410965,
        -0.21580515801906586,
        -0.06297459453344345,
        0.0661122277379036,
        -0.016887689009308815,
        0.017448293045163155,
        0.0972166359424591,
        0.11387047171592712,
        -0.01015953067690134,
        0.11479789763689041,
        0.005224758293479681,
        -0.06153515726327896,
        -0.05105641856789589,
        -0.12637312710285187,
        -0.07794832438230515,
        -0.036002300679683685,
        0.06573721021413803,
        0.15245333313941956,
        -0.12364505231380463,
        0.03849516808986664,
        -0.0910763293504715,
        0.04367324337363243,
        -0.016033198684453964,
        -0.15144768357276917,
        0.08228174597024918,
        -0.049839094281196594,
        -0.04528254643082619,
        -0.09646809846162796,
        -0.057508137077093124,
        0.03811410814523697,
        -0.014059069566428661,
        0.02488149330019951,
        0.03192737698554993,
        0.11791922897100449,
        -0.024206014350056648,
        -0.12881316244602203,
        0.08703408390283585,
        -0.028645360842347145,
        0.09586742520332336,
        0.02937944419682026,
        -0.008601024746894836,
        0.034307822585105896,
        0.16790758073329926,
        0.17839215695858002,
        0.005980115849524736,
        0.01659955270588398,
        0.11054466664791107,
        -0.07507988065481186,
        0.030011063441634178,
        0.0031694683711975813,
        0.020443014800548553,
        -0.07865884155035019,
        -0.1458495408296585,
        -0.17364075779914856,
        -0.10518818348646164,
        -0.04228362813591957,
        -0.02824847772717476,
        0.17162902653217316,
        0.10059334337711334,
        -0.08182132244110107,
        0.036732953041791916,
        -0.03679026663303375,
        -0.025085503235459328,
        0.013312959112226963,
        0.050874724984169006,
        -0.02992810122668743,
        0.09486909210681915,
        -0.10761672258377075,
        -0.0003909038205165416,
        0.2301120012998581,
        0.014964604750275612,
        0.12633469700813293,
        0.010744703933596611,
        0.057088591158390045,
        -0.0038638110272586346,
        -0.024889033287763596,
        -0.0692242756485939,
        0.0422888845205307,
        -0.08533455431461334,
        0.06633973866701126,
        0.0956457257270813,
        0.03506161645054817,
        -0.025251781567931175,
        0.0333869494497776,
        -0.02668607234954834,
        0.08035315573215485,
        -0.16155971586704254,
        -0.033290036022663116,
        -0.18012483417987823,
        -0.1299031674861908
      ],
      [
        0.11144710332155228,
        0.06977804005146027,
        -0.07031921297311783,
        -0.12851428985595703,
        -0.26151952147483826,
        -0.05504864826798439,
        0.21776117384433746,
        0.0367676243185997,
        -0.04608619585633278,
        0.035361748188734055,
        -0.13594947755336761,
        -0.030173318460583687,
        0.006191795226186514,
        -0.007595473900437355,
        0.07247351855039597,
        0.030403299257159233,
        0.06008722260594368,
        -0.06309472024440765,
        0.0701836571097374,
        0.1402999758720398,
        -0.08600308001041412,
        -0.06517098844051361,
        0.12238987535238266,
        -0.01837242767214775,
        0.12214024364948273,
        -0.03997056558728218,
        0.12533822655677795,
        0.009899810887873173,
        0.019945215433835983,
        0.13729554414749146,
        -0.027339307591319084,
        -0.07957646250724792,
        -0.03976995497941971,
        0.05495353043079376,
        -0.13109110295772552,
        0.06193913519382477,
        -0.045578718185424805,
        0.09424790740013123,
        -0.21138077974319458,
        -0.0761718899011612,
        -0.14880117774009705,
        -0.0815407931804657,
        0.021848149597644806,
        -0.015173873864114285,
        -0.02383202314376831,
        -0.01783536747097969,
        0.00932252686470747,
        -0.09204838424921036,
        0.05953769013285637,
        0.05498601496219635,
        0.03703167289495468,
        0.050656408071517944,
        0.03523154556751251,
        0.17668010294437408,
        -0.003838425502181053,
        -0.026562683284282684,
        -0.0525183230638504,
        -0.09414901584386826,
        -0.10635204613208771,
        -0.06794586777687073,
        -0.01371051650494337,
        0.02514578215777874,
        0.0005800374783575535,
        -0.04510486125946045,
        0.06574226170778275,
        0.059690747410058975,
        -0.011989620514214039,
        -0.05613744258880615,
        0.04746605455875397,
        0.009282954037189484,
        -0.11914923787117004,
        -0.01711129955947399,
        0.02311580814421177,
        -0.07994451373815536,
        0.011664090678095818,
        -0.12833893299102783,
        0.1186419352889061,
        0.10642015933990479,
        -0.02322644367814064,
        0.03251771628856659,
        -0.208587184548378,
        -0.10046005994081497,
        -0.028240414336323738,
        -0.09289974719285965,
        0.06215960904955864,
        0.16640667617321014,
        -0.10545637458562851,
        -0.06871110945940018,
        0.010768106207251549,
        0.1456855982542038,
        -0.10849883407354355,
        0.02597442828118801,
        0.16066808998584747,
        -0.1527167558670044,
        -0.1117224469780922,
        -0.04038865864276886,
        -0.045924339443445206,
        0.06978274136781693,
        0.01813441328704357,
        -0.15404915809631348
      ],
      [
        0.04164954647421837,
        -0.052968766540288925,
        0.10471901297569275,
        -0.04113703593611717,
        -0.056159794330596924,
        0.05097620189189911,
        0.07825513929128647,
        0.037774864584207535,
        -0.14175383746623993,
        0.04195393621921539,
        -0.09786908328533173,
        0.005565388593822718,
        -0.12925997376441956,
        0.039372850209474564,
        -0.06034328043460846,
        -0.11314918100833893,
        0.06410530209541321,
        0.01873297058045864,
        -0.05553693696856499,
        0.12506753206253052,
        -0.03938714787364006,
        0.008752518333494663,
        0.022379375994205475,
        -0.04418416693806648,
        0.040067158639431,
        -0.05655514821410179,
        -0.040605999529361725,
        0.12318672984838486,
        -0.09373358637094498,
        -0.21261224150657654,
        0.14389286935329437,
        0.2223067730665207,
        -0.04443803429603577,
        -0.16372621059417725,
        -0.0334724523127079,
        -0.02232072874903679,
        -0.015543514862656593,
        -0.09380742162466049,
        0.051811717450618744,
        0.054802607744932175,
        -0.12739001214504242,
        0.06371051073074341,
        0.18108010292053223,
        0.014912025071680546,
        -0.02373572252690792,
        -0.007964834570884705,
        0.045482080429792404,
        -0.14847061038017273,
        0.01039060764014721,
        -0.03927382454276085,
        0.16607746481895447,
        -0.015533511526882648,
        0.13882023096084595,
        -0.10604719072580338,
        0.051690250635147095,
        0.02827502228319645,
        -0.06334810703992844,
        0.01753213070333004,
        0.11008339375257492,
        -0.027740204706788063,
        -0.1560496985912323,
        -0.0020683964248746634,
        -0.08348479866981506,
        -0.02985238842666149,
        -0.006806772667914629,
        -0.15091440081596375,
        -0.145956352353096,
        0.04778192192316055,
        -0.04779313504695892,
        -0.21598157286643982,
        0.06770480424165726,
        0.02670336328446865,
        -0.06297533959150314,
        -0.12275169789791107,
        0.07117653638124466,
        0.0308183915913105,
        0.21009303629398346,
        0.034460894763469696,
        0.033249642699956894,
        -0.011944657191634178,
        0.06046967953443527,
        0.05743192508816719,
        0.10911670327186584,
        -0.03784406557679176,
        -0.03314891830086708,
        -0.05151338502764702,
        0.06844595074653625,
        0.13554143905639648,
        -0.04457918554544449,
        -0.027765018865466118,
        0.03188623487949371,
        -0.017556631937623024,
        0.08398657292127609,
        -0.20335541665554047,
        -0.07225839793682098,
        -0.07134106010198593,
        -0.2046930342912674,
        -0.08774004131555557,
        -0.08176976442337036,
        -0.015509047545492649
      ],
      [
        0.09536843746900558,
        -0.02631467580795288,
        -0.09873786568641663,
        0.0017321258783340454,
        0.09255412966012955,
        -0.08550569415092468,
        -0.07255782932043076,
        0.04817567020654678,
        -0.010136858560144901,
        0.05258645489811897,
        -0.004350694827735424,
        0.048285648226737976,
        -0.09314858913421631,
        -0.0010660621337592602,
        -0.01113880518823862,
        -0.1072613000869751,
        -0.13678549230098724,
        0.05474088340997696,
        -0.03848131000995636,
        -0.0976640060544014,
        -0.009253667667508125,
        0.10454420000314713,
        -0.19865696132183075,
        -0.12413036078214645,
        -0.0835571140050888,
        0.11931530386209488,
        0.017463890835642815,
        0.07027929276227951,
        -0.10306833684444427,
        -0.09837686270475388,
        0.04349954426288605,
        0.00291977496817708,
        0.040842000395059586,
        -0.004112656228244305,
        0.023595226928591728,
        0.015947189182043076,
        0.06874015927314758,
        0.07180937379598618,
        -0.1440611034631729,
        -0.19486075639724731,
        0.09227988123893738,
        0.10231878608465195,
        -0.09003550559282303,
        -0.1641153246164322,
        0.011875960975885391,
        0.08624261617660522,
        0.14821039140224457,
        0.04776765778660774,
        -0.03916101157665253,
        -0.08453768491744995,
        0.004400509409606457,
        -0.024645820260047913,
        -0.09009933471679688,
        0.1703648418188095,
        0.15429852902889252,
        0.10137498378753662,
        -0.07058866322040558,
        0.07917691022157669,
        0.06029149889945984,
        0.04094238206744194,
        0.10333175212144852,
        0.05251263082027435,
        0.06175895035266876,
        0.06424178928136826,
        0.027361717075109482,
        -0.15942084789276123,
        0.005124161019921303,
        -0.050890062004327774,
        -0.11234437674283981,
        0.15250833332538605,
        0.15562286972999573,
        0.11260601133108139,
        0.022513963282108307,
        0.11483892053365707,
        -0.0018399093532934785,
        0.01789000816643238,
        -0.09550096094608307,
        0.03225277364253998,
        0.004374929238110781,
        -0.10767249763011932,
        -0.01247340813279152,
        -0.007092576939612627,
        0.16279064118862152,
        0.08616645634174347,
        0.007848316803574562,
        0.01467528659850359,
        0.003485374618321657,
        -0.013264776207506657,
        -0.10301176458597183,
        -0.004060994368046522,
        -0.06324824690818787,
        -0.10768400132656097,
        0.04509805515408516,
        0.03132611885666847,
        -0.1579688936471939,
        -0.013130010105669498,
        0.08783701062202454,
        0.09061861783266068,
        0.0892571210861206,
        0.00700149592012167
      ],
      [
        -0.07573461532592773,
        -0.09794045984745026,
        0.028521301224827766,
        0.03475009649991989,
        0.11356348544359207,
        0.0984388142824173,
        -0.008234424516558647,
        -0.11066191643476486,
        -0.02021583542227745,
        0.014797463081777096,
        -0.02019934542477131,
        -0.05393874645233154,
        0.02008030191063881,
        -0.044457245618104935,
        -0.05123520269989967,
        0.02747519128024578,
        -0.034321706742048264,
        0.019024118781089783,
        0.01978427916765213,
        -0.10513436794281006,
        -0.04685596749186516,
        0.12692400813102722,
        -0.09871087968349457,
        -0.18263360857963562,
        -0.16695737838745117,
        -0.0035476936027407646,
        -0.00288284569978714,
        -0.008519957773387432,
        0.10503718256950378,
        -0.23602721095085144,
        0.03830675035715103,
        0.1339859515428543,
        -0.1049407497048378,
        -0.02381928823888302,
        -0.0648728683590889,
        -0.07796520739793777,
        -0.02854718640446663,
        0.12543080747127533,
        0.1603560447692871,
        -0.027398260310292244,
        0.16921648383140564,
        -0.0026667506899684668,
        0.1547039896249771,
        -0.006426905747503042,
        0.012417962774634361,
        0.03623586520552635,
        0.2736409902572632,
        0.0775795727968216,
        -0.06477583944797516,
        0.08185821026563644,
        -0.02678466960787773,
        -0.04246509447693825,
        0.08000081032514572,
        -0.008756001479923725,
        0.018853457644581795,
        0.002226972719654441,
        0.03397073596715927,
        0.03755701333284378,
        -0.16668979823589325,
        0.05655479431152344,
        -0.09355204552412033,
        -0.12946419417858124,
        -0.003413048107177019,
        0.01259671151638031,
        -0.06043625250458717,
        0.07082471251487732,
        -0.11819957941770554,
        -0.032572563737630844,
        -0.05202402547001839,
        -0.0021753471810370684,
        0.02788788266479969,
        -0.09278596937656403,
        0.06389348208904266,
        0.009019415825605392,
        -0.17064598202705383,
        -0.17277953028678894,
        0.0009987879311665893,
        -0.023467758670449257,
        -0.010075373575091362,
        0.005102983210235834,
        0.018993975594639778,
        0.08197366446256638,
        -0.09747988730669022,
        -0.10152843594551086,
        -0.09390738606452942,
        0.02565467171370983,
        0.10881435871124268,
        -0.035777896642684937,
        -0.23007982969284058,
        -0.14233119785785675,
        -0.07189211249351501,
        -0.04667240008711815,
        -0.036026500165462494,
        0.004955843091011047,
        -0.028786037117242813,
        0.0888524055480957,
        -0.05963569134473801,
        -0.07890649884939194,
        0.04022644832730293,
        -0.13347232341766357
      ],
      [
        0.03232987970113754,
        0.007201665081083775,
        -0.007151271216571331,
        0.14324979484081268,
        -0.05488878861069679,
        0.1781933754682541,
        -0.01575697585940361,
        -0.11464054137468338,
        0.006859958171844482,
        -0.0983957052230835,
        -0.06376683712005615,
        0.03981336951255798,
        0.04659542068839073,
        -0.05488528311252594,
        0.09090111404657364,
        0.10211095958948135,
        0.12784674763679504,
        0.04462777078151703,
        0.11980569362640381,
        -0.16830548644065857,
        -0.029483191668987274,
        -0.07057748734951019,
        0.007650624494999647,
        -0.05135263130068779,
        -0.01731022819876671,
        0.16684330999851227,
        -0.015126092359423637,
        0.035294197499752045,
        -0.022953614592552185,
        0.008790815249085426,
        0.003936915658414364,
        0.03735046461224556,
        0.10545367747545242,
        0.14908020198345184,
        0.029653333127498627,
        0.051822297275066376,
        -0.09817179292440414,
        -0.010294616222381592,
        0.08084283769130707,
        0.07639221101999283,
        0.017156051471829414,
        0.07496679574251175,
        0.043293584138154984,
        0.10679515451192856,
        0.02262592501938343,
        -0.03120800293982029,
        0.030366504564881325,
        -0.2569459080696106,
        0.031119052320718765,
        -0.32018962502479553,
        -0.1471666693687439,
        0.042146097868680954,
        0.04373858869075775,
        -0.11140618473291397,
        -0.06710807234048843,
        0.12195280194282532,
        -0.03377771005034447,
        0.1996389925479889,
        -0.0005730283446609974,
        0.03591102361679077,
        0.13545049726963043,
        0.012593833729624748,
        -0.08540387451648712,
        -0.005015622358769178,
        -0.006003163289278746,
        -0.11760969460010529,
        -0.023972617462277412,
        -0.06466955691576004,
        0.07915636152029037,
        0.001849604770541191,
        -0.019636718556284904,
        -0.008788111619651318,
        0.019682981073856354,
        0.05686240643262863,
        -0.09269534051418304,
        -0.09188491851091385,
        0.09706782549619675,
        -0.041249461472034454,
        -0.12594030797481537,
        0.035510677844285965,
        0.04327905923128128,
        -0.1338106095790863,
        0.02054060995578766,
        0.06147771701216698,
        0.034750595688819885,
        0.056972939521074295,
        -0.12474967539310455,
        0.031158342957496643,
        -0.03079541027545929,
        -0.03801939636468887,
        0.07542338967323303,
        0.13402113318443298,
        0.15829254686832428,
        0.11549917608499527,
        -0.008795557543635368,
        0.027679642662405968,
        0.06764621287584305,
        0.0073494319804012775,
        0.009186171926558018,
        0.07377458363771439
      ],
      [
        0.001971236662939191,
        -0.059207700192928314,
        -0.029484771192073822,
        0.05029105395078659,
        0.0002640568418428302,
        0.0360025092959404,
        0.05434778332710266,
        -0.03632059320807457,
        0.06425827741622925,
        0.029614020138978958,
        -0.11042388528585434,
        0.13831698894500732,
        -0.04649999365210533,
        -0.1460062563419342,
        -0.08857806026935577,
        -0.09007274359464645,
        0.005746375769376755,
        -0.025053806602954865,
        -0.01901833899319172,
        0.052034031599760056,
        0.02948789857327938,
        0.0162790659815073,
        0.031015628948807716,
        0.05167070031166077,
        -0.18977157771587372,
        -0.030661696568131447,
        -0.19100576639175415,
        0.006074591539800167,
        -0.003394134109839797,
        0.09621792286634445,
        0.10719231516122818,
        0.011392461135983467,
        -0.03522595390677452,
        0.031964898109436035,
        -0.044156670570373535,
        0.0016132962191477418,
        0.09022760391235352,
        -0.0455571673810482,
        0.07076100260019302,
        0.0637204647064209,
        -0.08555223792791367,
        0.08714257925748825,
        0.061624880880117416,
        0.011098679155111313,
        -0.07473976165056229,
        -0.0709148719906807,
        -0.04193112999200821,
        0.04808912053704262,
        -0.0852838009595871,
        0.045286860316991806,
        -0.1049172431230545,
        -0.01951790787279606,
        0.007310144137591124,
        0.20513083040714264,
        -0.12210927903652191,
        0.13104280829429626,
        0.013886276632547379,
        0.037082571536302567,
        0.007920212112367153,
        0.026943378150463104,
        -0.02089826762676239,
        0.12670698761940002,
        -0.028593095019459724,
        0.08041296899318695,
        -0.04214637726545334,
        0.008016213774681091,
        -0.09896203875541687,
        0.04020719975233078,
        0.12229769676923752,
        -0.005869349930435419,
        -0.023104052990674973,
        -0.08028791099786758,
        -0.020227331668138504,
        -0.13419121503829956,
        -0.08498850464820862,
        0.02000620774924755,
        0.11676483601331711,
        0.24297021329402924,
        -0.05269813910126686,
        0.12265653163194656,
        0.02449064329266548,
        -0.013221943750977516,
        0.038983359932899475,
        -0.0003691442543640733,
        0.011210024356842041,
        -0.025538507848978043,
        -0.12456467747688293,
        -0.13420844078063965,
        0.05977549031376839,
        -0.02439212054014206,
        -0.05351856350898743,
        0.004503123927861452,
        0.07012591511011124,
        0.014756930060684681,
        -0.05661774054169655,
        0.10411292314529419,
        0.13930977880954742,
        0.04060295596718788,
        0.08347731828689575,
        0.10860579460859299
      ],
      [
        0.10021504014730453,
        0.05402697995305061,
        0.05033271759748459,
        0.042930472642183304,
        -0.0968029797077179,
        0.0658726692199707,
        -0.12219063192605972,
        -0.07071371376514435,
        0.12164857983589172,
        0.06850993633270264,
        0.12623965740203857,
        -0.02417219802737236,
        -0.10493091493844986,
        -0.021210459992289543,
        0.009991561062633991,
        0.006968085654079914,
        0.10113898664712906,
        -0.03337472304701805,
        0.029172705486416817,
        -0.08940709382295609,
        0.036272842437028885,
        -0.003180139698088169,
        -0.06280836462974548,
        -0.01940186694264412,
        -0.02013540454208851,
        -0.026879651471972466,
        0.15246213972568512,
        -0.005673591513186693,
        -0.023947082459926605,
        -0.1811543107032776,
        -0.07728815823793411,
        -0.02989441156387329,
        -0.059981901198625565,
        0.1260247528553009,
        -0.011669442057609558,
        0.11468996107578278,
        0.005648271180689335,
        0.002930448157712817,
        -0.008216899819672108,
        -0.0008281839545816183,
        0.15274563431739807,
        -0.20829352736473083,
        -0.17656879127025604,
        -0.04686879739165306,
        -0.0016764769097790122,
        0.06656066328287125,
        0.037679705768823624,
        -0.03300059586763382,
        0.08639191091060638,
        0.09250573813915253,
        0.020935604348778725,
        0.0803101658821106,
        0.0257063340395689,
        -0.06293065845966339,
        0.05913368612527847,
        0.010581742972135544,
        0.0010246438905596733,
        0.12688086926937103,
        -0.21712695062160492,
        -0.132294699549675,
        -0.10990456491708755,
        -0.034823209047317505,
        -0.017261700704693794,
        -0.13261547684669495,
        -0.07866474241018295,
        -0.07568974047899246,
        0.21718966960906982,
        0.1590813845396042,
        -0.040493354201316833,
        -0.03152501955628395,
        -0.10187462717294693,
        -0.16576401889324188,
        -0.01031072810292244,
        -0.0837065652012825,
        -0.01376054435968399,
        -0.14116410911083221,
        -0.06730810552835464,
        0.008520700968801975,
        0.03135356307029724,
        0.043757304549217224,
        -0.1145317554473877,
        0.07808850705623627,
        -0.07116768509149551,
        0.05704140290617943,
        -0.0016150069423019886,
        -0.11679992824792862,
        -0.023082656785845757,
        0.03450910374522209,
        0.047515932470560074,
        -0.0076444572769105434,
        0.13383567333221436,
        0.0889677181839943,
        -0.022641055285930634,
        0.06339234858751297,
        0.1699390411376953,
        0.16908366978168488,
        -0.10832950472831726,
        -0.08460783213376999,
        0.1291840821504593,
        -0.09297629445791245
      ],
      [
        -0.11770641803741455,
        -0.045973293483257294,
        0.033207591623067856,
        -0.01012042723596096,
        -0.05739026144146919,
        -0.05765019729733467,
        -0.06319323927164078,
        -0.07879948616027832,
        0.2078934758901596,
        0.021438220515847206,
        0.07591143250465393,
        -0.04606829211115837,
        -0.019668899476528168,
        -0.06294703483581543,
        -0.23268601298332214,
        -0.12156276404857635,
        -0.15861165523529053,
        -0.19928765296936035,
        -0.11011476069688797,
        0.1141786277294159,
        -0.007570892106741667,
        0.11359111964702606,
        0.039933569729328156,
        0.07120099663734436,
        -0.08275768905878067,
        0.042609572410583496,
        0.06169024854898453,
        -0.04772215336561203,
        0.04673013463616371,
        0.05354592204093933,
        -0.04691613093018532,
        -0.10301822423934937,
        -0.10648594796657562,
        0.014608885161578655,
        0.032032452523708344,
        -0.06790583580732346,
        0.00537486094981432,
        0.04777420684695244,
        0.054073430597782135,
        0.13515865802764893,
        0.11565718054771423,
        -0.0922633484005928,
        0.1485196053981781,
        -0.045202191919088364,
        0.09114906191825867,
        0.009164589457213879,
        -0.04221630468964577,
        -0.15776360034942627,
        -0.01868475042283535,
        -0.13777831196784973,
        0.0901091992855072,
        0.1319718211889267,
        -0.06698203086853027,
        0.014945358969271183,
        -0.06618283689022064,
        -0.05420345813035965,
        0.07178536802530289,
        -0.005846769083291292,
        0.15329472720623016,
        -0.04632115364074707,
        0.08389506489038467,
        0.00509782787412405,
        0.0725938081741333,
        -0.035093437880277634,
        2.0602979020623025e-06,
        -0.011650615371763706,
        -0.07254995405673981,
        0.05854406952857971,
        0.0556134469807148,
        0.051575008779764175,
        0.13605357706546783,
        0.12783029675483704,
        -0.0330762043595314,
        0.03524187207221985,
        -0.06107978895306587,
        0.0020603176672011614,
        -0.055987268686294556,
        0.1435277760028839,
        0.031131993979215622,
        -0.01206024456769228,
        0.10611572861671448,
        -0.19066902995109558,
        -0.17875520884990692,
        0.07277289032936096,
        0.0068377344869077206,
        0.023281501606106758,
        -0.11390317976474762,
        0.001505174906924367,
        0.16740232706069946,
        0.07887958735227585,
        0.015096545219421387,
        -0.03667178377509117,
        -0.0348077230155468,
        -0.19120588898658752,
        0.02115524373948574,
        0.07103788107633591,
        -0.1389951854944229,
        -0.06151977553963661,
        -0.10519707947969437,
        -0.08437728136777878
      ],
      [
        0.0026428624987602234,
        -0.18879000842571259,
        0.04861818999052048,
        0.06877923011779785,
        -0.022151321172714233,
        -0.21734768152236938,
        -0.08557306975126266,
        0.10853488743305206,
        -0.2379187047481537,
        -0.03590713441371918,
        -0.10596255213022232,
        0.06541068851947784,
        -0.06122424080967903,
        0.03563529625535011,
        0.05361604318022728,
        0.1619849056005478,
        -0.016787366941571236,
        0.0328594408929348,
        -0.13809071481227875,
        0.10344210267066956,
        -0.07091181725263596,
        -0.0459095723927021,
        0.0012927072821184993,
        -0.13490593433380127,
        0.01653176173567772,
        0.07994420826435089,
        0.023866036906838417,
        -0.13898128271102905,
        -0.01687227189540863,
        0.06804954260587692,
        -0.16504321992397308,
        -0.09742812812328339,
        0.07397980988025665,
        0.03502192720770836,
        0.039252713322639465,
        0.16441895067691803,
        0.04332605004310608,
        0.054720282554626465,
        0.23890329897403717,
        -0.019734269008040428,
        -0.06637410074472427,
        0.032707329839468,
        0.03872612863779068,
        -0.04437050595879555,
        -0.0901784896850586,
        0.20640744268894196,
        0.019325239583849907,
        -0.06140117347240448,
        0.07798539847135544,
        -0.011796156875789165,
        -0.017218027263879776,
        0.049010973423719406,
        -0.11130090057849884,
        0.019506292417645454,
        0.1678718626499176,
        0.044146809726953506,
        -0.026347117498517036,
        -0.0450909398496151,
        -0.03495829179883003,
        -0.023557888343930244,
        -0.04011715576052666,
        0.0771515816450119,
        -0.15409857034683228,
        0.08525758236646652,
        -0.03296326845884323,
        0.03024960868060589,
        -0.09825418889522552,
        0.1163821741938591,
        0.10922838002443314,
        0.08382976800203323,
        -0.13104838132858276,
        0.07049324363470078,
        0.03571478649973869,
        -0.14091183245182037,
        -0.006202266085892916,
        0.03215785324573517,
        0.047001104801893234,
        0.014167268760502338,
        0.02473924495279789,
        0.1368257701396942,
        0.1069776639342308,
        -0.2533833384513855,
        -0.028506018221378326,
        -0.009416861459612846,
        -0.15278390049934387,
        0.003874387126415968,
        0.11066678911447525,
        -0.09106971323490143,
        0.019099609926342964,
        -0.0737263634800911,
        -0.05832948535680771,
        0.13420158624649048,
        -0.047862399369478226,
        0.03662136197090149,
        -0.16770081222057343,
        0.16310778260231018,
        0.053163718432188034,
        -0.020983673632144928,
        0.046703338623046875,
        -0.12285956740379333
      ],
      [
        0.09945701062679291,
        -0.03360164910554886,
        -0.024292975664138794,
        -0.04179120063781738,
        -0.051222871989011765,
        0.0611942857503891,
        0.026110831648111343,
        0.05678371340036392,
        0.004875857848674059,
        0.039833664894104004,
        -0.037676937878131866,
        0.19098137319087982,
        -0.13992802798748016,
        0.1112351194024086,
        0.12268619984388351,
        -0.0751742273569107,
        0.1977880746126175,
        0.08724229037761688,
        0.07650898396968842,
        0.0005780774517916143,
        -0.022487696260213852,
        -0.012165576219558716,
        0.037907302379608154,
        0.12501797080039978,
        0.012829475104808807,
        -0.08568791300058365,
        0.06968482583761215,
        0.0797589048743248,
        0.05601523816585541,
        0.06844858825206757,
        -0.0220626387745142,
        -0.08373324573040009,
        -0.07932766526937485,
        -0.13135525584220886,
        0.02477896586060524,
        -0.002172947395592928,
        -0.036534540355205536,
        -0.26559972763061523,
        -0.11075342446565628,
        0.09563803672790527,
        -0.05655236169695854,
        0.02547847293317318,
        -0.12268100678920746,
        0.12852981686592102,
        -0.012077203020453453,
        0.027119634672999382,
        0.1951492428779602,
        0.1350526511669159,
        -0.029254786670207977,
        -0.054569169878959656,
        -0.024042600765824318,
        0.044781722128391266,
        -0.003999877721071243,
        -0.044346027076244354,
        0.12966910004615784,
        -0.008063901215791702,
        0.21111205220222473,
        0.005537012591958046,
        0.1603126972913742,
        0.03345539793372154,
        0.07785370200872421,
        -0.06815724819898605,
        -0.07634462416172028,
        0.054990217089653015,
        0.08464094251394272,
        -0.0012073038378730416,
        -0.11198720335960388,
        -0.12041329592466354,
        -0.1261950433254242,
        -0.15798857808113098,
        0.014683272689580917,
        0.09308800846338272,
        -0.0011834900360554457,
        -0.19769592583179474,
        -0.02155865915119648,
        -0.014361511915922165,
        0.18523353338241577,
        -0.1293732225894928,
        -0.03541402891278267,
        0.15768355131149292,
        0.03960014507174492,
        0.04872710257768631,
        0.009528410620987415,
        0.03271598368883133,
        0.06978560239076614,
        -0.07687591761350632,
        0.07858791202306747,
        -0.1188247948884964,
        0.01591797173023224,
        0.023709211498498917,
        -0.05608732998371124,
        0.0014967061579227448,
        -0.054918136447668076,
        -0.10123397409915924,
        -0.034154124557971954,
        -0.096157506108284,
        0.028475971892476082,
        -0.10563453286886215,
        0.058186911046504974,
        -0.10000105202198029
      ],
      [
        -0.056270383298397064,
        -0.059787992388010025,
        0.11177989095449448,
        0.038284678012132645,
        -0.01867835596203804,
        0.041847068816423416,
        -0.17736147344112396,
        -0.004787247162312269,
        0.17817993462085724,
        0.006257088854908943,
        0.008030728437006474,
        0.04297427460551262,
        0.07741076499223709,
        -0.176208958029747,
        -0.1432347446680069,
        0.01855110190808773,
        -0.061933692544698715,
        0.11159064620733261,
        -0.03247278928756714,
        -0.17582295835018158,
        -0.11217335611581802,
        -0.2304535210132599,
        -0.020806768909096718,
        -0.015609778463840485,
        -0.03999387100338936,
        0.09078796952962875,
        0.10055477917194366,
        -0.01610303670167923,
        -0.18992818892002106,
        0.053435068577528,
        0.05183964967727661,
        0.0261722132563591,
        0.08354034274816513,
        -0.09388379752635956,
        0.1791263371706009,
        -0.08284056931734085,
        0.06823515146970749,
        -0.15130409598350525,
        -0.08319389820098877,
        0.1321452558040619,
        -0.021454280242323875,
        0.07062693685293198,
        0.02090330794453621,
        -0.008251173421740532,
        0.1220773234963417,
        -0.019728301092982292,
        -0.16257478296756744,
        -0.0715901255607605,
        0.04661918058991432,
        0.03412110358476639,
        -0.13473936915397644,
        -0.06316149979829788,
        -0.05024388059973717,
        -0.038153812289237976,
        -0.12206562608480453,
        -0.05396205931901932,
        -0.051493044942617416,
        0.06492440402507782,
        0.0746125802397728,
        -0.006980221252888441,
        -0.04159946367144585,
        0.008877268061041832,
        -0.07452291250228882,
        -0.09140078723430634,
        -0.08862923830747604,
        -0.056751836091279984,
        -0.10387036949396133,
        0.008854319341480732,
        0.06453975290060043,
        -0.13797011971473694,
        0.007962483912706375,
        -0.01942451298236847,
        0.030126605182886124,
        -0.0018968688091263175,
        -0.13239996135234833,
        -0.11136320978403091,
        0.003238815814256668,
        0.08471231907606125,
        -0.19627708196640015,
        0.033642739057540894,
        0.10379009693861008,
        -0.01373225450515747,
        0.04668707400560379,
        -0.05997497960925102,
        -0.00960533693432808,
        -0.14901457726955414,
        -0.20804308354854584,
        0.08587315678596497,
        -0.09754838794469833,
        -0.033556073904037476,
        -0.12311774492263794,
        -0.12086959183216095,
        -0.015335304662585258,
        -0.07429081946611404,
        0.03627371788024902,
        0.03990067541599274,
        0.028304142877459526,
        0.017526619136333466,
        0.13556109368801117,
        -0.09112609922885895
      ],
      [
        -0.009943807497620583,
        0.09572027623653412,
        0.10747028142213821,
        -0.11011512577533722,
        -0.027554815635085106,
        0.11863429844379425,
        0.05541372671723366,
        0.01607251726090908,
        -0.017438828945159912,
        -0.039281148463487625,
        0.024562306702136993,
        -0.029461216181516647,
        -0.005711894948035479,
        0.006933680735528469,
        -0.04966217651963234,
        0.046942442655563354,
        0.2582136392593384,
        -0.16128239035606384,
        0.029564663767814636,
        -0.07114508002996445,
        0.05112992599606514,
        0.017069285735487938,
        0.06383447349071503,
        0.1077256128191948,
        0.015050985850393772,
        0.0956546887755394,
        -0.21148042380809784,
        0.14094078540802002,
        0.03321189805865288,
        0.09634796530008316,
        -0.10325735062360764,
        -0.07333612442016602,
        0.00921343918889761,
        0.003089418401941657,
        0.02409294620156288,
        0.09742867201566696,
        -0.1537885069847107,
        0.087399922311306,
        -0.000665321946144104,
        -0.014198292046785355,
        -0.12757043540477753,
        0.043273478746414185,
        -0.21296346187591553,
        0.05901603028178215,
        -0.1244811937212944,
        0.005350549705326557,
        -0.014469844289124012,
        0.10572405159473419,
        -0.018995609134435654,
        -0.06365958601236343,
        -0.04132204130291939,
        0.1136808916926384,
        0.04150751978158951,
        -0.036420270800590515,
        -0.020620442926883698,
        -0.13837821781635284,
        0.051367148756980896,
        -0.15714117884635925,
        0.06752478331327438,
        0.016222765669226646,
        0.2036021202802658,
        -0.09883783012628555,
        -0.013234606012701988,
        0.1603962630033493,
        0.10058659315109253,
        -0.060165781527757645,
        0.015467636287212372,
        -0.0009156386367976665,
        0.025352654978632927,
        -0.05587329342961311,
        -0.0036895941011607647,
        -0.13353727757930756,
        0.011920079588890076,
        0.036940086632966995,
        -0.024075327441096306,
        -0.14247368276119232,
        0.08753392845392227,
        0.029519252479076385,
        -0.06499626487493515,
        -0.02602359652519226,
        -0.13854902982711792,
        -0.0887121707201004,
        -0.05111012980341911,
        0.11104855686426163,
        -0.05520248040556908,
        0.04878432676196098,
        -0.04992026835680008,
        0.026233529672026634,
        -0.01810762844979763,
        0.08357834815979004,
        -0.045756883919239044,
        -0.13553528487682343,
        -0.12191031873226166,
        -0.053396131843328476,
        -0.10492870211601257,
        0.0344693697988987,
        -0.04108830541372299,
        0.2079237401485443,
        -0.15542232990264893,
        0.01863587647676468
      ],
      [
        -0.1010131761431694,
        -0.04373316094279289,
        0.009606755338609219,
        -0.1978561282157898,
        0.020891904830932617,
        0.16848520934581757,
        -0.03350219130516052,
        0.0218660831451416,
        0.09282149374485016,
        -0.019773393869400024,
        -0.05280592665076256,
        -0.2039816677570343,
        0.053550731390714645,
        -0.009983289055526257,
        -0.08347379416227341,
        0.011167882941663265,
        -0.05036004260182381,
        -0.05055728182196617,
        0.055226583033800125,
        -0.12086644768714905,
        0.09168200194835663,
        -0.12056399881839752,
        -0.05963841453194618,
        0.1731715351343155,
        0.09767945855855942,
        0.0051512462086975574,
        -0.0869947001338005,
        -0.04513359069824219,
        0.005158544518053532,
        0.003981378860771656,
        -0.006095841992646456,
        -0.003965970128774643,
        -0.01996176689863205,
        -0.12611442804336548,
        -0.047479335218667984,
        0.08292058110237122,
        -0.11924580484628677,
        -0.016011226922273636,
        -0.0735587328672409,
        0.013009279035031796,
        -0.032976191490888596,
        0.13286179304122925,
        0.04468885064125061,
        -0.1148810088634491,
        0.06333110481500626,
        -0.06769160181283951,
        -0.05461336299777031,
        0.02952960506081581,
        -0.04718461632728577,
        0.07967421412467957,
        -0.0660889521241188,
        -0.05282772332429886,
        -0.06108856946229935,
        -0.05578414723277092,
        0.09707321971654892,
        0.053765032440423965,
        0.1601027399301529,
        0.20015904307365417,
        -0.09053611010313034,
        0.005567354615777731,
        -0.11062517017126083,
        -0.07016964256763458,
        -0.05386099964380264,
        -0.09658236801624298,
        -0.09012637287378311,
        -0.010300870053470135,
        -0.11112959682941437,
        0.07394623756408691,
        -0.08427826315164566,
        0.25195008516311646,
        -0.040120553225278854,
        0.013312830589711666,
        -0.11427009850740433,
        0.1493419110774994,
        0.09440169483423233,
        0.026192795485258102,
        -0.1198062002658844,
        0.015739599242806435,
        -0.09987868368625641,
        0.12814249098300934,
        0.0684301033616066,
        0.008496609516441822,
        -0.21243272721767426,
        -0.0842432826757431,
        0.06503721326589584,
        0.10427308082580566,
        0.09691126644611359,
        -0.13748891651630402,
        0.022230494767427444,
        0.09499760717153549,
        -0.14517512917518616,
        0.0034704655408859253,
        0.024157341569662094,
        -0.028964828699827194,
        -0.1594056487083435,
        -0.030081098899245262,
        -0.02887364663183689,
        -0.016495799645781517,
        -0.050498418509960175,
        -0.038510046899318695
      ],
      [
        -0.004348134621977806,
        0.03690006211400032,
        -0.028640300035476685,
        -0.03650214523077011,
        0.008147124201059341,
        -0.17010876536369324,
        0.0452747605741024,
        -0.001084888819605112,
        0.006745095364749432,
        0.07958713173866272,
        -0.17451244592666626,
        -0.17369700968265533,
        0.019930636510252953,
        -0.000627822068054229,
        0.017131634056568146,
        -0.04076710343360901,
        0.05973679944872856,
        0.07577649503946304,
        0.04241173341870308,
        -0.027869654819369316,
        -0.18610158562660217,
        0.06705083698034286,
        0.107150599360466,
        0.05914703756570816,
        -0.0794360563158989,
        0.0581357441842556,
        0.06918194890022278,
        0.13848131895065308,
        -0.0799972414970398,
        -0.017743173986673355,
        0.0695582777261734,
        0.0033140077721327543,
        -0.09795496612787247,
        0.04035266861319542,
        0.053535643965005875,
        0.009527236223220825,
        0.019914545118808746,
        -0.023449746891856194,
        0.12609077990055084,
        -0.07936948537826538,
        -0.05230071023106575,
        0.0015020751161500812,
        0.07753799855709076,
        -0.13436715304851532,
        -0.11808022111654282,
        -0.1799021065235138,
        -0.00036403225385583937,
        -0.09675442427396774,
        -0.03686574846506119,
        0.05925657972693443,
        -0.05526747182011604,
        0.02197207883000374,
        -0.02485046721994877,
        0.0504240021109581,
        0.04065084084868431,
        -0.058889247477054596,
        -0.010828373022377491,
        0.09464644640684128,
        0.03449442982673645,
        -0.12682761251926422,
        0.05071340501308441,
        -0.09978706389665604,
        0.12775331735610962,
        0.08941858261823654,
        0.02949695847928524,
        0.016455553472042084,
        -0.01872933842241764,
        0.06100867688655853,
        -0.038198936730623245,
        0.02173195779323578,
        0.07795868813991547,
        -0.047596823424100876,
        -0.054358191788196564,
        -0.10644218325614929,
        -0.09709899872541428,
        -0.1612941175699234,
        0.066072478890419,
        0.15636608004570007,
        0.12478505074977875,
        -0.14212636649608612,
        0.06408368796110153,
        0.12649701535701752,
        -0.0386880561709404,
        0.01010600384324789,
        -0.16991254687309265,
        0.024061165750026703,
        -0.09444017708301544,
        0.022368304431438446,
        -0.14252306520938873,
        0.05153197795152664,
        0.0909467414021492,
        -0.06611122936010361,
        -0.10029500722885132,
        -0.19139163196086884,
        -0.021385494619607925,
        -0.05337236821651459,
        -0.1368250697851181,
        0.03678668290376663,
        -0.041159000247716904,
        -0.09035284072160721
      ],
      [
        -0.04829022288322449,
        0.09291230142116547,
        0.05253347381949425,
        -0.012597404420375824,
        0.05461510270833969,
        -0.10303495079278946,
        0.004637544509023428,
        0.011849281378090382,
        -0.03809995576739311,
        0.033636633306741714,
        -0.07036364823579788,
        0.047417957335710526,
        0.04528049752116203,
        -0.25734081864356995,
        0.10755494982004166,
        -0.2688506245613098,
        -0.05321548506617546,
        0.08500127494335175,
        -0.02684262953698635,
        -0.13396082818508148,
        -0.09728793799877167,
        0.09033062309026718,
        -0.1699777990579605,
        0.10058952122926712,
        -0.006854288280010223,
        -0.10564524680376053,
        -0.05673418194055557,
        -0.08890770375728607,
        0.07369264960289001,
        0.0623306930065155,
        -0.15005159378051758,
        -0.03956678509712219,
        -0.07587134838104248,
        0.11827093362808228,
        -0.11526060104370117,
        0.14196400344371796,
        -0.00260331854224205,
        -0.10248007625341415,
        -0.06369825452566147,
        -0.0702812448143959,
        -0.11261922121047974,
        0.005221773870289326,
        -0.10832206904888153,
        -0.19149106740951538,
        -0.037083882838487625,
        -0.1572493612766266,
        -0.0688428282737732,
        -0.07841204106807709,
        -0.07902619242668152,
        0.1769416630268097,
        0.007918938994407654,
        0.021612215787172318,
        -0.1548147201538086,
        -0.06778430938720703,
        0.01697826199233532,
        -0.08920569717884064,
        0.08316129446029663,
        -0.10375303030014038,
        -0.025281421840190887,
        -0.05605318397283554,
        0.0072882091626524925,
        -0.06193447858095169,
        -0.0209162887185812,
        -0.020845329388976097,
        -0.06220304220914841,
        0.04542119801044464,
        0.02151547186076641,
        -0.0063249715603888035,
        -0.04159686714410782,
        0.0709037333726883,
        -0.018664199858903885,
        -0.024400316178798676,
        0.00923535879701376,
        0.1515873372554779,
        -0.1216912567615509,
        0.06791386008262634,
        -0.16562823951244354,
        0.014734731987118721,
        0.13799583911895752,
        0.04526194930076599,
        0.015859752893447876,
        -0.0478685162961483,
        0.0038756795693188906,
        -0.022722216323018074,
        -0.06497254222631454,
        -0.023612067103385925,
        0.016611315310001373,
        -0.06413403898477554,
        -0.0748034343123436,
        -0.11678248643875122,
        0.03403874859213829,
        0.051411278545856476,
        0.020436208695173264,
        0.08929042518138885,
        0.008077511563897133,
        0.031436242163181305,
        0.026803389191627502,
        -0.011223653331398964,
        -0.0490681491792202,
        0.19515644013881683
      ],
      [
        -0.039655689150094986,
        -0.059552956372499466,
        0.036752235144376755,
        0.023449953645467758,
        -0.12392539530992508,
        0.10074912011623383,
        -0.006823564413934946,
        -0.09906431287527084,
        0.10962720960378647,
        0.05069383606314659,
        -0.11549285799264908,
        0.15575769543647766,
        0.05545533448457718,
        -0.0008994627860374749,
        0.1437567174434662,
        0.014052648097276688,
        -0.0013473517028614879,
        -0.0585348941385746,
        0.05145653709769249,
        0.03920139744877815,
        -0.0013888943940401077,
        -0.06979437917470932,
        0.013298223726451397,
        -0.004435775335878134,
        -0.11960854381322861,
        -0.1316162496805191,
        0.045225221663713455,
        -0.22795730829238892,
        0.015398324467241764,
        -0.03998453542590141,
        0.11712884902954102,
        -0.04796621948480606,
        0.05756280571222305,
        -0.02876235730946064,
        0.012570952996611595,
        0.06600123643875122,
        -0.041739173233509064,
        0.08729251474142075,
        -0.09081830084323883,
        0.027417749166488647,
        0.08257676661014557,
        0.05519384518265724,
        0.16906152665615082,
        -0.06492125242948532,
        -0.12296519428491592,
        -0.0843697190284729,
        0.05508142709732056,
        0.04490812122821808,
        0.007306565530598164,
        -0.10049440711736679,
        0.07119442522525787,
        -0.10796068608760834,
        0.1017705649137497,
        0.2412508726119995,
        0.03020474687218666,
        0.05260065943002701,
        -0.040774814784526825,
        -0.15890274941921234,
        -0.05317534878849983,
        -0.10230454802513123,
        -0.13485446572303772,
        0.14816999435424805,
        0.026228003203868866,
        0.03439522162079811,
        -0.024219587445259094,
        -0.01518627442419529,
        0.08382444828748703,
        -0.0014123556902632117,
        0.046951454132795334,
        -0.015406315214931965,
        -0.030007993802428246,
        -0.12147021293640137,
        -0.17446954548358917,
        -0.020690996199846268,
        0.0009404747397638857,
        -0.11345753073692322,
        -0.004158575087785721,
        0.00026147632161155343,
        -0.1911468803882599,
        -0.07709026336669922,
        0.03615381196141243,
        0.03513874113559723,
        -0.09968265891075134,
        0.015105586498975754,
        0.09104681760072708,
        0.07001569867134094,
        -0.009101900272071362,
        -0.03882438316941261,
        -0.059271976351737976,
        0.04694560915231705,
        0.016920411959290504,
        0.06077876314520836,
        0.011633409187197685,
        0.06884647160768509,
        0.00674580130726099,
        0.06578986346721649,
        0.07682069391012192,
        -0.0740709975361824,
        -0.16087345778942108,
        0.13550622761249542
      ],
      [
        0.023759612813591957,
        -0.15214203298091888,
        -0.06429316848516464,
        0.06732067465782166,
        -0.02467203326523304,
        -0.042922552675008774,
        0.12307468056678772,
        -0.09545918554067612,
        -0.06568332016468048,
        0.01375578809529543,
        0.031161198392510414,
        0.04375684633851051,
        0.0777805894613266,
        0.017517855390906334,
        0.04667467623949051,
        -0.02286646142601967,
        0.006661036051809788,
        0.008594552986323833,
        0.01946829818189144,
        0.06585755199193954,
        0.047643084079027176,
        0.0018916240660473704,
        -0.07049551606178284,
        0.006198990158736706,
        -0.006566749885678291,
        0.015963239595294,
        0.19098040461540222,
        -0.04511604830622673,
        0.034603096544742584,
        0.09850075840950012,
        0.010841874405741692,
        0.2019364833831787,
        -0.03242601081728935,
        0.032617248594760895,
        -0.06758177280426025,
        -0.02904786542057991,
        0.023947034031152725,
        0.07404599338769913,
        0.025401605293154716,
        0.11091238260269165,
        -0.007884795777499676,
        -0.03245384618639946,
        0.2385353446006775,
        0.036822013556957245,
        -0.06642523407936096,
        -0.05881984904408455,
        -0.0860772654414177,
        0.0831451267004013,
        -0.03149805963039398,
        0.011425895616412163,
        -0.0022807714994996786,
        0.061715904623270035,
        -0.07398152351379395,
        -0.10522269457578659,
        0.019098490476608276,
        0.05412118136882782,
        0.032089896500110626,
        -0.07119844853878021,
        0.058309104293584824,
        -0.07185965776443481,
        -0.053604550659656525,
        -0.08596543967723846,
        0.11827334016561508,
        0.05571915954351425,
        0.059551846235990524,
        0.11086294054985046,
        0.24772493541240692,
        -0.1506180614233017,
        -0.06791775673627853,
        -0.05476388335227966,
        -0.07605729252099991,
        -0.09106072783470154,
        -0.026434259489178658,
        -0.10327356308698654,
        0.026144089177250862,
        0.004560630302876234,
        0.04305935278534889,
        0.04054664075374603,
        0.05224292352795601,
        -0.029061291366815567,
        0.18803754448890686,
        0.02152099274098873,
        -0.16423112154006958,
        -0.08872389048337936,
        -0.1523006111383438,
        0.004424626938998699,
        -0.01092374324798584,
        -0.03842912241816521,
        0.1714424341917038,
        0.05287005007266998,
        0.06270091235637665,
        -0.07747069001197815,
        -0.08814078569412231,
        0.00034207027056254447,
        0.014654324389994144,
        -0.16717326641082764,
        -0.01590600423514843,
        -0.0018623112700879574,
        -0.02292291447520256,
        -0.07149987667798996
      ],
      [
        -0.04091789200901985,
        -0.01552522648125887,
        0.005432598292827606,
        0.07065658271312714,
        0.09534904360771179,
        -0.02329885959625244,
        -0.03123471699655056,
        0.042695507407188416,
        0.05338454991579056,
        -0.03898991644382477,
        0.056287143379449844,
        0.08009906858205795,
        0.11661364138126373,
        0.15687674283981323,
        -0.06489022076129913,
        0.001226047519594431,
        0.0021257989574223757,
        -0.014184299856424332,
        -0.042866695672273636,
        -0.11758596450090408,
        0.006689123809337616,
        -0.07016362994909286,
        0.001873970846645534,
        -0.0652075856924057,
        -0.09567106515169144,
        0.022423410788178444,
        0.014216098003089428,
        0.047842271625995636,
        0.19056808948516846,
        0.01855718158185482,
        0.04262525215744972,
        -0.08665842562913895,
        -0.11633777618408203,
        0.13635659217834473,
        -0.09455613046884537,
        -0.09840869158506393,
        -0.00424354849383235,
        0.0010581327369436622,
        -0.07772278785705566,
        -0.01715184561908245,
        0.11909174919128418,
        -0.06257210671901703,
        -0.12294451892375946,
        0.08896706998348236,
        0.06300374120473862,
        -0.05687696114182472,
        -0.13736213743686676,
        -0.059669129550457,
        -0.009332245215773582,
        0.09213723242282867,
        -0.09093263745307922,
        0.0022857007570564747,
        0.04576186463236809,
        -0.20181994140148163,
        0.0897403284907341,
        -0.1056070327758789,
        0.03541127219796181,
        0.02858167700469494,
        0.08356325328350067,
        0.04356267303228378,
        -0.21131101250648499,
        -0.07184219360351562,
        0.0023978466633707285,
        -0.027175864204764366,
        0.04671467840671539,
        0.07063689827919006,
        0.03708261996507645,
        -0.013265905901789665,
        -0.15204288065433502,
        -0.029990682378411293,
        0.034745119512081146,
        -0.08670436590909958,
        0.05568866804242134,
        0.07128098607063293,
        0.015154046006500721,
        -0.2702750861644745,
        -0.10487808287143707,
        0.16022273898124695,
        -0.04914761707186699,
        -0.18226414918899536,
        0.09601902216672897,
        0.00326993758790195,
        0.11053965240716934,
        0.03406505659222603,
        0.052080702036619186,
        0.026389528065919876,
        0.06569070369005203,
        0.19329950213432312,
        0.09180185943841934,
        -0.13254031538963318,
        0.03383794054389,
        0.11122303456068039,
        0.10609772056341171,
        -0.026677824556827545,
        0.10339519381523132,
        0.08109602332115173,
        0.22693775594234467,
        -0.06596115231513977,
        -0.043787501752376556,
        -0.023339347913861275
      ],
      [
        -0.03857073187828064,
        -0.0845131054520607,
        -0.23551145195960999,
        -0.045054465532302856,
        0.03258337080478668,
        -0.044957201927900314,
        0.159507155418396,
        0.0012751913163810968,
        0.11396726220846176,
        0.021766362711787224,
        0.07575464248657227,
        0.03704703226685524,
        0.12059810757637024,
        0.004934757947921753,
        0.03377556800842285,
        0.032316505908966064,
        -0.02488584816455841,
        0.03247427940368652,
        0.20452874898910522,
        -0.016250841319561005,
        0.04320641607046127,
        0.10553915798664093,
        0.09558173269033432,
        -0.013313679955899715,
        -0.20935814082622528,
        0.05652577057480812,
        -0.18550166487693787,
        0.1360367238521576,
        0.007975797168910503,
        0.09955133497714996,
        -0.06958330422639847,
        -0.12812456488609314,
        0.03004242479801178,
        -0.0014279112219810486,
        -0.0379316546022892,
        0.010946515016257763,
        0.2524162232875824,
        0.07092805206775665,
        0.10374011099338531,
        0.06602738052606583,
        0.12379561364650726,
        -0.01843073219060898,
        -0.181263267993927,
        -0.015629734843969345,
        0.05470990017056465,
        -0.0909091904759407,
        -0.01164144929498434,
        -0.05123602971434593,
        0.12796755135059357,
        0.07089768350124359,
        0.05156143382191658,
        0.06509685516357422,
        0.012379017658531666,
        0.03022584319114685,
        -0.10097312182188034,
        -0.1966312676668167,
        0.003929917234927416,
        0.0333116240799427,
        0.09501680731773376,
        0.131050243973732,
        0.13353973627090454,
        -0.10292230546474457,
        -0.030657730996608734,
        0.047253698110580444,
        0.220425546169281,
        0.13673707842826843,
        0.09354477375745773,
        -0.043690670281648636,
        -0.0797354206442833,
        0.06319890171289444,
        -0.0931185707449913,
        -0.02750454470515251,
        -0.010125276632606983,
        0.13208584487438202,
        -0.02264498919248581,
        -0.2151813805103302,
        0.04140843078494072,
        -0.07082057744264603,
        0.0028096933383494616,
        -0.008429232984781265,
        -0.022836975753307343,
        0.06312326341867447,
        -0.11541629582643509,
        -0.054075658321380615,
        0.0794588178396225,
        -0.049671899527311325,
        -0.14668242633342743,
        0.07431167364120483,
        0.10181477665901184,
        -0.018826771527528763,
        -0.1738905906677246,
        0.0704813301563263,
        -0.14642903208732605,
        0.027414029464125633,
        -0.06854327023029327,
        -0.11024685949087143,
        -0.03898363187909126,
        -0.01406306866556406,
        -0.05464698374271393,
        0.04931091517210007
      ],
      [
        -0.038435183465480804,
        0.08622720837593079,
        0.004569072276353836,
        -0.05248691141605377,
        -0.07638993859291077,
        -0.14139583706855774,
        0.03598819300532341,
        -0.034170765429735184,
        -0.1956961303949356,
        -0.05162382870912552,
        -0.08794272691011429,
        0.11988891661167145,
        -0.15050576627254486,
        -0.1271505206823349,
        0.10476482659578323,
        0.11968851834535599,
        -0.0645553395152092,
        -0.057777248322963715,
        0.043255966156721115,
        -0.20943404734134674,
        -0.165012389421463,
        -0.01837015338242054,
        0.14021649956703186,
        -0.030741943046450615,
        0.01648128218948841,
        0.0895203948020935,
        0.18367069959640503,
        -0.05186055228114128,
        -0.003189217997714877,
        0.1605878472328186,
        -0.13196450471878052,
        0.08497893810272217,
        -0.10176970064640045,
        0.02200973406434059,
        -0.02533329278230667,
        -0.08225026726722717,
        -0.08875244855880737,
        0.025601038709282875,
        0.09487640857696533,
        -0.0012768686283379793,
        0.01793607324361801,
        0.048433851450681686,
        -0.08571253716945648,
        0.05613723769783974,
        0.0861792266368866,
        0.23293961584568024,
        -0.03927014768123627,
        -0.04833237826824188,
        0.0690651386976242,
        0.06252884864807129,
        -0.047766804695129395,
        -0.032337307929992676,
        0.039042096585035324,
        -0.08170534670352936,
        -0.047626689076423645,
        0.009573142975568771,
        0.09596632421016693,
        -0.06054963171482086,
        -0.16170889139175415,
        -0.16241472959518433,
        -0.11193427443504333,
        -0.13096323609352112,
        -0.020771263167262077,
        -0.08952346444129944,
        -0.062422268092632294,
        -0.07506962865591049,
        -0.03947887942194939,
        0.11558808386325836,
        0.06205457076430321,
        0.005569408647716045,
        -0.04298127442598343,
        -0.048371221870183945,
        0.028912553563714027,
        0.04056941717863083,
        -0.08320220559835434,
        0.0032181942369788885,
        -0.18195773661136627,
        0.017614010721445084,
        0.06628283858299255,
        -0.01466772798448801,
        0.14839422702789307,
        -0.07898446917533875,
        0.02911119908094406,
        0.006914626341313124,
        -0.013286960311233997,
        -0.018828371539711952,
        0.016165615990757942,
        0.08692386001348495,
        0.10478555411100388,
        0.02071848325431347,
        0.08517652750015259,
        -0.07069269567728043,
        0.06756969541311264,
        -0.06822457909584045,
        0.09751670807600021,
        0.1877179741859436,
        -0.010769778862595558,
        -0.19404549896717072,
        -0.04638613760471344,
        0.1141410768032074
      ],
      [
        0.053533319383859634,
        0.017447974532842636,
        0.06995835155248642,
        0.046928469091653824,
        0.10742311179637909,
        0.09185336530208588,
        0.12229139357805252,
        0.037688516080379486,
        0.08813627064228058,
        -0.022479966282844543,
        -0.06711103767156601,
        0.12968552112579346,
        0.019090702757239342,
        0.0710035189986229,
        0.014277712441980839,
        -0.051740191876888275,
        0.0021905936300754547,
        0.1322014033794403,
        0.046199701726436615,
        -0.1540059745311737,
        -0.029860179871320724,
        0.15442723035812378,
        -0.009012793190777302,
        -0.1447322964668274,
        0.1665380448102951,
        0.040688082575798035,
        -0.01603309065103531,
        -0.03799307718873024,
        0.09003793448209763,
        -0.05147895589470863,
        0.09661981463432312,
        0.05613480508327484,
        0.01660296507179737,
        0.015347505919635296,
        -0.016704346984624863,
        0.0848744735121727,
        -0.0697440505027771,
        -0.13188359141349792,
        0.04109828919172287,
        0.06155206263065338,
        0.05838922783732414,
        0.04166164621710777,
        -0.02827686071395874,
        0.08956620842218399,
        0.009563335217535496,
        -0.040204644203186035,
        -0.043780285865068436,
        0.19063246250152588,
        -0.15440328419208527,
        0.04245253652334213,
        -0.14016348123550415,
        -0.00031408024369738996,
        -0.052814532071352005,
        -0.18251562118530273,
        0.036022085696458817,
        -0.03537585958838463,
        -0.16976375877857208,
        0.07135850936174393,
        0.12054972350597382,
        0.1261783391237259,
        0.03751102462410927,
        0.00015928201901260763,
        0.1018834114074707,
        0.1388353705406189,
        0.1102055087685585,
        -0.08272167295217514,
        0.013182131573557854,
        0.04705765098333359,
        -0.14717189967632294,
        0.04816298559308052,
        0.20055538415908813,
        0.062099263072013855,
        0.12997892498970032,
        -0.0005337649490684271,
        -0.010337264277040958,
        0.03363431990146637,
        -0.059375546872615814,
        -0.07997118681669235,
        0.11076491326093674,
        0.12339470535516739,
        -0.09937626123428345,
        0.07635366916656494,
        0.004879216197878122,
        0.03834962844848633,
        0.04620277136564255,
        0.0740465447306633,
        0.016310352832078934,
        0.12816360592842102,
        0.022912858054041862,
        0.058863285928964615,
        -0.056095149368047714,
        0.19491048157215118,
        0.041446179151535034,
        0.05634218826889992,
        -0.14253857731819153,
        -0.08101357519626617,
        0.10920141637325287,
        0.02050067111849785,
        -0.17328251898288727,
        0.0851423516869545
      ],
      [
        -0.054682809859514236,
        0.11627747118473053,
        -0.015458624809980392,
        0.03535286337137222,
        0.10400291532278061,
        -0.08322170376777649,
        -0.0735694095492363,
        -0.01848125271499157,
        0.07701029628515244,
        -0.12188249081373215,
        -0.15201537311077118,
        0.057149700820446014,
        -0.056409478187561035,
        -0.034600693732500076,
        -0.15382380783557892,
        -0.059896986931562424,
        0.0004624735447578132,
        0.08024070411920547,
        -0.07272616028785706,
        0.14340144395828247,
        -0.06088482216000557,
        -0.04379342868924141,
        0.13584719598293304,
        0.02457546629011631,
        -0.053415339440107346,
        -0.017428498715162277,
        0.11396301537752151,
        0.13233682513237,
        -0.07511469721794128,
        0.0002187291393056512,
        0.009183076210319996,
        -0.08745419234037399,
        -0.012682037428021431,
        0.01243120152503252,
        0.09999257326126099,
        0.10762328654527664,
        -0.02768976241350174,
        -0.019690977409482002,
        0.05720585584640503,
        -0.04961824044585228,
        0.05657436326146126,
        -0.012049667537212372,
        -0.08551667630672455,
        -0.08311700820922852,
        0.1310403048992157,
        -0.01078298594802618,
        0.13534879684448242,
        -0.04237636551260948,
        0.0224782545119524,
        0.20522214472293854,
        -0.09066182374954224,
        -0.16687287390232086,
        0.10973566025495529,
        -0.07897119969129562,
        -0.002440559910610318,
        -0.05182662978768349,
        0.03899208456277847,
        -0.08260608464479446,
        -0.01399261225014925,
        0.0451691597700119,
        -0.09439098089933395,
        -0.0674804151058197,
        -0.04064128175377846,
        -0.11423083394765854,
        -0.04673135280609131,
        0.0042832279577851295,
        -0.03767474368214607,
        -0.024111485108733177,
        -0.0013782760361209512,
        -0.0514644980430603,
        0.06792818754911423,
        0.12581510841846466,
        -0.04096588119864464,
        0.041197746992111206,
        -0.02763335220515728,
        0.03224191069602966,
        0.13899441063404083,
        0.04001668840646744,
        -0.15739592909812927,
        0.040994346141815186,
        0.10270887613296509,
        -0.016902076080441475,
        0.08708561211824417,
        -0.052730344235897064,
        -0.1329261213541031,
        0.0008124311571009457,
        -0.1513916254043579,
        -0.019865447655320168,
        0.10588961839675903,
        -0.16035518050193787,
        -0.11064442992210388,
        -0.09156437963247299,
        -0.005585838574916124,
        -0.035552579909563065,
        0.11936714500188828,
        0.08091901242733002,
        0.043691106140613556,
        0.009991434402763844,
        0.03167561814188957,
        -0.07628210633993149
      ],
      [
        0.06849180907011032,
        -0.10663804411888123,
        0.07372976094484329,
        0.08889688551425934,
        0.0186016783118248,
        -0.0252974946051836,
        0.028987988829612732,
        -0.25344306230545044,
        0.028772739693522453,
        -0.013045714236795902,
        0.0009416703251190484,
        0.07721981406211853,
        -0.009791499935090542,
        -0.1005847379565239,
        -0.018682116642594337,
        0.00595948938280344,
        0.01124489400535822,
        0.013425673358142376,
        0.08072078227996826,
        -0.09866774082183838,
        0.018002212047576904,
        0.11985617130994797,
        -0.14648720622062683,
        0.005567528773099184,
        -0.05448509380221367,
        -0.028984686359763145,
        -0.08196288347244263,
        -0.011703625321388245,
        0.15963102877140045,
        -0.10778036713600159,
        -0.10053220391273499,
        -0.11143320053815842,
        0.15877246856689453,
        -0.028296496719121933,
        0.009509846568107605,
        -0.03361370414495468,
        -0.0815371423959732,
        -0.0363677553832531,
        0.21657878160476685,
        0.10608723759651184,
        -0.07889936119318008,
        0.043560195714235306,
        -0.07335379719734192,
        -0.15444225072860718,
        0.07220891118049622,
        0.09460064768791199,
        0.08666588366031647,
        -0.04589930921792984,
        -0.018012117594480515,
        0.06866191327571869,
        0.03632397949695587,
        -0.035030994564294815,
        -0.11887956410646439,
        0.005279350094497204,
        0.09724845737218857,
        -0.10431694239377975,
        0.05563042685389519,
        0.028623923659324646,
        0.06751300394535065,
        0.08140791952610016,
        -0.0672798827290535,
        -0.15088430047035217,
        -0.045004501938819885,
        0.10487664490938187,
        -0.05652427673339844,
        -0.07065452635288239,
        -0.14981959760189056,
        0.15487559139728546,
        0.06992365419864655,
        0.05158790200948715,
        0.09779708087444305,
        0.033390775322914124,
        -0.0215537678450346,
        -0.003066471079364419,
        -0.04374836012721062,
        0.23242686688899994,
        0.047977861016988754,
        -0.039203181862831116,
        0.04011230543255806,
        -0.08566340804100037,
        0.1491207331418991,
        -0.05886782705783844,
        0.043115243315696716,
        0.08608782291412354,
        0.03535395860671997,
        0.007461154367774725,
        0.0036613433621823788,
        -0.001606202102266252,
        -0.06411281228065491,
        -0.04139964282512665,
        0.12854519486427307,
        -0.006196029018610716,
        -0.06931997835636139,
        -0.04864581301808357,
        0.09444943815469742,
        0.05904470011591911,
        0.04943012073636055,
        -0.02562851272523403,
        0.04708189144730568,
        -0.05436604470014572
      ],
      [
        -0.019468190148472786,
        0.08751567453145981,
        0.0760384202003479,
        -0.08454202860593796,
        -0.07547131180763245,
        0.01323629729449749,
        0.15336403250694275,
        -0.1713770478963852,
        0.024149708449840546,
        -0.12556339800357819,
        -0.06050475686788559,
        -0.027658116072416306,
        -0.039478156715631485,
        -0.047089457511901855,
        0.007165252696722746,
        -0.04721822217106819,
        -0.12790167331695557,
        0.06748788058757782,
        0.07281675934791565,
        0.07284626364707947,
        -0.13609130680561066,
        0.022743448615074158,
        0.055972035974264145,
        -0.08818693459033966,
        -0.0029274728149175644,
        -0.012177791446447372,
        0.15999539196491241,
        0.17123384773731232,
        -0.14981316030025482,
        0.22298453748226166,
        -0.07894337177276611,
        0.08363927900791168,
        0.08468692004680634,
        -0.0944584310054779,
        0.04129745438694954,
        -0.007583524566143751,
        0.051889389753341675,
        0.02629883587360382,
        0.1053532138466835,
        0.011771910823881626,
        -0.015398207120597363,
        0.09712795168161392,
        0.05120033770799637,
        0.06650230288505554,
        -0.05727703869342804,
        -0.08626941591501236,
        -0.05148853361606598,
        -0.05579507723450661,
        0.06619323790073395,
        0.08733373880386353,
        -0.007879809476435184,
        0.12847992777824402,
        0.11401277780532837,
        0.01497578527778387,
        -0.07169147580862045,
        0.14015623927116394,
        -0.0002807304263114929,
        0.011936972849071026,
        -0.02984263002872467,
        -0.08601417392492294,
        -0.13572701811790466,
        0.05302822217345238,
        -0.0676577016711235,
        0.25807487964630127,
        -0.08509241789579391,
        -0.10579678416252136,
        0.04325493797659874,
        0.135582834482193,
        0.004110073205083609,
        0.055759184062480927,
        -0.16533254086971283,
        -0.04306527599692345,
        -0.0947103202342987,
        -0.1641092300415039,
        0.005404570605605841,
        -0.19785377383232117,
        -0.11837874352931976,
        -0.046397242695093155,
        -0.07428500056266785,
        0.03366301581263542,
        0.02174321934580803,
        0.07893674820661545,
        0.06669123470783234,
        0.09967246651649475,
        0.0013622870901599526,
        0.026982132345438004,
        0.04688224568963051,
        0.01637340523302555,
        -0.03552542254328728,
        -0.02392885833978653,
        -0.06996846944093704,
        0.04199659451842308,
        -0.008293663151562214,
        -0.06155645474791527,
        -0.05631452798843384,
        -0.10407618433237076,
        0.08634968101978302,
        0.0020500842947512865,
        -0.08055391907691956,
        0.07201020419597626
      ],
      [
        -0.04995541274547577,
        -0.1255437433719635,
        0.0788007602095604,
        -0.050936486572027206,
        -0.0360715314745903,
        0.010025068186223507,
        0.09984596073627472,
        -1.4732447198184673e-05,
        -0.09427337348461151,
        0.043359871953725815,
        -0.049655213952064514,
        0.1574419140815735,
        0.0009551165858283639,
        -0.19716638326644897,
        0.030921686440706253,
        0.17154505848884583,
        0.140151709318161,
        0.16047121584415436,
        -0.09963449835777283,
        0.07807493954896927,
        -0.06882581114768982,
        0.016090387478470802,
        -0.105068139731884,
        -0.05228196084499359,
        -0.06299309432506561,
        0.0686398446559906,
        0.06723281741142273,
        0.023324865847826004,
        -0.12324382364749908,
        -0.024581708014011383,
        -0.06454779952764511,
        0.07338877767324448,
        0.09826718270778656,
        0.10515647381544113,
        -0.06547702848911285,
        -0.2414890080690384,
        -0.15340320765972137,
        0.12492814660072327,
        -0.03562488779425621,
        -0.06579653918743134,
        0.14803440868854523,
        0.10653255134820938,
        0.002156773814931512,
        -0.02379848062992096,
        -0.014208104461431503,
        0.02645021304488182,
        0.13034886121749878,
        0.03765294700860977,
        0.06073204427957535,
        0.09998036921024323,
        -0.09644939005374908,
        0.06585346907377243,
        -0.02368360385298729,
        -0.235069140791893,
        -0.18685247004032135,
        -0.08667835593223572,
        0.04679424688220024,
        0.007144777104258537,
        0.018565796315670013,
        0.1665554940700531,
        -0.11890988796949387,
        -0.009234310127794743,
        0.029236432164907455,
        -0.05508611723780632,
        0.010719813406467438,
        -0.1445300281047821,
        0.12476833164691925,
        -0.060894228518009186,
        0.1817927211523056,
        -0.0018173259450122714,
        0.08867088705301285,
        -0.01300097070634365,
        -0.0027121047023683786,
        -0.05228324607014656,
        0.006021243054419756,
        0.028052642941474915,
        -0.06887796521186829,
        -0.015324635431170464,
        -0.05477113276720047,
        0.2169397622346878,
        -0.013265000656247139,
        0.1374076008796692,
        -0.01637446880340576,
        0.024896007031202316,
        -0.11627059429883957,
        -0.04152467101812363,
        0.020072253420948982,
        0.14307396113872528,
        0.008330168202519417,
        0.1327173411846161,
        0.05540763586759567,
        0.14716456830501556,
        -0.005208481103181839,
        0.20776212215423584,
        -0.04680042341351509,
        -0.0686076357960701,
        -0.10674628615379333,
        0.20200365781784058,
        0.06611806899309158,
        -0.027659229934215546
      ],
      [
        0.10471684485673904,
        0.055357784032821655,
        0.1646597534418106,
        -0.1267138123512268,
        -0.02340906485915184,
        -0.04100215807557106,
        -0.16747549176216125,
        0.09187223017215729,
        -0.018496012315154076,
        0.0599195659160614,
        0.20490537583827972,
        -0.03877320885658264,
        -0.03898779675364494,
        0.010468103922903538,
        0.09375355392694473,
        -0.049993280321359634,
        -0.05453101545572281,
        0.09017742425203323,
        0.029823744669556618,
        -0.18473854660987854,
        -0.11196848005056381,
        0.14135919511318207,
        0.03668931871652603,
        -0.06403433531522751,
        -0.015275683254003525,
        -0.0032243644818663597,
        0.060045283287763596,
        -0.11838600039482117,
        -0.07627217471599579,
        0.029466114938259125,
        -0.008347372524440289,
        0.05193719267845154,
        -0.11200980842113495,
        0.04246341809630394,
        0.0975436344742775,
        0.046159375458955765,
        0.014015805907547474,
        -0.010030612349510193,
        -0.07349760830402374,
        -0.005515181925147772,
        0.11160721629858017,
        -0.016195524483919144,
        -0.07849514484405518,
        -0.041318200528621674,
        0.01909782737493515,
        -0.029391875490546227,
        0.035760849714279175,
        0.04825795441865921,
        0.07524300366640091,
        0.12078345566987991,
        0.0921853631734848,
        -0.08072254061698914,
        -0.08314348012208939,
        -0.011741258203983307,
        -0.03839012235403061,
        -0.09853891283273697,
        -0.025257084518671036,
        -0.04231308400630951,
        -0.058848120272159576,
        -0.024766266345977783,
        0.09658853709697723,
        0.013337750919163227,
        0.21449676156044006,
        0.023540424183011055,
        -0.02986631914973259,
        -0.0019578055944293737,
        0.022993721067905426,
        0.03687314689159393,
        0.1853007674217224,
        -0.07120195776224136,
        0.08064939081668854,
        0.014779699966311455,
        -0.1385962963104248,
        0.06479042768478394,
        0.10811133682727814,
        -0.07561685889959335,
        0.0001696714316494763,
        -0.15741261839866638,
        -0.11199703812599182,
        0.09571842104196548,
        -0.04375552386045456,
        -0.10031503438949585,
        0.021682946011424065,
        -0.04177476838231087,
        -0.041242778301239014,
        0.05599069595336914,
        -0.10315956920385361,
        -0.07493023574352264,
        0.0030876952223479748,
        0.09207101166248322,
        0.10789713263511658,
        -0.05557364225387573,
        0.08269184827804565,
        -0.07296472787857056,
        0.16002723574638367,
        -0.10119465738534927,
        0.11719337850809097,
        -0.06246412545442581,
        0.1724967211484909,
        0.0530095174908638
      ],
      [
        -0.09335588663816452,
        -0.049373626708984375,
        0.06335583329200745,
        0.08544740825891495,
        -0.006238262169063091,
        0.0024338373914361,
        0.0611700601875782,
        0.009964232333004475,
        -0.11150997877120972,
        -0.07743845134973526,
        0.021419033408164978,
        0.10959126055240631,
        0.14275723695755005,
        0.06876713782548904,
        0.023414382711052895,
        0.06605752557516098,
        -0.057688210159540176,
        -0.018270576372742653,
        -0.07874596118927002,
        -0.11340326815843582,
        0.025818733498454094,
        0.017513271421194077,
        0.06688046455383301,
        0.04395938292145729,
        0.018989088013768196,
        0.04871753975749016,
        -0.005514906719326973,
        0.034026987850666046,
        -0.06562318652868271,
        0.03327937424182892,
        0.06268971413373947,
        -0.05739164352416992,
        0.009803921915590763,
        -0.047303199768066406,
        -0.03924563154578209,
        -0.09300421178340912,
        0.11395884305238724,
        0.08940228819847107,
        0.04717142879962921,
        0.16780400276184082,
        -0.019834548234939575,
        0.25914567708969116,
        -0.020071784034371376,
        0.022190246731042862,
        -0.04170486703515053,
        0.03228004649281502,
        0.06807785481214523,
        -0.014654910191893578,
        0.15347416698932648,
        0.02258799411356449,
        0.027060342952609062,
        -0.08046981692314148,
        0.04503501579165459,
        -0.01821746677160263,
        -0.04975573718547821,
        -0.06883904337882996,
        0.2391861081123352,
        -0.028818905353546143,
        -0.12730857729911804,
        -0.05912464112043381,
        -0.01239039283245802,
        0.047129884362220764,
        0.05421837419271469,
        0.07183264940977097,
        -0.05760613828897476,
        0.029052024707198143,
        -0.07467643916606903,
        -0.05349144712090492,
        -0.0826663076877594,
        -0.11325402557849884,
        0.0957302376627922,
        0.05545438081026077,
        0.08615772426128387,
        0.004701015539467335,
        0.06275322288274765,
        -0.15537428855895996,
        0.0774114727973938,
        0.011950979940593243,
        0.0543711893260479,
        0.03748438134789467,
        -0.079038605093956,
        -0.13084493577480316,
        -0.06525077670812607,
        0.046486783772706985,
        0.05983566492795944,
        -0.12208446115255356,
        -0.0895087793469429,
        -0.05888865888118744,
        -0.03898715227842331,
        -0.11773793399333954,
        -0.12841862440109253,
        -0.06852182745933533,
        0.007608987390995026,
        -0.11139163374900818,
        -0.011681469157338142,
        0.0909755751490593,
        -0.11483808606863022,
        -0.02020150236785412,
        0.08754178136587143,
        -0.035919398069381714
      ],
      [
        -0.04968038946390152,
        0.10534235835075378,
        -0.0345081090927124,
        0.09505673497915268,
        0.03784170374274254,
        -0.023045826703310013,
        0.03906242176890373,
        0.02650153450667858,
        0.09768848866224289,
        -0.05435166135430336,
        -0.003629466285929084,
        -0.012644313275814056,
        0.05811706557869911,
        -0.09043743461370468,
        0.09097150713205338,
        0.04113776236772537,
        -0.11502757668495178,
        0.10420512408018112,
        0.1934007704257965,
        0.08596784621477127,
        0.12248488515615463,
        -0.0006773518398404121,
        -0.14268293976783752,
        -0.1577267199754715,
        0.01966414600610733,
        -0.06000383943319321,
        -0.08579546213150024,
        -0.004490284249186516,
        0.05238409712910652,
        -0.12702006101608276,
        -0.038395460695028305,
        0.1291092485189438,
        -0.09670788049697876,
        0.08181187510490417,
        -0.04506060853600502,
        0.05099831894040108,
        0.09793540835380554,
        0.06769950687885284,
        0.08065170794725418,
        -0.09713186323642731,
        0.100493885576725,
        -0.07395126670598984,
        0.02289579249918461,
        0.025090768933296204,
        0.04300832748413086,
        0.03668642416596413,
        -0.08249920606613159,
        -0.1190069317817688,
        0.07316841930150986,
        0.01542309857904911,
        0.10560111701488495,
        -0.005970906000584364,
        -0.12508569657802582,
        0.07319340854883194,
        -0.03145523741841316,
        0.030351361259818077,
        -0.05701667070388794,
        0.142463818192482,
        -0.07402914762496948,
        -0.035852257162332535,
        0.0025712107308208942,
        -0.09917044639587402,
        0.03611854836344719,
        0.14181844890117645,
        -0.032364316284656525,
        0.037167929112911224,
        -0.24338160455226898,
        -0.0015997813316062093,
        -0.029192117974162102,
        -0.06840786337852478,
        0.08846180140972137,
        -0.028228867799043655,
        -0.01565639302134514,
        -0.036678776144981384,
        -0.17388089001178741,
        -0.0998595654964447,
        0.08503484725952148,
        -0.18840716779232025,
        -0.06855355203151703,
        -0.027125127613544464,
        0.15001961588859558,
        0.07208853214979172,
        -0.04860951751470566,
        0.11804535984992981,
