{
  "saved_at": "2026-05-01T14:21:58",
  "schema_version": 2,
  "mode": "heading_drive",
  "mode_suffix": "heading",
  "model_mode": "heading",
  "input_dim": 248,
  "output_dim": 2,
  "memory_steps": 10,
  "whisker_dim": 11,
  "input_layout": [
    "t-9.whiskers",
    "t-9.target_bbox_lengths",
    "t-9.heading_to_target",
    "t-9.action.drive_speed",
    "t-9.action.rotation_rate",
    "t-8.whiskers",
    "t-8.target_bbox_lengths",
    "t-8.heading_to_target",
    "t-8.action.drive_speed",
    "t-8.action.rotation_rate",
    "t-7.whiskers",
    "t-7.target_bbox_lengths",
    "t-7.heading_to_target",
    "t-7.action.drive_speed",
    "t-7.action.rotation_rate",
    "t-6.whiskers",
    "t-6.target_bbox_lengths",
    "t-6.heading_to_target",
    "t-6.action.drive_speed",
    "t-6.action.rotation_rate",
    "t-5.whiskers",
    "t-5.target_bbox_lengths",
    "t-5.heading_to_target",
    "t-5.action.drive_speed",
    "t-5.action.rotation_rate",
    "t-4.whiskers",
    "t-4.target_bbox_lengths",
    "t-4.heading_to_target",
    "t-4.action.drive_speed",
    "t-4.action.rotation_rate",
    "t-3.whiskers",
    "t-3.target_bbox_lengths",
    "t-3.heading_to_target",
    "t-3.action.drive_speed",
    "t-3.action.rotation_rate",
    "t-2.whiskers",
    "t-2.target_bbox_lengths",
    "t-2.heading_to_target",
    "t-2.action.drive_speed",
    "t-2.action.rotation_rate",
    "t-1.whiskers",
    "t-1.target_bbox_lengths",
    "t-1.heading_to_target",
    "t-1.action.drive_speed",
    "t-1.action.rotation_rate",
    "t+0.whiskers",
    "t+0.target_bbox_lengths",
    "t+0.heading_to_target"
  ],
  "output_layout": [
    "drive_speed",
    "rotation_rate"
  ],
  "history_includes_drive": true,
  "hidden_layers": 2,
  "hidden_width": 150,
  "activation": "relu",
  "weights": [
    [
      [
        0.027358287898628073,
        -0.08779460135370151,
        0.054713674210469854,
        0.07687988556769426,
        -0.18280787092245848,
        -0.10054314999230556,
        0.01785575864340091,
        -0.03094798624915971,
        -0.013886014412140643,
        -0.0781729283899952,
        0.07358121775537427,
        0.06984777773835303,
        -0.008044777982785689,
        0.08313197386468174,
        -0.0031855134891621605,
        -0.07860910402457932,
        0.030758601788159604,
        -0.0861101995650559,
        0.08258729858849422,
        -0.004483479160823915,
        -0.026517024281887992,
        -0.0653220755911186,
        0.09340557620017179,
        -0.03494247785608268,
        -0.04606664775198055,
        -0.03540789013097839,
        0.04780277602146788,
        0.030176051877382662,
        0.03518653592210578,
        0.04127248292623556,
        0.17812334045542244,
        -0.044102887821885504,
        -0.05366627529210804,
        -0.12104359979060964,
        0.04763535618632077,
        0.10126448438979216,
        -0.026790506868997165,
        -0.10017853623007429,
        -0.09089409367925999,
        0.057046324921738965,
        0.05813401771094967,
        0.04877669320304324,
        -0.05976453598966825,
        0.019181840065609437,
        0.006139715883603401,
        0.007021251514907973,
        0.07742924159999742,
        0.017845041313932563,
        0.054388647437286046,
        0.002831254342278234,
        0.029043219956359837,
        0.046279396057762094,
        -0.1332485104276521,
        -0.037363587549099485,
        -0.05312657632764035,
        -0.04776665508462964,
        -0.03140584335455025,
        0.13390278132419872,
        -0.08297787356233803,
        0.0955671375907788,
        -0.16239828534742212,
        -0.005192178726176364,
        -0.004842954541777022,
        0.05150690690300115,
        0.06802952156553603,
        0.06791488232587034,
        -0.027296390661912216,
        -0.04739839477841685,
        0.06025236819960756,
        -0.02980996109477868,
        -0.12335844332313196,
        -0.11764609114208044,
        -0.08256925276326402,
        0.035239242191578944,
        0.0066591779415890295,
        0.058102151097149314,
        -0.03359257475026569,
        0.014077940830320655,
        0.027243111921819683,
        -0.03146776523159667,
        0.05373573471940333,
        -0.05944270428231655,
        -0.032603197882151054,
        -0.046050183483239145,
        -0.11274888337671636,
        0.04122075415751579,
        -0.0422021367866353,
        -0.008397667286232825,
        0.043172324435579355,
        0.030834281679696984,
        0.052643147407125446,
        -0.018985362558951963,
        -0.03632090011726536,
        -0.007158906673438972,
        -0.14205031705790372,
        -0.13036918509057507,
        -0.12738503287818062,
        -0.10569491613298525,
        0.028361083445931093,
        -0.10895698338268103,
        -0.0400525948594932,
        0.1234505664187909,
        -0.04706374454093008,
        0.0642315296752718,
        -0.08433298839414716,
        -0.023427160512618842,
        -0.09026296657506368,
        -0.03471113739433264,
        0.07325232786751851,
        -0.14666500832805526,
        0.03901239485331286,
        0.022913632577773846,
        -0.06658068477798733,
        -0.13087968947325468,
        -0.0015355723288909343,
        -0.047549848966189745,
        0.02089494060740366,
        -0.026631787122307893,
        0.1454437579551495,
        -0.01940270119834446,
        -0.09346629127173976,
        0.026597954978413874,
        0.01419051132802835,
        0.10171681492663204,
        0.07470324112610606,
        0.015211383032394872,
        0.130337195193092,
        -0.10696024000375538,
        -0.05788242932349333,
        -0.07357655322948128,
        -0.03822671255583638,
        -0.11502947732659027,
        0.04791134245086928,
        -0.030374214839574313,
        -0.12943848629180585,
        -0.10061520895469636,
        0.06539672363522604,
        0.07139910838159184,
        0.17110126044937876,
        0.2497443451243849,
        0.03017058585402778,
        -0.10397539214737028,
        -0.19955429026889632,
        0.024677380657936347,
        -0.07041803207358968,
        -0.03730018308179305,
        -0.04045787985261257,
        -0.017976963940185577,
        0.09647719925421651,
        0.012368565340052243
      ],
      [
        -0.01500117960713053,
        -0.0849928736598676,
        -0.16282293840254908,
        -0.051070889192408986,
        -0.0059165245469846,
        0.15881812910493256,
        0.010593662468932763,
        0.08952136332162433,
        -0.05028009600322628,
        -0.10825111746322459,
        -0.0919768698200654,
        -0.06512722317931666,
        0.18725614921226866,
        -0.09148891209268509,
        0.043116696204579155,
        -0.08305563143127773,
        0.07057226351705993,
        0.03456961726647117,
        -0.0060638052094264105,
        -0.003660582908964467,
        -0.0691936536399932,
        0.03586038916213444,
        -0.05693618832729319,
        -0.1309196399432088,
        -0.12207970595074574,
        0.012192440379517189,
        0.14180658101771781,
        0.008760538817079765,
        -0.012278680037930098,
        0.019987771822095227,
        0.10327637121906619,
        0.017652129203736718,
        -0.045992322407454475,
        0.06827969757071886,
        0.030922799750112036,
        0.1378849307213283,
        0.0001571679936245192,
        -0.1343426484467761,
        -0.13947308017090168,
        0.1546525967151435,
        0.1463066188895119,
        -0.016121301260615256,
        -0.03441123727272993,
        0.1295747095431759,
        -0.10447189179129109,
        -0.09278488215210946,
        0.0491437240784177,
        -0.03995669050171112,
        -0.006463909018484307,
        -0.01733057657078786,
        0.03160215130848664,
        0.1162638404198168,
        0.0059891987808006475,
        0.046758192926066,
        -0.19476076920615848,
        0.002827317602960531,
        -0.07033006519186184,
        -0.09587074132394648,
        -0.08402573409687049,
        -0.03601778738682632,
        0.06338275985315894,
        -0.11278423493620898,
        -0.0010385014412932188,
        -0.04669131170387555,
        -0.024908519294322567,
        0.0867719710809568,
        0.06157537824661245,
        0.11512532386712378,
        -0.030467271590489328,
        -0.07492066394162707,
        -0.028302137853595862,
        0.006043516965271377,
        0.01585675568748038,
        -0.10515773393520163,
        0.003704092231576922,
        0.016554895209036954,
        0.21804601680362312,
        0.16838627791407285,
        -0.10524950061644497,
        -0.015787020897998483,
        -0.12935547257436816,
        -0.053047055826123166,
        0.028342165995502242,
        0.09656414272332128,
        -0.06394595069163829,
        -0.06100709036287565,
        -0.19288080960703827,
        -0.023159414392253903,
        -0.09540763065981762,
        -0.056614771777359414,
        -0.09996711656774819,
        -0.018446589117348346,
        -0.15809643686681749,
        -0.13174455219269648,
        0.165173526277792,
        -0.11572477649328933,
        -0.10768875626702468,
        0.1490157385180441,
        0.2534268126942365,
        -0.13249360822796824,
        -0.05026755497104366,
        0.03410831100504767,
        0.14031676314286518,
        -0.0964281325654672,
        -0.022533022518493255,
        0.0649306835875258,
        0.03511260194748968,
        -0.04114731945690313,
        -0.013896851922354894,
        -0.1331430612903054,
        -0.021388633610708755,
        -0.0221074296645407,
        0.024508519545864985,
        -0.05094800748391052,
        0.034365058078485555,
        0.09094456516341133,
        0.013957965669856702,
        0.0035178427337729593,
        0.02377623256819111,
        0.0020348927665145493,
        -0.06506078016964946,
        0.03611095859906345,
        -0.012716198514255669,
        0.16783159153005325,
        0.14110296237959316,
        0.01656345759904374,
        -0.06959584397944753,
        -0.10014691217396532,
        0.10666142097792657,
        0.037202890177098734,
        0.04002914348375689,
        -0.12938811078572457,
        0.07423709355085521,
        0.030581150717503655,
        -0.08988267751130548,
        -0.051480507728369,
        0.042755716940191764,
        0.005540166061153054,
        -0.03418322114068372,
        -0.019750843229012643,
        -0.02945516586528237,
        -0.0011095216964385236,
        0.12410703668390305,
        -0.2315506408074233,
        -0.017420016845505655,
        0.015851283376037847,
        0.034984308294655625,
        -0.03285278092105441,
        -0.15617484928503905,
        0.027746600112554073
      ],
      [
        0.15412243364867978,
        -0.14803836575688467,
        0.06521292030573546,
        -0.03696989380177946,
        0.0008007033382723308,
        -0.11014329038149037,
        -0.04174956979031376,
        0.11722862418580303,
        0.03513032241478144,
        0.15359491702111955,
        0.10050628743629428,
        0.03943114779254004,
        0.18027443861686926,
        0.021750064377190206,
        0.06074626335474083,
        -0.029746432010030036,
        -0.003429740174331852,
        -0.06263050821225716,
        0.09965450242535302,
        -0.10581478905439429,
        0.056842652393815564,
        -0.02156405159687831,
        0.08895279843333849,
        0.04655248204779543,
        0.15603245616261113,
        0.06257919319264352,
        -0.14117338245742436,
        -0.007926769434565616,
        -0.10682324711702641,
        -0.06594707792860886,
        0.12166285020344077,
        0.054664099528976766,
        -0.0706716057309285,
        -0.08408858310602225,
        -0.004533906089974657,
        -0.10941292876499635,
        -0.07664023741728629,
        0.0035787537440500755,
        0.08701283484263281,
        0.05593636027786167,
        -0.2141895621353264,
        0.027332939147190684,
        0.006468805838252483,
        0.03550158264659778,
        0.14064505525704551,
        -0.19784912890950923,
        -0.06146090583362936,
        0.04875002806295067,
        -0.15011805502984638,
        0.1305400387685397,
        0.03454917678514117,
        0.06591722567529061,
        -0.051727054669168014,
        0.06250341102498648,
        0.08535060179075603,
        0.023997540661206566,
        0.022643108106941354,
        0.03199761179597278,
        -0.08247618342040018,
        -0.015146763063760161,
        -0.01890144176137233,
        0.024149288841202533,
        0.08144417746509276,
        -0.09766834927130363,
        -0.018621303416727252,
        0.12974782017946304,
        -0.06053735905995423,
        -0.07866716085640141,
        0.0016040502593472727,
        0.06334883428591853,
        -0.006195206419913233,
        0.10391979066544323,
        0.07694237100679219,
        0.07647598250607554,
        0.05982982714808217,
        0.20509713101757998,
        -0.02342950604052808,
        -0.17981019147709096,
        0.115391998582026,
        -0.0377217094357738,
        0.010878297882679144,
        0.11760112313687243,
        -0.14388715439858502,
        -0.12409186889412663,
        -0.14671457847323024,
        -0.07348058301192606,
        0.039512473407802735,
        0.04058880783882272,
        0.024810153710252136,
        -0.13571750554169396,
        -0.21167759912850428,
        -0.005211893298153853,
        -0.04138818983054994,
        0.041254060137982565,
        0.04922891048313297,
        0.012308408342377087,
        0.06608052321865328,
        0.004538387358826456,
        0.04010303427803338,
        -0.09048282587769632,
        -0.013222950337273057,
        0.023448580654230073,
        0.05870396971933377,
        -0.04390535566194029,
        0.04635701488212505,
        -0.028640920724495488,
        -0.0036329450238873195,
        0.06666816883930096,
        -0.18063740068524492,
        -0.12375136334610748,
        -0.13310417798369661,
        -0.207595161576219,
        -0.05780603674795836,
        0.06616227379068793,
        -0.03354670038837561,
        0.017762073702533455,
        0.0978146187347948,
        0.09111796696946177,
        0.0060819338457214,
        0.12358903886323988,
        0.008190744725298153,
        -0.06877383860219344,
        -0.057351048240130306,
        -0.15304980470805146,
        -0.07993134512902304,
        -0.054302451683122775,
        0.07109278138086364,
        0.15409920112684178,
        -0.1244163829236874,
        0.04487741457152516,
        -0.09651697935966677,
        0.05189188098519192,
        -0.020703205665330175,
        -0.17456427388731632,
        0.08395324722673546,
        -0.06343821919950032,
        -0.06061273012345546,
        -0.09466059032693434,
        -0.06675805389234353,
        0.027487795388908283,
        -0.024001920839493842,
        0.014659368777909026,
        0.024544613049979916,
        0.10672159107697222,
        -0.030235323374464843,
        -0.13262574712259054,
        0.09119274090048692,
        -0.02581790500385648,
        0.10102520724179964,
        0.032715254466189884
      ],
      [
        -0.015164543149336433,
        0.0056654727018316964,
        0.16261334739245503,
        0.1791975328897081,
        0.003223437302348003,
        0.01649788044958527,
        0.05787902302630066,
        -0.07500143486343627,
        0.014643616097777295,
        -0.004972608541771543,
        0.02317854587897502,
        -0.0748387280461179,
        -0.1078855785340088,
        -0.20402337857308495,
        -0.11067611943525474,
        -0.044333130945585,
        -0.047653143760090506,
        0.1739684940119168,
        0.11959677330289194,
        -0.0863983327639075,
        0.019082832590691174,
        -0.04135749314083265,
        -0.04190611658534912,
        -0.004303306078892243,
        0.048083065438158094,
        -0.03312453434992259,
        0.09553668792420093,
        -0.10676266916365151,
        -0.0011548201932790121,
        0.222268755369094,
        0.0059289138911651565,
        0.12585329063298673,
        -9.146703882613696e-05,
        0.053844741303148,
        -0.012714851255872506,
        -0.01535652581859525,
        -0.0864544870753039,
        0.014012486176822023,
        -0.09319828456553245,
        0.046570891567041355,
        0.088910350631847,
        0.032915492049570755,
        -0.025705895122525926,
        0.03883686928122787,
        -0.030425947226630553,
        0.07145299600226551,
        -0.17479218194324136,
        -0.03521636421963957,
        -0.185847004511218,
        -0.13703886110166547,
        0.12460713665114848,
        0.07005371440708257,
        -0.06764088490888762,
        -0.13748010213853248,
        -0.2770258352230339,
        -0.041642575762841666,
        0.1987661667795395,
        0.030995883958688932,
        -0.055364505316455155,
        0.03960098257912723,
        -0.12747100370044573,
        -0.034426189148833136,
        -0.0017813722895748511,
        -0.011585504097972574,
        0.05422863730677792,
        0.027577769047803916,
        0.04112284745753363,
        -0.06678651940465216,
        0.06387576939969437,
        0.13371408260773907,
        -0.09385255742247835,
        -0.09535638262153245,
        0.11995697458371525,
        -0.017211353031563303,
        0.14465802665554797,
        -0.041510528345640375,
        0.12851097314521118,
        0.011648431200578449,
        -0.005637705027386305,
        0.13544039460192916,
        -0.017340870617241367,
        -0.08451525914133678,
        -0.04028225503066683,
        0.02886650457210466,
        -0.1356383240974811,
        0.05519157998206153,
        -0.048542840416665935,
        0.09514783683179058,
        -0.21501092259618368,
        -0.08059411335786683,
        -0.14575201796749662,
        -0.08434930003078112,
        0.024556723659645643,
        -0.016095026097571446,
        -0.024999299747076834,
        -0.014305882934954679,
        0.029472561854295216,
        -0.10673629399031433,
        0.055935424061460334,
        0.03211298114218053,
        0.03701790992415297,
        0.05700390087343785,
        0.011608686863093742,
        0.18961717466402098,
        -0.008357622973874344,
        -0.032388421356432155,
        -0.08814410789705782,
        -0.09602850528112701,
        -0.11327475173202863,
        -0.08974888733539858,
        -0.006347285646993994,
        0.030675858251595713,
        0.011438451476645557,
        -0.06961031789630423,
        0.0728108468744296,
        0.06640121816551821,
        -0.014336841236297386,
        -0.08704486247739147,
        0.04614125560645198,
        0.0190342320340724,
        -0.13004053758141293,
        -0.0010782448005936128,
        0.01843788974658754,
        -0.10104506382619949,
        0.016874824997313777,
        -0.11038836821553477,
        0.1189217703543531,
        0.11154079350760962,
        -0.02297671569120984,
        0.039082409559239424,
        -0.2195237285462395,
        -0.10880808370421141,
        -0.0352167483656067,
        -0.10662489172042484,
        0.06548811567642528,
        0.169942590442696,
        -0.13229787917576055,
        -0.07144712016192721,
        0.013025227182318008,
        0.13407057729063046,
        -0.11686588883327573,
        0.0073170050626945315,
        0.1554506649077307,
        -0.16707664704099673,
        -0.11273350776435544,
        -0.038040996246968016,
        -0.06854830399633477,
        0.0656595115616193,
        0.023726749525092728,
        -0.16111343382884724
      ],
      [
        0.0438990866407453,
        -0.07551026416514596,
        0.10203062302321284,
        -0.06354034259780267,
        -0.05982014234919999,
        0.057932067115281954,
        0.03848155477533186,
        0.03830219453894885,
        -0.1606090980903698,
        0.04665027487425125,
        -0.09830843724703844,
        0.02112841854074763,
        -0.11286745990253454,
        0.022268785794275867,
        -0.07309064238420304,
        -0.11750975333256226,
        0.03502444830113584,
        0.021700318649434235,
        -0.028713291572972453,
        0.13031970773664792,
        -0.05020253473943796,
        -0.0017215666640361031,
        0.00791625439016352,
        -0.07661498086059784,
        0.03467630432775598,
        -0.05084401305244618,
        -0.03696621259371857,
        0.11483246474049136,
        -0.09434304416850549,
        -0.23228577304880163,
        0.1304927833132915,
        0.22615864221859683,
        -0.04498273161698262,
        -0.1923182677248979,
        -0.03533736959255213,
        -0.02532385462145281,
        -0.033655859129392826,
        -0.1246087916398425,
        0.035241977380801925,
        0.0383089857379075,
        -0.1425301719967903,
        0.06278972008609711,
        0.18433655307410837,
        0.013742808993439548,
        -0.032484004740967576,
        -0.025386919264141244,
        0.046165372959514374,
        -0.16146434994369502,
        0.010952815390718218,
        -0.03755719179436226,
        0.16855298105966554,
        -0.02600567160621714,
        0.14840020640611581,
        -0.10596210234674017,
        0.04211711817601193,
        0.03219566394047205,
        -0.09391609085893285,
        0.01558182660023393,
        0.10377982750627728,
        -0.02211625905124327,
        -0.14822954986241252,
        -0.006170368484451954,
        -0.07960153075146192,
        -0.03216387559029827,
        -0.02973189679550977,
        -0.15650989010032945,
        -0.14475762927195315,
        0.0376837818015709,
        -0.06369911662759856,
        -0.24279122320171076,
        0.06662487873784849,
        0.008811501746592267,
        -0.06410785169019174,
        -0.1302446591573913,
        0.08925704608128648,
        0.029521276595562376,
        0.21383638886142034,
        0.03757470637188816,
        0.006010614868736875,
        -0.001988184936619642,
        0.08127632625850835,
        0.05613430818132101,
        0.11240822410890963,
        -0.058570472440393,
        -0.030414114148310252,
        -0.04526318536618566,
        0.07106473878913082,
        0.1277745081721151,
        -0.041205092677097245,
        -0.05004849411338887,
        0.021252458809536644,
        -0.032182227315084966,
        0.08737196911747873,
        -0.2022155701893334,
        -0.08184131050889844,
        -0.06977524403899561,
        -0.20595858443009063,
        -0.10256957157895102,
        -0.08947680087307046,
        -0.04536989305593276,
        0.10019147528362583,
        -0.005273182343277387,
        -0.1075832102201286,
        -0.012249331095028772,
        0.09296601179491908,
        -0.09236426920781761,
        -0.0770035084949457,
        0.04549093744729225,
        -0.021248815416489295,
        0.05323894231898535,
        -0.0012255180810453942,
        0.06398690953674509,
        -0.08070483267473615,
        -0.0021513195041776723,
        -0.02700119712262658,
        -0.10919022832766842,
        -0.14040446451957903,
        0.0332799335075002,
        -0.02333168657574551,
        -0.08984076356012405,
        -0.008417798195473157,
        0.10263610813455401,
        -0.21112622541021786,
        -0.1545759306933316,
        -0.08306289884642083,
        0.14625222616893982,
        0.024305776534048546,
        0.06829210815773018,
        -0.10272009044059299,
        -0.09466419191572834,
        0.0372646789713089,
        -0.0020336666787704157,
        0.04038303807510835,
        -0.02700546353380625,
        0.02873396670175006,
        0.005020177770842581,
        0.05790057855518328,
        0.07553923736925516,
        -0.1534397218289896,
        -0.20595711454883864,
        0.08290116375823012,
        0.09168280189188387,
        -0.09965416215665511,
        -0.1744848253515743,
        0.004751504322579337,
        0.08359174039087715,
        0.12424167630501974,
        0.05529753617704958,
        -0.02735902005281968,
        -0.081929521361596
      ],
      [
        0.0005451201689433682,
        -0.03090538014943522,
        -0.10350352402033754,
        0.17647790662075372,
        0.15843595468336844,
        0.07318604647926268,
        -0.056541943196750453,
        0.06858867934690377,
        0.06078883937648264,
        0.04042240976326962,
        0.10572207395184287,
        0.05705801300634843,
        0.07734177855929014,
        0.039463547444853704,
        0.0328591400221151,
        -0.16540565778805863,
        -0.0056896848349839825,
        -0.04994751237698035,
        -0.10537814963232192,
        0.151031590931587,
        0.14142255094335493,
        0.11740785703657208,
        0.006779408816403577,
        0.10065765683416034,
        -0.00632862085703066,
        0.014349718057392182,
        -0.09819662787472797,
        0.027799244078371584,
        0.0038892371213285976,
        -0.1260370746612343,
        -0.018497414863890987,
        -0.013812143945304398,
        0.15193614161138197,
        0.06307561956061652,
        -0.006313480598979291,
        0.022721485013737275,
        -0.012514679375129352,
        -0.042568845802302566,
        -0.11387823314522222,
        0.0028780319446879195,
        -0.07507777243734953,
        -0.11228164999853077,
        0.04590907420224294,
        0.03430329310493923,
        -0.1627453570500426,
        -0.02356833354876142,
        0.08377671531087422,
        0.0895439334155431,
        0.0889054248991274,
        0.003508282554843808,
        -0.07401497269442255,
        -0.1075960844467074,
        0.029167833695242486,
        0.02569500353245232,
        0.10509667791611864,
        0.10076618659016771,
        -0.010924691886373804,
        -0.11668722754014371,
        -0.03347942204126003,
        0.037663188710464465,
        -0.012199446552543227,
        -0.051222859751771196,
        0.0024441183399247037,
        -0.050485467359365016,
        -0.05694111808302655,
        0.02444096866392987,
        -0.026173150817009598,
        0.014168351160469423,
        0.00784739346266994,
        -0.11449320265678599,
        -0.05146177795760222,
        0.11362798649595554,
        -0.10435782093188453,
        -0.21104824375430262,
        -0.1687427614861461,
        0.0006481108496938416,
        -0.0007823033719657616,
        -0.010721110324339872,
        0.08059360072639656,
        -0.2560428961392647,
        0.03535754488223147,
        0.14022128991553753,
        -0.10127770244918176,
        -0.04573030000794957,
        -0.0637763764810953,
        -0.08218299213957544,
        -0.029200892540523025,
        0.12126539708976945,
        0.16500219439545397,
        -0.042713543619969936,
        0.17299750711279333,
        -0.006885683415077262,
        0.1596560506937236,
        -0.008378466074852825,
        0.006966747678954568,
        0.03338032094101096,
        0.2862468042466404,
        0.0605516158363058,
        -0.0705250528720688,
        0.06017126845777023,
        -0.01820101807573546,
        -0.035722533513262926,
        0.06682371233066872,
        -0.0062230296541754045,
        0.02376429484780865,
        -0.003538738221229655,
        0.02559775669992395,
        0.030229316501303755,
        -0.17563680771282356,
        0.0492906110898436,
        -0.08818794724738971,
        -0.12888672032101714,
        -0.0009748118876583504,
        0.006025615503588414,
        -0.07018222011161271,
        0.07462886389516418,
        -0.1205308880644418,
        -0.06455633642069653,
        -0.05270834784379445,
        -0.0025772285434548813,
        0.025103413716634018,
        -0.0935945717603748,
        0.05891459351727691,
        -0.014373749218844123,
        -0.1701160326776712,
        -0.1618688600166895,
        -0.002177588837641762,
        -0.01971381665566754,
        -0.009685851686143686,
        0.0019752060690070568,
        0.01734190665252969,
        0.08828987246954202,
        -0.10850909751164414,
        -0.11534022077645784,
        -0.10082353086729147,
        0.016871528534560705,
        0.09334643286920707,
        -0.039541496188216396,
        -0.23250179452041225,
        -0.15162805637988078,
        -0.08162501988011239,
        -0.06488450188421939,
        -0.04467162120759251,
        -0.0036884507285007647,
        -0.027996018843876255,
        0.0942334788401535,
        -0.07554963552349118,
        -0.06829323981767854,
        0.047800164348843086,
        -0.1396190546056632
      ],
      [
        0.0345134734454291,
        -0.0027131131186553165,
        -0.02598870729104244,
        0.13496111448966688,
        -0.05400302230227897,
        0.180453451272796,
        -0.020159324630040977,
        -0.12229432674596054,
        0.01697314870829757,
        -0.09668501050672292,
        -0.07480386193331175,
        0.03565464288198471,
        0.05177002630778635,
        -0.07401509419925215,
        0.08988203412969849,
        0.10058896183793616,
        0.10922154764880146,
        0.04754272744191964,
        0.13581813625561817,
        -0.16890068485388204,
        -0.04264698603159517,
        -0.08246614544627531,
        -0.0057509324832383255,
        -0.07243626822251858,
        -0.02246089268603778,
        0.16509639067618478,
        -0.015241287648002397,
        0.028962472952692005,
        -0.02387532043217342,
        -0.002093374275775549,
        -0.013583161329456613,
        0.03131214743996655,
        0.09432940698761716,
        0.1532690592214351,
        0.020182101931966286,
        0.05332259831779554,
        -0.11997149693237799,
        -0.03266809459191834,
        0.06755289976226188,
        0.0682968997073517,
        0.010623218902063641,
        0.0796005274114555,
        0.044072151496760595,
        0.10684660887515411,
        0.020209544632565864,
        -0.04458241049030844,
        0.025241674251153694,
        -0.2668906072666958,
        0.03069909528636759,
        -0.32882374408583376,
        -0.15138954498386048,
        0.0301528267419753,
        0.0435194894500654,
        -0.1178875171657113,
        -0.07488513586909129,
        0.12703102524006726,
        -0.036954256117434255,
        0.19016757299359657,
        -0.00521214230757293,
        0.03595505330927036,
        0.15766959548393342,
        0.014635180279001585,
        -0.10408813733847458,
        -0.01626805953719865,
        -0.005472108710665706,
        -0.12485649323223696,
        -0.029420487660621015,
        -0.0756281936653211,
        0.06614050774883344,
        -0.00939353601537289,
        -0.029522796928884744,
        -0.025519952774256144,
        0.02003694875233155,
        0.05171115860565626,
        -0.09464276256219956,
        -0.09535420256159186,
        0.07915268610565117,
        -0.03718828795376485,
        -0.15628167748564567,
        0.03940843027141682,
        0.05318111615031142,
        -0.1374622880482916,
        0.020608066407731714,
        0.0542028561266571,
        0.02835551648996425,
        0.05474599929238505,
        -0.1259458211816879,
        0.022795749819158904,
        -0.027176056649479766,
        -0.057224201251776484,
        0.08330956328853222,
        0.12264809654609533,
        0.1641707276248422,
        0.11807323243449956,
        -0.015076298923846735,
        0.03206507490592767,
        0.06082558863412772,
        -0.005372118927333102,
        0.004650565505196357,
        0.046283551279378096,
        0.0005519722849147018,
        -0.051983142153165775,
        -0.05234247065501412,
        0.04933723665061172,
        -0.000983755298819259,
        0.025652682127146963,
        0.05688961290299141,
        -0.036924361585703315,
        0.0656828498104628,
        0.023349159966365305,
        -0.1108894887106752,
        0.13123721582679015,
        -0.0492685965251656,
        -0.15058775122878457,
        -0.10194231964924469,
        -0.09169256223330347,
        0.004685302327612734,
        -0.05323087654715058,
        -0.023586135811882285,
        0.05710112040981895,
        0.030517912726655466,
        0.02428883187313338,
        0.03068934673876333,
        0.03485699430742615,
        -0.18957622587814987,
        -0.02473113234671817,
        -0.19685992723120238,
        0.003205985224282427,
        -0.0009643722179234438,
        0.09535680706106155,
        0.10390681893808848,
        0.023671878295973402,
        -0.053909941340278496,
        0.03312611427486531,
        -0.03886817985743068,
        -0.009581664671012676,
        0.053311306159668614,
        -0.05114060488771494,
        0.06354873441254862,
        0.06242792939708305,
        -0.09275343562158649,
        0.07230319378996845,
        0.054515377982787674,
        -0.007109587817812157,
        -0.06907550251189935,
        -0.077158978234744,
        -0.07224530434223854,
        0.06401237977137694,
        -0.08514462748780237,
        0.037553949013691114
      ],
      [
        -0.11167892595436593,
        -0.031340107128699266,
        -0.00302791694350763,
        0.21183189961145144,
        -0.13374861800327317,
        0.11518522455848967,
        0.046816518383738334,
        0.033998683579305175,
        0.016211617992059512,
        0.03988335971949332,
        -0.02106470915552872,
        0.13057756100137682,
        -0.053300353000160186,
        0.08371175110085617,
        -0.06189879941616183,
        -0.009910926496680085,
        -0.08897513164145893,
        0.04086233636118154,
        0.12569846016737463,
        -0.006946790020181003,
        -0.024903571622722786,
        -0.10433680899095042,
        -0.03680941942789154,
        -0.1635707567275156,
        -0.08934866383229109,
        0.01699485983888423,
        0.11845088187882281,
        0.24620863460009104,
        -0.05583321992182269,
        0.1241435704983187,
        0.00816617813246593,
        -0.022535456824305133,
        0.029456094460133322,
        0.021220455460860564,
        0.0021865601657534255,
        -0.03628967546340504,
        -0.14170698138635598,
        -0.16282012811972363,
        0.04206764206646792,
        0.0016228746469305467,
        -0.06223927488472075,
        0.000763827828269502,
        0.07138702368786795,
        0.015271570750975606,
        -0.0628129253269396,
        0.09795701709320949,
        0.1365684769218457,
        0.040907405467768346,
        0.08381556414043036,
        0.10887073142224417,
        0.10418011349824301,
        0.045052182594563006,
        0.05264656440565605,
        0.034240065524485774,
        -0.109598481144578,
        0.06605562285827585,
        -0.10376377646846822,
        -0.088626992366654,
        0.11188423337175224,
        0.08863498004622643,
        0.14331631702290024,
        -0.028381428119536155,
        -0.11193697694335389,
        -0.023327530439688396,
        0.0021217563666830024,
        0.0053761987136265585,
        0.0915601711321647,
        -0.04185528243398651,
        0.015496986564608265,
        -0.10108898827150327,
        0.038669068930724866,
        -0.01566805960612362,
        -0.06733522554314755,
        -0.03418569045576517,
        -0.014708602154936813,
        -0.026108570220372412,
        0.14888887652676597,
        -0.009000055708129421,
        -0.05035277323570546,
        -0.18639066293906925,
        -0.08561806716584082,
        -0.023624690927350603,
        -0.06159138852528889,
        0.11256896056607887,
        -0.011559056805461316,
        0.11359033062814372,
        0.005642968743167921,
        -0.003409490669271721,
        -0.00797415640515423,
        -0.013153979791026633,
        0.1569629317930088,
        -0.21815317221687563,
        -0.17677177097596838,
        -0.04877818058198383,
        0.005714309738241167,
        0.06225947683148921,
        0.03611065629144155,
        -0.05047677581982956,
        0.0845975647616276,
        0.06510917208587197,
        0.02236779791480298,
        0.0735428437699954,
        0.009744923926001004,
        -0.05392514834073935,
        0.06141324128015228,
        0.004951900865703505,
        -0.0018708953720353758,
        0.12405371175477276,
        -0.22297098036452362,
        -0.13625950768776646,
        -0.1066020712280106,
        -0.034060211189005804,
        -0.018066404447969017,
        -0.1372886713190928,
        -0.09630853714608399,
        -0.07730586483423085,
        0.22068319813258183,
        0.13362464448831984,
        -0.04392011994944241,
        -0.031154212480644435,
        -0.10353153524630282,
        -0.17212686356483414,
        -0.01650785770015826,
        -0.1097278101629229,
        -0.008051199272145306,
        -0.12028941245297173,
        -0.06949861003473014,
        0.01305451262670745,
        0.03213989888303828,
        0.03796609973077874,
        -0.12122986798626574,
        0.08213973385109351,
        -0.08070300046699459,
        0.046228159013910926,
        -0.0008401489654996526,
        -0.13321978009354546,
        -0.023315890263842218,
        0.034969267593398336,
        0.04608148251397483,
        -0.012735550598367193,
        0.13075597197379338,
        0.07560702257914387,
        -0.03127421181246406,
        0.06266924021793632,
        0.17058735528343644,
        0.1760567144212384,
        -0.11501408022614777,
        -0.0667475563528141,
        0.1370760859899199,
        -0.0964238488015609
      ],
      [
        -0.11820685725715159,
        -0.05312037546195464,
        0.025058121355130417,
        -0.016672701946146992,
        -0.05544866970891022,
        -0.06536985928574761,
        -0.06240254227663453,
        -0.08447093403691776,
        0.21969015147784315,
        0.028021062330001113,
        0.07265110528335156,
        -0.04392045318799483,
        -0.0021779559148303136,
        -0.08207093946372751,
        -0.22697984197463128,
        -0.12572355031709004,
        -0.175138392504541,
        -0.20203654746696859,
        -0.10145676423599255,
        0.11898453248371428,
        -0.012617549573460217,
        0.1111998816713835,
        0.020422541448669503,
        0.04918769626439823,
        -0.08853968174165727,
        0.0427624937089724,
        0.06544047005106642,
        -0.05793647190138616,
        0.04710822273100007,
        0.03949663523872835,
        -0.0634506848078186,
        -0.10278238975481388,
        -0.10937060191048147,
        -0.009066533291246681,
        0.021861981597729983,
        -0.07079119551659606,
        -0.014214602821106332,
        0.02650522429601866,
        0.03862755574259072,
        0.13188881525307744,
        0.10606652562799884,
        -0.08991862509853064,
        0.15119050482609483,
        -0.048581471549197605,
        0.09007060191857233,
        -0.0065419332971510605,
        -0.04708994009208661,
        -0.16614032504309048,
        -0.018888133278261093,
        -0.13786391114967192,
        0.08912853625847474,
        0.1258134056100926,
        -0.07368689739669929,
        0.010772855022182103,
        -0.0760328504686947,
        -0.05072172264456861,
        0.062025960467292335,
        -0.012178352790559838,
        0.15100902551230297,
        -0.036039242801192355,
        0.077785818352283,
        0.010371713056839184,
        0.075507799239421,
        -0.044559261821073934,
        -0.01331926011433083,
        -0.012288702858732506,
        -0.07246791635259915,
        0.05002638711052891,
        0.042058697989201775,
        0.04078445101127219,
        0.136328539174881,
        0.11406844690014904,
        -0.0336710271318447,
        0.023346647539990183,
        -0.0557086200373047,
        5.03925785160583e-05,
        -0.05692683066817318,
        0.1453272648692837,
        0.0036205262927579765,
        -0.02016653272424821,
        0.107258594950254,
        -0.19492701813013835,
        -0.18087175243184572,
        0.05956019785213441,
        0.0008494178616877192,
        0.02040777357506996,
        -0.1190531920704062,
        -0.009053366591982201,
        0.17992045638430937,
        0.0603745998861638,
        0.013009831578677699,
        -0.04965212442756328,
        -0.03270985572919163,
        -0.1912076149822704,
        0.03934244733014718,
        0.07596661060494984,
        -0.15320811520437908,
        -0.07556558650625757,
        -0.11106158499855878,
        -0.11429986001964632,
        -0.0028516768091464174,
        -0.19200628535996142,
        0.04001893274252581,
        0.06210671451831712,
        -0.02380223886586758,
        -0.22774862180363892,
        -0.08235311073066957,
        0.10444970798710017,
        -0.25248856766334066,
        -0.046551767292712584,
        -0.10596719810422078,
        0.07080617500492024,
        -0.07904706520341791,
        0.034258912625401323,
        0.04266634986809549,
        0.1648979482670393,
        -0.018224724543857804,
        0.005189766354247671,
        -0.12826700814591274,
        0.10854323791709458,
        -0.07001885770711658,
        -0.04845278077395991,
        -0.008148659053749124,
        -0.16077743684455564,
        0.020179696286665223,
        0.0861867930046763,
        0.02527300484281774,
        -0.14339492093586678,
        -0.011523409853150158,
        0.06929286185835094,
        -0.17129956307789515,
        -0.11168419165228476,
        0.069997767634291,
        0.013853474925828098,
        0.041369178769226786,
        0.15771877642775547,
        0.035325829453751734,
        0.05856994696511291,
        0.23468402719857506,
        -0.01557549119135372,
        -0.07883018191054009,
        0.02332684063973888,
        0.03132303023800831,
        -0.06311880639375046,
        -0.09738140978304842,
        0.2074301525321749,
        0.030668810294871608,
        -0.07106124715934474,
        0.08274616817408813,
        -0.011539400140303554
      ],
      [
        -0.021385962025368542,
        0.01829466643392998,
        -0.12866227389713977,
        0.02417263787917898,
        0.1597285823190487,
        0.02109858178469344,
        0.0052513012981693025,
        -0.0457930304540086,
        -0.02584693249867955,
        -0.022724442432754583,
        -0.04117919503741389,
        0.08228719656239346,
        -0.14503176208116583,
        0.05952469359091592,
        -0.043386209335813566,
        0.030471049138395837,
        -0.08155414134869068,
        0.11931459202182457,
        0.10700721217765727,
        0.08617377309968685,
        -0.1439676617473871,
        0.07043931791782215,
        0.020045382783031196,
        -0.1650746720077011,
        -0.009700053455024532,
        0.02760681825963147,
        0.04993703375231428,
        0.008436064085828275,
        0.02294297392338361,
        0.1327985592316757,
        0.09606140004565479,
        -0.25183373876479054,
        -0.037492791274264255,
        0.016699024783029256,
        -0.164900831475129,
        0.009131079125096923,
        0.0956707873831149,
        -0.12201257388791309,
        0.013490154641114971,
        -0.05345446431211399,
        -0.06884683788128301,
        0.13267386493877187,
        -0.04872313057408647,
        0.04057857676508384,
        -0.17273109967059072,
        0.15486146213643276,
        0.0438484168170951,
        -0.01930484487912253,
        0.04683261090438788,
        -0.12981033985812704,
        0.10884041225748035,
        -0.039355015949552916,
        -0.017763877676771497,
        -0.06073160284264525,
        -0.06307632143079664,
        0.06527797691249551,
        0.04403024247720523,
        0.04635496470786523,
        -0.005926017760307879,
        0.048337518406119676,
        -0.022114982468429155,
        0.18798601074817298,
        -0.1609739794915925,
        0.10908686964138417,
        0.1305712567801912,
        -0.07872499634653028,
        0.17091707830535482,
        0.07978366203872711,
        0.07106682707617282,
        -0.009916772776253026,
        -0.020973974353179277,
        -0.03477539429551292,
        0.0350706828513317,
        0.1245035303439603,
        0.02714321465123943,
        -0.08433001219341583,
        0.05705509651897597,
        0.08256243529000104,
        0.030077081976630615,
        0.030882845996225577,
        -0.02274890062847999,
        -0.08342568997104491,
        -0.07796607166394956,
        -0.15868422380520936,
        0.02180111296157861,
        -0.009544258801156925,
        -0.03945428382762838,
        -0.271546041848811,
        -0.11201241543384693,
        0.087493285098232,
        -0.06623516748501573,
        0.02233572031454605,
        -0.12261022297991579,
        0.1291995663433533,
        -0.01832157402607773,
        0.025871875932950632,
        0.1937831954432895,
        0.120140118302355,
        -0.03458634408721889,
        -0.08075936569248926,
        -0.018251201239396383,
        0.02776448125232068,
        -0.02435713840633154,
        -0.03900603909363046,
        0.1305042050469792,
        -0.015186449168310613,
        0.18785361223031552,
        -0.001295364309290686,
        0.15777791372946076,
        0.02218830211107404,
        0.08647641229917169,
        -0.06457837766982029,
        -0.07599166672236513,
        0.03934928327164167,
        0.08084358683432774,
        0.0036151406001673006,
        -0.11552153173646884,
        -0.15050064099641886,
        -0.15319410868027944,
        -0.15709041513726574,
        0.0077475788838753295,
        0.09912391218150468,
        -0.007349544249592245,
        -0.2232639841794979,
        -0.017412351325316062,
        0.015833833434955747,
        0.18723670645159854,
        -0.13152276015370443,
        -0.03583057822946808,
        0.15482991587298386,
        0.03766841339994117,
        0.05449957060324061,
        0.00167227756330061,
        0.019262072499349782,
        0.07566751193210514,
        -0.08201827884611114,
        0.0538932526861833,
        -0.12309718933463647,
        0.02071309009139362,
        0.027864810062579966,
        -0.06247698846789596,
        -0.017027754531139437,
        -0.06408313671528514,
        -0.11360256375662049,
        -0.0374953977139993,
        -0.09914110614502716,
        0.01864763504513102,
        -0.09593499522423392,
        0.06489815489493006,
        -0.107836275344456
      ],
      [
        -0.04896305859419662,
        -0.0659037964197921,
        0.1064031048313846,
        0.022139779522829965,
        -0.00562663170460194,
        0.017671516099510107,
        -0.15292775516172022,
        -0.0008963335768437409,
        0.17489085229438384,
        0.009818786838915418,
        -0.0008710205707265629,
        0.049223381587541686,
        0.1052179015011772,
        -0.19693175754360584,
        -0.15906169645861495,
        0.01636500108186918,
        -0.035908961159033394,
        0.11782334674388312,
        -0.04154126224971552,
        -0.1737259885339168,
        -0.11627765202277414,
        -0.25056430872371266,
        -0.03701807721347397,
        -0.03730629402320107,
        -0.045400675060626804,
        0.09269129250454759,
        0.10763025861133083,
        -0.01675138483039821,
        -0.1939331544053267,
        0.04571869522434687,
        0.03616061979500187,
        0.02491981431959726,
        0.07813924226823302,
        -0.07633170267305983,
        0.17286430851507462,
        -0.08577943063284652,
        0.05127740354161092,
        -0.17548311234819805,
        -0.09988346541661813,
        0.16604059482631853,
        -0.03190237679648793,
        0.07542727658699588,
        0.021279222078896022,
        -0.010706848727392394,
        0.12062397378608136,
        -0.033420439205729555,
        -0.16468172105093792,
        -0.07306585176329136,
        0.04668067940204571,
        0.0331757245777303,
        -0.1405036635260106,
        -0.07505328596463871,
        -0.05786626361089956,
        -0.048350823966573045,
        -0.13439665408954793,
        -0.0509087521142237,
        -0.032594722098082125,
        0.07199384342744788,
        0.0675742485255287,
        -0.013835922939716184,
        -0.0255137799233051,
        0.012044353559944678,
        -0.11247362879503597,
        -0.10480396560026949,
        -0.0724568085752456,
        -0.05935111165384275,
        -0.11021477939468147,
        0.006447840355437498,
        0.04974132419946992,
        -0.1546373736930807,
        0.0020985101158944256,
        -0.03521853196491343,
        0.030668385305302193,
        -0.004960447483249858,
        -0.12897808419765516,
        -0.1173704323232628,
        -0.00659001563610161,
        0.09222791018592588,
        -0.2270934786936511,
        0.009381461867387595,
        0.10644690027970012,
        -0.013742129356964387,
        0.04940964273735716,
        -0.0746478961301891,
        -0.026058108212602276,
        -0.14915340222144616,
        -0.21036591371919974,
        0.07740461714825382,
        -0.08845515574439484,
        -0.05212450654406386,
        -0.12860745894191208,
        -0.13648305117350082,
        -0.015089414689532002,
        -0.06551796615228989,
        0.02747921942658029,
        0.04008868727170539,
        0.014310539400429239,
        0.005525246818760897,
        0.13450771500321343,
        -0.1228296103575745,
        0.024209621084847137,
        0.08290535518358601,
        0.09886610836019237,
        -0.13945037649422573,
        -0.02930290750298492,
        0.117058894619439,
        0.0454068856559472,
        0.0009934544745157125,
        -0.0214082690508995,
        -0.03776422056806945,
        0.025882835938105885,
        -0.023789773093104448,
        -0.008136806811530645,
        0.00524344582371831,
        -0.0686621521594472,
        0.04778662845664718,
        0.26170689512928197,
        -0.18736566829313808,
        0.004447125783520106,
        -0.06710742845953493,
        0.049403148262974685,
        0.006064711093579952,
        0.06443689651346508,
        0.0856691476823823,
        0.016728727733860926,
        0.08516765895202096,
        -0.21159544930130303,
        0.14203627452153678,
        0.0329348817102123,
        0.09731448570116079,
        -0.11225898118504622,
        -0.06822358293343031,
        0.004526428945650263,
        -0.011833936278142342,
        0.011105208940063229,
        0.08805520251444607,
        -0.18737958078110323,
        0.08705715261779216,
        -0.008103215802357235,
        0.0010722106278181756,
        -0.13917418954685049,
        0.0304094923124444,
        -0.22480998010776496,
        0.04577694463990377,
        -0.13220007275373732,
        0.004800662270691183,
        -0.0007793899992712259,
        0.09639581148764045,
        -0.013484978009757132,
        -0.06395038798731285
      ],
      [
        -0.04528165320526681,
        0.1053912871920527,
        0.035053690470863035,
        -0.04241271323112127,
        -0.020168598558682086,
        -0.1437405715677937,
        0.024480180967150555,
        -0.15337928575958493,
        0.07481166131495301,
        0.011496272452092098,
        0.20849251462571494,
        -0.0987950891985236,
        -0.009165850105730648,
        0.14297605220567636,
        0.10876774109309865,
        -0.06328431443273956,
        0.015023778853634885,
        0.00017954750639545623,
        0.028365561028927812,
        -0.06274335536262707,
        -0.01657989008970326,
        -0.14779544184612736,
        -0.004667892601873929,
        0.018903331194704977,
        -0.028116973313684956,
        -0.14850478347155238,
        0.08877278189526368,
        0.026610966507946827,
        -0.06841641088648763,
        -0.023922311285349697,
        -0.14930107658529052,
        -0.09736282729453001,
        -0.055661194574445606,
        0.10423456541431954,
        -0.06530370375337789,
        0.0578726088778153,
        -0.06522618159908221,
        -0.002963918897873237,
        -0.02989480177439171,
        0.07088905551751462,
        -0.05690938634685052,
        -0.1412172056436621,
        -0.12410268658183714,
        -0.04943087117897406,
        -0.11507728839192803,
        0.02405484346667123,
        -0.05132845213727326,
        0.21151934580192627,
        -0.16009317772211756,
        0.01579547846783616,
        -0.09893741881181439,
        -0.0548780265546994,
        0.012450893550222164,
        -0.221978071499492,
        0.009978624266529356,
        0.17380910403353314,
        -0.04541401524804681,
        0.02445072836102474,
        0.08673734603213686,
        -0.018343672756131368,
        -0.04987337275081117,
        -0.2009380799651059,
        0.059095813877802675,
        -0.013535816298577023,
        -0.09481200293986819,
        0.008382801985780166,
        -0.058883122170127776,
        -0.05494442463955905,
        0.037318519767214516,
        -0.1331381711038691,
        0.09132742503650343,
        -0.14182308487748949,
        -0.059512343300608124,
        0.1671805973766887,
        0.10397727509890306,
        0.0048244834017859665,
        -0.08565799011973176,
        -0.04768939996883277,
        -0.023024802750624178,
        0.00010630978539400489,
        -0.005626343659776993,
        -0.002768841502167359,
        -0.01925145316280501,
        -0.1415682461384492,
        -0.05053193957319217,
        0.08001459713719752,
        -0.12292860963717453,
        -0.024033269221705327,
        -0.07361607598226137,
        0.0004655625335735647,
        -0.037079774104685444,
        0.12232291846662388,
        0.048216537699925004,
        -0.11780340189454776,
        0.06228786736185399,
        -0.06982131743905083,
        -0.05646002581713342,
        0.011594171794757413,
        -0.05183200528467915,
        0.051854255102111974,
        -0.06226809778382826,
        -0.0528460840759022,
        -0.07432548077645618,
        -0.05520918187564901,
        0.09745775487589242,
        0.05139938026682981,
        0.1594843349730018,
        0.1992513390813882,
        -0.09510347831120113,
        -0.0024361472570810206,
        -0.10562590655736603,
        -0.06835174426908813,
        -0.05901523055082075,
        -0.09615422604556305,
        -0.10264889236796873,
        -0.012957119690937944,
        -0.10926453950791526,
        0.0464001363332693,
        -0.0777130664969041,
        0.25473635055084026,
        -0.04259587510574762,
        0.013159928728059765,
        -0.12253949843418249,
        0.13236818765383454,
        0.09998293019471288,
        0.0318219171481307,
        -0.12201772294597119,
        0.01839161971531867,
        -0.1014541746855711,
        0.1348235562194818,
        0.06940952722213832,
        0.00184717870219783,
        -0.22802693603407004,
        -0.09908416674926765,
        0.06454723555625015,
        0.09919100526467453,
        0.09761581547086766,
        -0.1429484763905418,
        0.01798985647483815,
        0.08417904177179855,
        -0.15614622507680415,
        -0.016147531439821616,
        0.01623447840972742,
        -0.03824803020627503,
        -0.162525449533402,
        -0.02924855371467091,
        -0.027138848107507052,
        -0.013537937864870732,
        -0.04905686449579266,
        -0.04151947655543428
      ],
      [
        -0.003353117513167975,
        0.030769147337776248,
        -0.04043450411292565,
        -0.044557357636630955,
        0.009421396615381427,
        -0.17322762554637405,
        0.030685839177800732,
        0.0046064903771461906,
        0.008644907164273012,
        0.08499353094872673,
        -0.1812298198731585,
        -0.17725551417334856,
        0.025763230383523524,
        -0.019146554657149498,
        0.017803836508351222,
        -0.041552938056727155,
        0.049088675117859984,
        0.083753440538661,
        0.046973230172102254,
        -0.023423087024466625,
        -0.19782538016868662,
        0.06479340853737822,
        0.09291301017196414,
        0.036373335839735156,
        -0.08668832908780989,
        0.057041775406897095,
        0.07727784905071391,
        0.13437805896199942,
        -0.08294439180319858,
        -0.020240555462396722,
        0.052572476704639416,
        -0.00012092229619580339,
        -0.10762227494181077,
        0.03250990860154614,
        0.04409949979012873,
        0.008615594869949693,
        0.0028404490755996326,
        -0.04846038503790419,
        0.11556058814119544,
        -0.09145245000536328,
        -0.06161857066115845,
        0.0009865282375152303,
        0.07893240180643454,
        -0.13613494243936694,
        -0.12054280179034774,
        -0.1957798797646249,
        -0.006030212038989794,
        -0.10209217430317631,
        -0.03857541970124673,
        0.05683210946940313,
        -0.05525117504240643,
        0.010200460599316591,
        -0.02713028772558111,
        0.047267828870581716,
        0.03138727256574008,
        -0.05891355522794178,
        -0.022036072817697174,
        0.0958006070185461,
        0.03002294670451375,
        -0.13058228219050283,
        0.05928182597166246,
        -0.09472712893927882,
        0.1285684019178735,
        0.09008008850470058,
        0.020655097353499487,
        0.011134007960212593,
        -0.023063514476291003,
        0.053452688642390486,
        -0.050419837275463945,
        0.008206692965456211,
        0.0753939688861626,
        -0.06675101561652978,
        -0.05533574158636734,
        -0.11319375428045879,
        -0.09242615295618652,
        -0.1681353599416904,
        0.06527577731755539,
        0.16228597761648883,
        0.09839723595494083,
        -0.14852513961835073,
        0.067125641403767,
        0.1277089202461074,
        -0.04102274727970649,
        -0.0029656184293184364,
        -0.1834146310375569,
        0.02183254741402179,
        -0.09555904545886157,
        0.009741277346602779,
        -0.14020016118240872,
        0.03921225625846593,
        0.08935597325328029,
        -0.08068508851438841,
        -0.09969462097840343,
        -0.19361658486693775,
        -0.02090862901970827,
        -0.05322881856709908,
        -0.1436076723386153,
        0.024099373902986162,
        -0.04807914649800679,
        -0.12492180400856624,
        -0.043278795226497364,
        0.09885985930671,
        0.03876378811190312,
        -0.016090007780866108,
        0.05512992087931283,
        -0.10932116512343494,
        0.01043161576520907,
        0.008696819755037017,
        -0.044741405475346996,
        0.034689690392946906,
        -0.070084993166608,
        0.047266628763141326,
        0.04597233327895754,
        -0.2631876065327153,
        0.09870439243451504,
        -0.2736854836834081,
        -0.05532283564915413,
        0.0628572803627197,
        -0.022091901581652664,
        -0.12927347321756102,
        -0.10028084243667233,
        0.0991593669811622,
        -0.1787706268798132,
        0.08054754469256832,
        -0.00549951332308079,
        -0.10420856829003958,
        -0.053436563012623874,
        -0.09187626689133918,
        0.0770426255871944,
        0.06923686419993862,
        -0.15763006922228376,
        -0.04510399766627981,
        -0.08674991931410306,
        0.10539564729455703,
        -0.11937972953062059,
        0.13434823975575955,
        -0.003907449549714409,
        -0.10328201454395708,
        -0.0699035510846273,
        -0.07860674164601231,
        -0.12168740654917333,
        -0.006916416082928578,
        -0.1186194901982579,
        -0.20776854905860972,
        -0.031044710169474948,
        -0.16190126583423822,
        -0.06448946196013258,
        -0.0821617568681946,
        -0.07748217589024621,
        0.17795598033956442
      ],
      [
        0.005278520183123946,
        0.015405388615770038,
        -0.17262562140161386,
        -0.06650208241198981,
        0.0199920236042915,
        -0.09438122987231168,
        0.07153064039682103,
        -0.10309662520267115,
        -0.021345435098891506,
        -0.05265140115485074,
        0.009010169973928287,
        -0.05751770640037227,
        -0.025100462025186017,
        -0.0397153911923544,
        -0.06218700319305379,
        0.042520288502176595,
        0.015146137451817214,
        -0.007957767200489605,
        -0.03658828609343069,
        0.07153176558958434,
        -0.029731380669969665,
        -0.031826546326664054,
        -0.007400351297344869,
        0.13084826351538653,
        -0.1280616479489122,
        0.06566901700847473,
        -0.170011789101275,
        0.016144124732871395,
        0.13725318237426562,
        0.04622899847233343,
        0.000787122391647086,
        -0.05560513217196912,
        -0.004582522497385003,
        -0.027063148067694543,
        -0.0784519443775402,
        -0.026089827772633543,
        0.0009343650763814319,
        -0.09412692800343288,
        -0.08960066302634191,
        -0.1275904515647709,
        0.02621014996379501,
        0.04897147458390999,
        0.020803722027378284,
        0.08500800671837405,
        0.005007230149823358,
        0.02241836480818487,
        0.01810169319102495,
        -0.009926793510643508,
        -0.051711717111000755,
        0.19626508732167652,
        -0.03835448941453348,
        -0.07036686188411789,
        0.03872628265099607,
        0.009583685061959385,
        -0.13743770900270352,
        0.10498605064079242,
        -0.01411956630855474,
        -0.09153964065897986,
        0.10145262585992626,
        0.05242150618644339,
        -0.11513496723823265,
        0.16247867161498122,
        0.06199289741680582,
        -0.0024532052541231426,
        0.1384530227201496,
        0.011319445081728776,
        -0.004905030768192764,
        -0.06440087561869988,
        0.03512682332536254,
        0.029852188559126684,
        -0.0009268435687678757,
        -0.0872451425989822,
        0.011668045349896256,
        -0.01357659108216476,
        -0.11637792111161258,
        -0.13611326481695435,
        0.051334257643041725,
        -0.23381581205160934,
        -0.011156199817454766,
        -0.04364099026262035,
        0.12012776742962125,
        -0.044314753372846793,
        0.059223430741301056,
        -0.04771935289102437,
        0.009635860240049745,
        0.06404880624869552,
        -0.04148188343904973,
        0.080623019969104,
        -0.08923670367053749,
        0.016918823509892586,
        0.08090687962046371,
        0.048920606020031426,
        0.1746567001617264,
        -0.06855887458234801,
        -0.12244684697082782,
        -0.09034768476220909,
        0.05437626368956194,
        0.02813011112759409,
        0.0015118631153205602,
        -0.12916567510429475,
        0.07378682918696088,
        -0.10590433524427133,
        0.08869516427107471,
        0.2521922227480017,
        0.03250547805941964,
        0.04729646256277154,
        -0.037225742689961185,
        -0.1674069059618723,
        -0.05667517116277498,
        -0.10318091237061108,
        -0.12994484699057218,
        0.15615181827690403,
        0.022128246358823826,
        0.03287803547977314,
        -0.03593864185088246,
        -0.015524281486974446,
        0.08661920830186363,
        -0.03212693885981768,
        0.05413214109877396,
        -0.01540718137344129,
        -0.032786591422554266,
        -0.11914923078331983,
        -0.18382153494212045,
        -0.04432951363191441,
        0.004522353961798148,
        -0.11356480466883559,
        -0.004167217947417902,
        0.004300298270245776,
        -0.19436192837472555,
        -0.07805397068396563,
        0.03319722140075322,
        0.02643478913198462,
        -0.112836769737779,
        0.0034618730720655834,
        0.09265428626347999,
        0.060062363226033325,
        -0.005801220864147219,
        -0.04178945884395485,
        -0.06560229042035513,
        0.03518092647675016,
        0.01029755899374283,
        0.041087923147113584,
        0.003490219505611132,
        0.061392328496822565,
        0.0113606154397509,
        0.07046712692891689,
        0.08181939591348716,
        -0.07093323279782547,
        -0.16213758399006867,
        0.13687393952713012
      ],
      [
        0.021168493176237854,
        -0.15643994051963298,
        -0.07713663573116465,
        0.061869618750819574,
        -0.020116360990261605,
        -0.05171868154971789,
        0.1113029508282204,
        -0.08552828218588787,
        -0.07140698319488699,
        0.018735413072131793,
        0.030675466474659394,
        0.0445729202958265,
        0.08077747036567617,
        -0.0005989777738185879,
        0.04114168804551411,
        -0.02408128030770658,
        -0.0015851933861288068,
        0.009656854443367302,
        0.02265441948013695,
        0.06937612273430416,
        0.04182845802436394,
        -0.00031547880905715694,
        -0.08940959528859678,
        -0.015334589623990154,
        -0.010210178525517338,
        0.013829891495932813,
        0.1981518221093371,
        -0.05129863302848429,
        0.03528771405804304,
        0.0942237991630597,
        -0.005691962104279595,
        0.20608944434373766,
        -0.04156234585429439,
        0.018081237104051563,
        -0.07960947745574548,
        -0.03161209866732118,
        0.005508215780759097,
        0.0508466806738308,
        0.01156015296930388,
        0.10593211346956677,
        -0.017316607793465146,
        -0.029829614562762174,
        0.2428250309344078,
        0.033462113202720786,
        -0.06747899068880096,
        -0.07507211508718001,
        -0.09304229656439378,
        0.08239695789066075,
        -0.036875159454560755,
        0.0061348459605928465,
        -0.003534318608088597,
        0.05516422988050216,
        -0.07605166733103272,
        -0.1096490308180939,
        0.008920184662637089,
        0.057614953085808294,
        0.01777560899463727,
        -0.05946782865709565,
        0.05553659574953992,
        -0.07002295431527977,
        -0.05719029251776106,
        -0.07960370617135434,
        0.12335795557247557,
        0.05179811650433203,
        0.051365465159075314,
        0.1090169737860357,
        0.2543917297579637,
        -0.159694758432284,
        -0.08334918000056606,
        -0.06822479077650875,
        -0.07752719323778778,
        -0.11303195552359302,
        -0.026909639536456236,
        -0.11280811126192776,
        0.02676368419777382,
        0.003108267862796546,
        0.04920125541410478,
        0.04543601723282587,
        0.024713791746212008,
        -0.031356154306185366,
        0.19489137273030785,
        0.021052535740120608,
        -0.16725606825771971,
        -0.10203327901721712,
        -0.15769245081349495,
        -8.279929937150548e-05,
        -0.01113077988639081,
        -0.050819237388573815,
        0.18058649588561132,
        0.0376370233511114,
        0.06085011842556674,
        -0.09393902147028527,
        -0.0867077669864872,
        0.0033052313907773745,
        0.01669606388024815,
        -0.16776979734581796,
        -0.019087547822007177,
        -0.015262991254304172,
        -0.026951859855500034,
        -0.10123477154211973,
        -0.0496958960543711,
        -0.011963507872627682,
        -0.007169693946355929,
        0.04989872648898562,
        0.09668728363245639,
        -0.03147871426218766,
        -0.02929153342032077,
        0.0345526622984593,
        0.05230590078455475,
        -0.04737691119616435,
        0.07097942957525107,
        0.08831990683568408,
        0.1138575707398468,
        0.15847901595974906,
        -0.08601496956520076,
        0.001248096042398507,
        0.0010127670536803962,
        -0.037923136305704395,
        -0.04395276558105954,
        -0.1309386456024329,
        0.006243813673546906,
        -0.06206003673317377,
        0.001524838651008856,
        -0.09205869351679277,
        -0.0993034334184994,
        0.009935868232796118,
        0.012481869528232216,
        0.05149416537153357,
        0.1955496671539049,
        0.031744625887932976,
        0.040211434828967725,
        -0.10310350606297357,
        -0.124668913454136,
        0.13141553315602178,
        -0.0828679337490919,
        -0.10341850429645003,
        0.0033367087301836114,
        -0.00575903950400337,
        -0.08939287578716502,
        -0.04232147521250716,
        0.10326036031278157,
        -0.08775806432272801,
        -0.13346021161593868,
        0.0718693000139956,
        0.04819060493610761,
        -0.05572421713742032,
        -0.13645510548983072,
        -0.06913409311484746,
        -0.003990760712707051,
        0.10294463312068104
      ],
      [
        -0.09431207971699594,
        -0.01548920122866803,
        0.04759131916059379,
        -0.22118811181996967,
        0.09758394617998889,
        -0.11006449857104389,
        0.03240415925111684,
        0.02445072942306877,
        0.09758058510660113,
        0.04942021818219829,
        -0.22037338523085592,
        -0.07047525685489843,
        0.003932324309524865,
        -0.03595353915917328,
        0.03824142536786511,
        0.07124097694696598,
        0.05710788330644635,
        -0.019242457887132285,
        -0.167265578951299,
        -0.04090342363405104,
        0.028400637142717094,
        -0.10221700344079707,
        0.039937683680934505,
        0.06014676252192137,
        0.0036993162652323407,
        -0.2788844630185085,
        -0.11477572320087984,
        0.1627191047896765,
        -0.05052039993042997,
        -0.17897531501828315,
        0.09642820059296194,
        -0.0036393526528129797,
        0.09054291394689634,
        0.02039777034058503,
        0.033303298808009224,
        0.032978917842250106,
        0.045778075499114085,
        0.17935064395817754,
        0.07008694125044618,
        -0.14474442901693946,
        0.03132687264625138,
        0.10250799905646672,
        0.10800572080288513,
        -0.0393147633967129,
        0.10156287692332962,
        0.07057975586361147,
        0.22148723031313325,
        -0.06907193035446499,
        -0.04972034406160417,
        -0.03298979571011348,
        -0.04181270714665125,
        -0.09045640607919272,
        -0.2483545107991547,
        -0.05290190909550069,
        0.02194276362999735,
        -0.041639295374214236,
        0.1724023546654532,
        0.0021434967127198167,
        0.11063347325296113,
        0.021984970070304272,
        0.06102252889808059,
        0.029425364393784778,
        0.11761218120868965,
        0.0009214925808149758,
        0.04452668501468451,
        0.029377530458011832,
        -0.028684096914338635,
        0.029414224647043824,
        0.18359891177168658,
        -0.03698648359439487,
        0.03903023893303677,
        0.09668781212022542,
        0.10239776745550924,
        -0.004496543200422319,
        -0.20912239110059513,
        0.044673875752845156,
        -0.20789747672266792,
        0.1318449164425887,
        -0.01424107751211103,
        0.0917153450393598,
        -0.0793854365942268,
        -0.13941928682044072,
        0.02341643495924001,
        -0.015042488607188674,
        -0.041606368294686114,
        0.0050400176112466565,
        0.24837039331974312,
        0.06869410728348217,
        0.09424775704138029,
        0.06271078316209655,
        0.12371742580670197,
        -0.0273980079523067,
        -0.18609828780722595,
        -0.016935534688302965,
        0.07560619512743072,
        -0.08734617356944022,
        -0.018939100833778543,
        -0.07865644913766426,
        0.12766645172309435,
        0.03909422708102753,
        0.0562080274342188,
        0.056508032430065164,
        -0.018677477430926414,
        0.013285596382478572,
        -0.10768527805582202,
        -0.2013937671690719,
        0.02166094988893718,
        0.024446587955018934,
        0.1060528076221321,
        0.130558982755352,
        0.14099002603990743,
        -0.0881816593416633,
        -0.03390305659197178,
        0.04191631639649683,
        0.21916442817407716,
        0.13291683225631346,
        0.10052483268431689,
        -0.0639551486176885,
        -0.0738511222057807,
        0.07239865753700633,
        -0.10092055751176639,
        -0.02009967148719348,
        -0.016505425388629907,
        0.12228537087262907,
        -0.03240395686575858,
        -0.2197665772643097,
        0.04422918297562473,
        -0.06328641449952933,
        0.003081685185420571,
        -0.0018451308777407342,
        -0.0279911894471728,
        0.0741930908047885,
        -0.14676306389085514,
        -0.057159335670886435,
        0.0605496822771362,
        -0.0648235615395345,
        -0.14437886137341993,
        0.0614997093242752,
        0.09254427670449443,
        -0.008395960435815206,
        -0.1832414692673887,
        0.04801107358729684,
        -0.15737115004181057,
        0.01650624910417729,
        -0.07489389885515607,
        -0.10415664261134734,
        -0.03704299070015771,
        -0.02050048213780089,
        -0.05654633917171534,
        0.051131304280790844
      ],
      [
        -0.03906463176716906,
        0.07852090704248094,
        0.012142896576584603,
        -0.07030220488053048,
        -0.07682383046770207,
        -0.14782842651782058,
        0.04644947032495249,
        -0.036615049079246606,
        -0.20846626070637872,
        -0.04753133845697324,
        -0.08788716583374989,
        0.14150002491931646,
        -0.16616287263941246,
        -0.1479343745724777,
        0.10143675187807198,
        0.12092494191557024,
        -0.0551680122713276,
        -0.056762982556218484,
        0.044252675289851884,
        -0.2089797309384045,
        -0.1762326076053394,
        -0.029501741987561135,
        0.12239658116751936,
        -0.060616983480239285,
        0.0013702843162463722,
        0.09775647447113421,
        0.18920383442801128,
        -0.058045664568636364,
        -0.003278424580847017,
        0.16621136858124902,
        -0.15110110695041157,
        0.0838531591706828,
        -0.10180118015046302,
        0.00041529547660025534,
        -0.02966243756251935,
        -0.08565225638943808,
        -0.10514891415729394,
        -0.0003816483045541129,
        0.0722256147379098,
        -0.0033273176663839604,
        -0.002530307842388656,
        0.05129294534303234,
        -0.08725394159093855,
        0.06566611291040808,
        0.07032326609184093,
        0.22104936364083883,
        -0.043266714164430994,
        -0.04280541403658486,
        0.06501006637373463,
        0.07107326433881105,
        -0.04477957026347581,
        -0.04676268293951274,
        0.048284751304670456,
        -0.09041204197544818,
        -0.04815602930508819,
        0.010956574856755188,
        0.10051526238080886,
        -0.06190825845061136,
        -0.17075434796788153,
        -0.16773261188699715,
        -0.11872910900119417,
        -0.11814242747917399,
        -0.031121422598768118,
        -0.11010556384534072,
        -0.0625514867911879,
        -0.07152577255198056,
        -0.04676957577439415,
        0.10824572458319016,
        0.04233196036918808,
        -0.01127800564971205,
        -0.04316808659882491,
        -0.055193436573705304,
        0.0294325018619646,
        0.05109722996808741,
        -0.07818825881310056,
        0.0003906315554626897,
        -0.19992097690521565,
        0.018853115355383997,
        0.03886841353379569,
        -0.028463011269292852,
        0.16462480963359874,
        -0.07913754875467902,
        0.019526725731684805,
        -0.015279037681858586,
        -0.008167350498671498,
        -0.01238750134785706,
        0.009681776712197136,
        0.06904045907042577,
        0.12372436641467878,
        -0.014691599988139382,
        0.0665019828307587,
        -0.07335769959402814,
        0.07022272549227912,
        -0.06842885888939453,
        0.09871094591835977,
        0.19826588409419793,
        -0.015949191620328856,
        -0.21347353002737623,
        -0.05643114642077865,
        0.08231831913835617,
        0.05359993226107387,
        0.019947870936947474,
        0.07521790046030981,
        0.03862319341440112,
        0.10810238925505591,
        0.07749848972060708,
        0.13510441788178054,
        0.02739195682637776,
        0.07875233770992293,
        -0.0401443073670114,
        -0.0540127753586622,
        0.1547518732010398,
        0.020495569362847126,
        0.07026892579073546,
        0.002933520001511902,
        -0.05267066031345533,
        0.0009862928696949076,
        0.09975483969232793,
        0.04062937178322684,
        -0.15191323261525028,
        -0.021397050352431727,
        0.1587800659928682,
        -0.025413951074779933,
        -0.1825183280181499,
        0.169449609656202,
        0.07183980363206463,
        -0.007358624000394616,
        -0.03308951401541636,
        0.09645137880024816,
        -0.04583189308921053,
        0.09985816608034559,
        0.054608644593003165,
        0.01287139201418286,
        0.002296810464071654,
        -0.014105962740763516,
        0.08417208917778016,
        -0.08279128244201603,
        -0.14535066703281382,
        0.046819524253134535,
        0.0542215712002726,
        0.035903633603547896,
        0.021194342320160278,
        -0.03714267064978191,
        0.05924344214556233,
        9.146674382479696e-05,
        -0.043744089105773924,
        -0.024635486544910393,
        0.1880018837009634,
        -0.15335140960232024,
        0.04314648594751664
      ],
      [
        -0.14894990948746575,
        -0.02084410809686604,
        -0.05204809681114053,
        -0.19502283292557568,
        0.033637357849409834,
        -0.03578836759215493,
        -0.16399677644325628,
        0.06693712757871,
        0.1394112754846583,
        0.13376282874662582,
        0.024814460072339364,
        0.00413614294496694,
        0.10523159355776752,
        0.1325675553629641,
        0.10581314386739567,
        -0.08531851905572584,
        0.03258237290739735,
        0.03946971492055281,
        -0.17297883240126197,
        0.042149831515337716,
        0.19384415849583086,
        0.05318186208021592,
        0.11551406395756632,
        -0.0050834906144493555,
        -0.014269306762860945,
        0.029975294314066155,
        -0.0732633957563677,
        -0.09332171470122837,
        0.11049917578694628,
        0.12850164391435576,
        -0.10341040392951087,
        0.07699434587613652,
        -0.018202354514864336,
        0.02743680181038485,
        0.03345424994741098,
        0.08967503312907772,
        -0.009455645684276988,
        0.10140601836176709,
        0.01058898242751253,
        0.06929318645238088,
        -0.08366184678327372,
        0.19385330179523041,
        0.04219152361596716,
        0.06354475388714763,
        -0.14752489045900946,
        -0.08666410568547808,
        0.10166400064595375,
        0.024097854632708714,
        -0.17591767237696543,
        0.09075780982466335,
        -0.04541878452581282,
        0.11617072857717611,
        -0.008174738324654594,
        0.002373876727784304,
        0.09458425773165946,
        -0.07768920249163595,
        -0.07316713835107401,
        -0.02513116204751073,
        0.06897897116049771,
        -0.11383672057233571,
        -0.14844675744961713,
        0.07406814382884273,
        -0.07322305280388411,
        -0.039367363568369604,
        -0.16813253754718407,
        -0.06226557033549426,
        -0.0127136969683858,
        0.07293326623518709,
        -0.08638654680668523,
        0.13610411118099566,
        -0.06420462383357971,
        -0.07765061681258649,
        0.13805878371587402,
        0.01627390443790199,
        -0.04013760116215515,
        -0.01809163279371076,
        0.09932162979649657,
        0.13150955640647796,
        -0.10295531308238166,
        -0.007854935494849728,
        0.009432162458547097,
        -0.08856697646012668,
        -0.005000665349789545,
        -0.011596725993506396,
        0.10092488603191305,
        0.10630890085082734,
        -0.029482091291313732,
        -0.02620505767714004,
        0.05965520977238201,
        -0.06726408217021315,
        0.04986054893212118,
        -0.01824518484551613,
        -0.08515119203942642,
        -0.08592647340352771,
        0.12969339845412806,
        -0.014302590636779544,
        0.14382087522263995,
        -0.06271350601808803,
        0.018945040733651334,
        0.1865421485686511,
        -0.08667481277621168,
        -0.17289855374286,
        0.10015757006944567,
        -0.07803355176737047,
        -0.0031120471734185735,
        -0.05768520242233993,
        0.016957324481209873,
        -0.09032481899124419,
        -0.01870145331452947,
        0.026838512190407542,
        -0.09054881102778493,
        -0.06139007230790495,
        -0.030386314692455275,
        -0.13099775133952363,
        -0.04613372316459848,
        0.010668244214498251,
        -0.03588055416423397,
        -0.0535954255751174,
        -0.018682253717645744,
        -0.05750990216673769,
        0.059998694886442376,
        0.12878952595394477,
        -0.04791701640009855,
        0.022728712355586794,
        -0.022069454538999205,
        0.051904307839761736,
        0.13953986913057206,
        0.04572412972938267,
        -0.160004020755299,
        0.04300291590049404,
        0.10745612760309367,
        -0.012981378427455503,
        0.08017670242062097,
        -0.07274500991774506,
        -0.1308410266930432,
        0.0029481865091608613,
        -0.16479521530600733,
        -0.021546841087143505,
        0.10647150652546908,
        -0.1737680268880521,
        -0.12212549925393645,
        -0.1081169165511368,
        -0.01404358618207591,
        -0.04477420550497854,
        0.12960366369474025,
        0.08570300994263115,
        0.0481746929186646,
        0.02519942250805309,
        0.03685743970831147,
        -0.07914411139710634
      ],
      [
        0.07719237412898405,
        -0.10587878031490375,
        0.061911869555988576,
        0.09873662258982574,
        0.026645047456673475,
        -0.023537590435542235,
        0.025569523233458756,
        -0.2552583312150145,
        0.036527882422481034,
        -0.01023377704016765,
        -0.013269833098164971,
        0.06344849268537527,
        -0.007783797050301468,
        -0.12090854905289973,
        -0.0020972637304783404,
        0.005322924899913857,
        0.01056272736738384,
        0.014540788432609473,
        0.09555402682373378,
        -0.09752878195460578,
        0.009980260422855401,
        0.11156069683266655,
        -0.17246813845827758,
        -0.005124394226112449,
        -0.06012379986704931,
        -0.03619269161759881,
        -0.08125411244545919,
        -0.020014182661365214,
        0.16213130493162334,
        -0.1159012008960525,
        -0.11901884236486547,
        -0.1252991411406352,
        0.1474504754612223,
        -0.049226441271203784,
        -0.010177059508345377,
        -0.03579125083919838,
        -0.10155259408654511,
        -0.046133676144632874,
        0.20369344851447635,
        0.12319742437130018,
        -0.08548048335322356,
        0.058153871182555966,
        -0.07467294936344292,
        -0.16118938535133986,
        0.08903406907612771,
        0.09150823966428649,
        0.08452130991291733,
        -0.04379566497294811,
        -0.01853422597811247,
        0.06484530892199797,
        0.03821576978031916,
        -0.04578557348014871,
        -0.14698143285025106,
        -0.005985560967214902,
        0.08560893722216016,
        -0.10467079877314507,
        0.059319026883172636,
        0.03541654956816194,
        0.06206196359969853,
        0.07880117148941412,
        -0.06004449708376889,
        -0.14243970630630132,
        -0.045176528127300906,
        0.07664830718785745,
        -0.05563937646674125,
        -0.06422661983353264,
        -0.16458372440117672,
        0.14742671942259908,
        0.05758340951349479,
        0.056460471800600334,
        0.08417657099284279,
        0.03564266954161896,
        -0.021941378914187733,
        -0.021528345416139173,
        -0.0384767774411057,
        0.23270449157841117,
        0.05153037142739321,
        -0.041809852893749645,
        0.012435705764311196,
        -0.08683839918104332,
        0.13675925350648255,
        -0.0593657573065042,
        0.04499880023368757,
        0.08375963761024827,
        0.03293470304163367,
        0.006362588115183696,
        0.0010063436456563266,
        -0.011974599798797612,
        -0.051789053141104366,
        -0.05342221215787132,
        0.12872378454304997,
        -0.01999358047700906,
        -0.06883458413112761,
        -0.04636489291000466,
        0.09919245728396942,
        0.06041573956612318,
        0.05043685979109814,
        -0.039596369667429784,
        0.0442856864145409,
        -0.08592876384873593,
        -0.01331600151569585,
        0.08613792910593511,
        0.06323861854243973,
        -0.09334305582000516,
        -0.0780811042671004,
        0.00469354764673879,
        0.1630749364696381,
        -0.17521307648791043,
        0.022451698717333653,
        -0.13684927257817886,
        -0.056964604838549905,
        -0.03365310557472005,
        -0.04109786248359097,
        -0.05016426406888817,
        -0.007443065648133646,
        -0.048067368853098785,
        -0.13133255015400874,
        0.04102747357838364,
        0.06931658886400376,
        0.07710574277403771,
        -0.14042197359881023,
        0.03302318870276489,
        0.05455971471777357,
        -0.11328598065961948,
        0.000272583252477967,
        -0.006457927087888373,
        0.16435872903150847,
        0.17252091650536408,
        -0.150210310176638,
        0.2260567832753859,
        -0.08544800091955158,
        0.08246281494917554,
        0.07791934887474239,
        -0.1001864267752772,
        0.04695714672416268,
        -0.019385980931457242,
        0.04998360277991906,
        0.020733495927663794,
        0.09834411720207693,
        -0.004174600471303252,
        -0.02216739569143809,
        0.08312068693837626,
        0.04376380136353952,
        0.05291908776197402,
        -0.05857177035635552,
        -0.09386736877520986,
        -0.04240804052342177,
        -0.052913750121768646,
        0.07214714182748846,
        0.08631422038113992
      ],
      [
        -0.013718499349007226,
        0.12205268815777641,
        0.10978498029876568,
        0.014075749366456478,
        -0.07074337711419124,
        0.13927120055225775,
        -0.011981254026214971,
        0.01655463177356123,
        -0.02335512816759916,
        -0.07995981767874245,
        -0.13930215948189817,
        0.056833253197842715,
        -0.0714739230885693,
        0.25623906460017787,
        -0.09191436823859,
        -0.11368405622938979,
        0.04790574917985584,
        0.13733640464176947,
        0.008681945323318787,
        0.05138888635513402,
        -0.17247224592871271,
        -0.0651194998138353,
        -0.11312318779739522,
        -0.19147110636842757,
        0.0029341589114852224,
        -0.2048237250294466,
        -0.11873670291385983,
        -0.05335715697858867,
        -0.07787000225548298,
        0.03310193581762771,
        0.013187748688750606,
        0.07536451722251702,
        0.060201684320653405,
        0.0908649142694324,
        -0.00804688132614918,
        0.027631857243264765,
        0.029180791712729172,
        -0.01232153668229844,
        -0.05274724292205724,
        -0.03218600102150773,
        -0.08230345546539072,
        0.037862309037763164,
        -0.008442811868332092,
        -0.06122162309823015,
        -0.06241287534321081,
        -0.12137952002603322,
        0.07847893730371554,
        0.0053880520831295,
        -0.08095400380568833,
        0.07011841057058268,
        -0.048006589265285116,
        -0.13676051029023084,
        0.09005148642237792,
        -0.06408552665866994,
        -0.048009211147953174,
        0.00662212743719345,
        0.10168511010263316,
        0.006384459438589554,
        -0.11298723589504978,
        0.04666850601878025,
        -0.04231816098844723,
        0.17278490025878573,
        9.78717760428269e-05,
        -0.20390141253154775,
        0.025631989197598674,
        0.17232940983992268,
        0.13448042781056602,
        0.15616355182140557,
        -0.10814487905077078,
        0.06905595447468851,
        -0.06756128778531156,
        0.003979535849634496,
        -0.11431450271475815,
        -0.060499653022818664,
        -0.06418546697134747,
        0.07675203236508868,
        0.06853539916330319,
        0.024699801827504315,
        -0.15066693637692885,
        -0.029260260842687763,
        -0.06740672140801113,
        0.07809918847323903,
        0.10580412316680089,
        0.08288566660514611,
        -0.07245753380594745,
        -0.24813840451201075,
        -0.15872642493626846,
        0.12076418973639334,
        -0.036033757283136104,
        -0.07692899989343797,
        0.1429948108928178,
        0.10335690915293569,
        0.004842298512093332,
        -0.026348375393067187,
        -0.011007601256933747,
        0.020144294372538014,
        0.13863732901938436,
        0.02145388728778723,
        0.0575911175242007,
        0.07684060659256098,
        -0.09823554242008481,
        0.06525826306846612,
        -0.04173955821968077,
        -0.23213995156650288,
        -0.19236782746010272,
        -0.09649785440456386,
        0.060992896407270035,
        0.0057264881195694265,
        0.014013207189958785,
        0.16891991165698597,
        -0.11396761178797002,
        -0.0031498270048175075,
        0.023150609707120212,
        -0.0687889007904574,
        -0.005559956044841835,
        -0.14367969168787809,
        0.12661331599155456,
        -0.09024455338315072,
        0.18860427546631997,
        -0.001167486922688528,
        0.09026123945037165,
        0.0017462884699293165,
        -0.008975303741617383,
        -0.0731475888486882,
        0.010146445903542268,
        0.03150111264662818,
        -0.07149977685436863,
        -0.011710799555373986,
        -0.05553518937669604,
        0.20882203606306102,
        -0.011318277614069052,
        0.13390317620827774,
        -0.026801346513908666,
        0.012513912768081819,
        -0.1143020458233176,
        -0.049877469568129496,
        0.022592921771730633,
        0.14244586019610728,
        0.01084430181848151,
        0.11304508751362065,
        0.05042834323927041,
        0.1308173492036828,
        -0.013659442553938398,
        0.20273372718782903,
        -0.04236177307225102,
        -0.06883030461153411,
        -0.10152205208552914,
        0.20919028771491316,
        0.07513292766524288,
        -0.03150207321901348
      ],
      [
        0.11237816125860763,
        0.052233095300283035,
        0.16345626006774988,
        -0.14678161028570316,
        -0.025924627027693038,
        -0.04177566492057156,
        -0.17613533025598183,
        0.10098533053460851,
        -0.017963161872027684,
        0.06636655544883242,
        0.20605169067258922,
        -0.031722219979875295,
        -0.04014055655010923,
        -0.007858593600466892,
        0.08816401552985347,
        -0.051655724494797516,
        -0.056986983876542725,
        0.09493839909058314,
        0.03552414067020876,
        -0.18362201861983182,
        -0.12023396546831851,
        0.13052885828001845,
        0.01929188854402904,
        -0.08995693348816741,
        -0.022997346144340763,
        -0.0026608457185337948,
        0.0660708061921464,
        -0.12803074010355175,
        -0.07873779245722833,
        0.026333539053194573,
        -0.02350239591210534,
        0.045750764806843904,
        -0.1177773336499584,
        0.023900913778653738,
        0.09015249890325348,
        0.044097321151602455,
        -0.0043913564809764626,
        -0.03384086887381303,
        -0.09216895756097256,
        -0.008670105164187616,
        0.10424301470293393,
        -0.010689075438855732,
        -0.0799067571257752,
        -0.04587195573331146,
        0.014837737151342302,
        -0.04632583015634471,
        0.03408028518919304,
        0.04522210413867398,
        0.07606581622868949,
        0.1253480936700323,
        0.0917897907019323,
        -0.09446642281552906,
        -0.08229274570739735,
        -0.021550631389935685,
        -0.05180573200225316,
        -0.09927829452446474,
        -0.03886427027885745,
        -0.04269557672110545,
        -0.06563704719956229,
        -0.03197894682965844,
        0.10852582448131433,
        0.020742922037232544,
        0.21998512891381986,
        0.011939094030095496,
        -0.02874610490804913,
        -0.0026201614138096304,
        0.011813881613953352,
        0.03159231099521412,
        0.16936614911434836,
        -0.08885990120815299,
        0.07442034926719698,
        0.0023493922706369127,
        -0.14108874228399002,
        0.06538302757250745,
        0.11214723841296925,
        -0.0809173273191303,
        -0.0072219119901220695,
        -0.15510073038475028,
        -0.14264927744668993,
        0.0892984839655101,
        -0.040587577433569305,
        -0.09957344660096654,
        0.020606149030865054,
        -0.058988754237898795,
        -0.0473665665284761,
        0.06427236947736516,
        -0.10437529764753438,
        -0.0883148780054077,
        0.01383679176309033,
        0.07752156790966616,
        0.108287492767216,
        -0.07007525481448369,
        0.08690296412318854,
        -0.07041805672536038,
        0.16669946735263613,
        -0.10207117085913431,
        0.1120351544347741,
        -0.07554180089506493,
        0.17312308541993887,
        0.02477560487371,
        -0.08398953387941768,
        -0.047901475674945945,
        0.054770508663115,
        0.08985376161966588,
        -0.007603008388667429,
        -0.0010577618265477746,
        0.07204051197829509,
        0.0072240326247575495,
        -0.11870252186631167,
        -0.08175189182955363,
        0.021114394201136477,
        0.1109111663957821,
        0.14315272820270386,
        0.06878489271198455,
        0.017612845258270424,
        0.06724547207686289,
        -0.05987599391400563,
        -0.04298564353564738,
        -0.07309249311999341,
        -0.10971078804369863,
        0.027893230704903835,
        0.022155669292069594,
        0.05553858998254101,
        0.028198915065797983,
        0.02123890006541349,
        0.05529301267549245,
        -0.0049043388686660526,
        0.036551917486522596,
        -0.06595638620427334,
        0.03670180997070116,
        0.056777696575889026,
        -0.06433182856074951,
        -0.004579282712814422,
        -0.06677196336007979,
        -0.042856004999864986,
        -0.11075080391392285,
        0.1114359961690363,
        0.09571986549404754,
        0.03917264475779425,
        0.17137129533637538,
        -0.024218060262449957,
        0.25682261711535603,
        -0.028790039601379276,
        0.01131100112196618,
        -0.032265109654437726,
        0.0334358223334596,
        0.07746212522809995,
        -0.008415899742165717,
        0.1610985156569348,
        0.01974032731655759
      ],
      [
        0.02450291663655228,
        -0.09054736260376588,
        0.024475127249247636,
        -0.01981811831673548,
        -0.05355662336939731,
        -0.07273337452154721,
        0.22952560226301247,
        -0.01900412546132781,
        -0.12354280761358064,
        -0.06275642560960924,
        -0.010493013509195393,
        0.0490921487505823,
        0.049875676252235226,
        0.0422468298417826,
        -0.05613237206429545,
        0.02980982780521769,
        -0.08376155227744883,
        -0.05564558255650166,
        -0.07936752210074734,
        -0.10672046957768765,
        0.08701015219545694,
        0.05755305417870437,
        0.0709048025832994,
        -0.017979300740959266,
        0.06206528351934265,
        -0.1616373897141975,
        0.07750754717703777,
        0.0097814820169297,
        0.05309777413214423,
        0.03540345241766752,
        -0.10317715549464569,
        -0.13980622259771622,
        -0.0713086617148534,
